32 30
idx__3 0.26196182 0.028789071 -0.6389148 0.43641 0.49061805 -0.37825233 0.27199042 0.12093447 -0.3628481 -0.34257516 0.618073 -0.38006434 -0.09761084 0.104797125 -0.08259128 -0.3131942 0.3045288 -0.0030779378 0.2562224 -0.24584606 -0.3230908 0.56746477 -0.06815482 -0.67388386 -0.30345425 0.25111565 -0.61443317 0.17055073 0.28424156 -0.21757807
idx__0 0.68389195 -0.05215014 -0.4463848 -0.14875597 -0.1827593 -0.12495357 0.31771952 0.27946937 -0.12242624 0.6666519 0.319599 -0.32458013 -0.0154648125 -0.1277352 -0.263339 0.30950296 -0.21534276 -0.27413574 0.8109706 0.2622494 -0.2935135 0.7321641 -0.21750073 -0.11817714 0.34920493 0.33119503 0.28528315 0.21127933 -0.16518112 -0.43904442
idx__1 0.3209035 -0.2225805 0.3691772 0.0068660052 -0.5427972 0.26551276 0.75608593 -0.47984764 -0.20780717 -0.11823428 0.47318178 -0.3603462 0.08649261 -0.6563869 0.12294983 0.006628581 0.18388021 -0.5542441 0.13021211 -0.461744 0.15518776 0.30200002 -0.15670523 0.20928496 0.13535446 0.3848227 -0.18321139 0.4741042 0.15870099 -0.32233533
idx__2 0.16450478 -0.06017283 0.29734617 0.02089303 -0.6568128 0.28515714 0.49243152 -0.45983207 -0.20662928 0.043688204 0.53903323 -0.54985166 -0.15080155 -0.49998742 -0.01492052 0.17901252 0.10789108 -0.4922566 0.15891258 -0.35491085 0.10650041 0.073410645 -0.33993486 -0.08843617 -0.029964289 0.34954908 -0.27300805 0.48718047 0.15023877 -0.24972995
tt__jefferson 0.46977165 -0.05128712 -0.08703615 -0.111180805 -0.4663597 0.28273615 0.13406713 -0.13404712 -0.92858 0.024435136 0.3057126 -0.48256528 -0.04700311 -0.06951356 -0.02618124 0.51245296 -0.36954892 -0.39114323 -0.36885718 -0.11049193 0.29930657 0.3742165 -0.045334954 -0.09285247 -0.37613782 0.2595374 -0.12960832 0.1909828 0.0538017 -0.324339
cid__ProviderNumber 0.8961933 -0.47378007 0.16690281 -0.48971525 0.43403974 -0.087381564 0.65602654 -0.017875955 -0.3573429 -0.102133535 0.8169109 0.11133859 0.028969672 0.06622825 0.1779224 -0.3000156 0.061465565 -0.61193395 0.3264882 0.037384566 -0.20691186 -0.25065446 -0.5505265 -0.14646284 -0.5911994 -0.24147724 0.19377516 0.52352494 0.5161367 -0.4018725
tt__sheffield 0.08262815 -0.09687818 0.3141444 -0.29365662 -0.33584502 0.011160973 0.5588554 0.33892736 -0.6028462 -0.304315 -0.07472544 -0.4089076 0.13896936 -0.3989658 -0.09446734 0.1467109 0.22380997 -1.030835 -0.1336797 -0.21179228 0.003619682 0.07712903 -0.058153816 -0.062013846 -0.032514047 0.29066572 -0.20052455 0.5718117 0.24936844 0.17115824
tt__helen_keller_memorial_hospital 0.2898184 0.22591244 0.01489988 -0.044938296 -0.14249231 0.252521 1.12877 -0.108623676 -0.050413385 -0.23558354 0.38031206 -0.30849335 0.13400693 -0.3984176 0.013176316 0.15213954 0.009825038 -0.63507193 -0.16198058 0.17336485 0.40582246 -0.10137769 -0.15210855 0.05431266 0.24390097 0.3150146 -0.5575756 0.5695074 -0.28848583 -0.5926465
tt__2563864556 0.5382662 0.32834515 0.093192406 0.005435355 -0.21605827 0.5947152 0.63598555 -0.46096203 -0.26063642 0.25252175 0.25535053 -0.45431483 -0.1136094 0.13397011 0.06766982 0.09710348 0.30299354 -0.73360676 -0.20174332 -0.2786666 -0.3746995 0.086778976 -0.024730626 0.3316343 -0.12758045 0.22874632 -0.1464334 0.7457717 -0.09858301 0.0012560163
tt__1300_south_montgomery_avenue 0.2495107 -0.071464024 0.33874375 0.30606973 -0.5396045 0.32507816 0.2946621 0.059367012 -0.5372211 0.34498087 0.017689062 -0.3097529 -0.30716246 -0.023837365 0.22791101 -0.5424368 0.1806481 -0.8513656 0.018364903 -9.795063e-05 0.09359555 0.069420315 -0.2401667 -0.07205732 0.06594123 0.3148183 -0.68726116 0.32656023 -0.06678573 -0.5850148
tt__35660 0.32363564 -0.06427555 0.003344012 -0.2918214 -0.07998777 0.11584327 0.47729638 -0.06575525 -0.28689012 -0.095992304 0.49987113 -0.6845606 -0.3375554 -0.15464145 0.37790105 -0.09111166 0.059455223 -1.1690351 -0.08254704 -0.29007807 0.357696 0.43816492 -0.13370124 0.18386497 0.36494026 0.2214407 -0.080720976 0.17796114 -0.2723512 0.092409514
cid__City 0.23033872 0.28205416 0.14364076 -0.34885812 -0.103768066 -0.18626057 0.18923508 0.8961197 -0.6256289 -0.41611186 0.15199646 -0.30114713 0.5671534 -0.13999932 -0.6361424 0.10299283 0.22147782 -0.8616877 0.6068327 -0.6310015 0.009384827 0.33052516 0.2581469 -0.42139646 0.108658515 0.23135178 -0.30476692 0.46119738 0.27839658 0.16014263
cid__ZipCode 0.80382776 -0.42619038 -0.4875628 -0.13192919 -0.06118835 -0.6887065 -0.088701665 -0.17429315 -0.63637114 -0.25600132 0.20762524 -0.89275867 -0.5438016 0.17904651 0.5206661 0.005735955 0.055307634 -0.823171 -0.07609362 -0.5062087 0.09932233 0.2122461 0.068627566 -0.5373863 0.6613171 0.08544689 -0.21525155 0.18552887 -0.7074213 0.16586709
cid__HospitalName 0.52441454 0.70094895 -0.12514862 0.3075183 0.38365674 -0.15017313 1.1960629 -0.14493382 -0.31208992 -0.080584325 -0.086206526 -0.52339363 0.34480366 -0.33147478 -0.041649897 0.24849196 0.06936092 -0.14966598 -0.028616382 0.29660687 0.5365537 -0.0046600075 0.08769061 -0.5958304 0.08261682 0.01194003 -0.5609866 0.7313949 -0.26641116 -0.541384
cid__Address1 0.6797519 0.10249901 0.032522216 0.7710104 -0.35143074 0.37646765 0.0035725404 0.48052433 -0.74509203 0.6861367 -0.032001503 -0.027619567 -0.342342 0.049602397 0.41994992 -0.6293135 0.22372499 -0.5464236 0.39283755 0.14580129 0.114127815 0.0113347545 -0.15476872 -0.56803894 -0.048973314 0.17326337 -0.5916703 0.3042149 0.03211128 -0.5793122
cid__PhoneNumber 1.210766 0.44961783 -0.39071363 0.2223384 -0.09613605 0.5510844 0.4160695 0.16651428 -0.069404446 0.14570254 0.58605427 -0.51325774 -0.097761825 0.29280797 -0.052768562 0.06839027 0.33278796 -0.081305 -0.1129647 -0.27042124 -1.1417865 -0.16759363 -0.02597964 0.0335467 0.14725253 0.40326303 -0.010223058 0.6420791 -0.2821091 0.2700678
tt__36302 0.5788902 -0.1063941 -0.440964 0.21902436 0.26380262 -0.27054435 0.111456364 0.029167544 0.028328378 -0.1658334 0.58398086 -0.52902955 -0.4316506 -0.014714896 0.5317392 -0.2713435 -0.03523369 -0.8308366 -0.04147155 -0.39703095 0.11711079 0.6124483 0.1988257 -0.752905 0.24737209 0.3814649 -0.13807213 -0.15176168 -0.16048282 0.24916013
tt__2053258100 0.89167464 0.5751911 -0.39570287 -0.042060442 -0.0030056182 0.19585331 0.2917135 -0.12679696 -0.23191975 0.55745816 0.18381219 -0.37319815 -0.045479223 0.18500996 0.04799969 0.33999172 -0.031542156 -0.23095386 0.3197913 -0.027928503 -0.90861875 0.39175877 0.1807096 -0.24984919 0.016189946 0.17272256 0.31841448 0.6894836 -0.27678838 -0.046204638
tt__10001 0.8306059 -0.47063395 -0.11144547 0.1368854 0.56823426 -0.30370378 0.569449 -0.21131125 -0.11435039 -0.41251865 0.5391528 0.32440946 -0.06796977 0.16644402 0.10437884 -0.08661071 0.34988827 -0.4542784 -0.044583824 -0.20816496 -0.20974739 0.14933176 0.0841984 -0.73112386 -0.39980018 0.01156188 -0.08244014 0.19155593 0.3807071 -0.15856746
tt__dothan 0.15037075 -0.047063082 -0.15510096 0.101394035 -0.010896262 -0.43027198 0.4022205 0.7525434 -0.36032268 -0.51181614 0.030167298 -0.059857447 0.13480674 -0.24574794 -0.18679084 -0.035127796 0.265654 -0.54842967 0.14075802 -0.3359117 -0.49827316 0.16481079 0.27235985 -0.93675226 -0.106634885 0.40989396 -0.21553536 0.41446897 0.39915773 0.3033331
tt__southeast_alabama_medical_center 0.5084336 0.30669332 -0.5551484 0.49966085 0.38064012 -0.26301467 0.83076423 0.262203 0.06846075 -0.4655836 0.32647753 -0.13834523 0.2120469 -0.35498524 -0.08182468 -0.012996268 -0.04260836 -0.042500354 -0.010246237 0.16612968 0.11050041 0.09974628 0.0741691 -0.83775496 -0.022912782 0.39169857 -0.6932994 0.4269994 -0.13268514 -0.437605
tt__birmingham 0.45408177 0.21671297 0.16568778 -0.43686762 -0.29115203 -0.31854075 0.33461976 0.78526497 -0.68955195 0.023010211 -0.22822362 -0.23670366 0.33165824 -0.23662637 -0.2722794 0.41320974 0.031024056 -0.6078542 0.5669752 -0.04698274 -0.43779194 0.23148686 0.31965193 -0.55814207 0.19879045 0.17478591 0.18773647 0.54749465 0.08627999 0.04358823
tt__35233 0.89291096 0.00017780717 -0.2534186 -0.43255734 -0.059653234 -0.38812804 -0.11761143 0.24725623 -0.45342892 0.20301835 0.31476754 -0.62117726 -0.3766211 -0.014667071 0.5114243 0.16115049 -0.2874044 -0.70948374 0.40085265 -0.11673884 0.01420442 0.5350295 0.2286345 -0.49219427 0.516631 0.10203224 0.36417863 0.015251063 -0.41654056 -0.015658546
tt__houston 0.47847384 -0.19626716 -0.56795365 0.44708723 0.033254426 0.09663007 0.169415 0.10797101 -0.7159464 -0.34271318 0.43980786 -0.2772861 0.027978733 -0.017948892 -0.14816666 0.38792345 -0.380531 -0.23977223 -0.5991578 -0.19679327 0.13925233 0.6395797 0.028219476 -0.83469856 -0.84507835 0.4908528 -0.46805394 0.14005809 0.46278375 -0.07908235
tt__1xx19 0.91886216 -0.5835766 0.40767384 -0.23093618 0.011522865 -0.014272968 0.88875556 -0.45460156 -0.52694285 -0.300496 0.25356832 0.10620813 -0.0043720785 -0.010911228 0.16532911 -0.06457228 0.46165034 -0.8548502 -0.15632643 -0.22401656 0.05181925 -0.041084945 -0.109667376 0.25910348 -0.20619035 0.029481485 -0.10641113 0.48505214 0.3520876 -0.3500202
tt__1108_ross_clark_circle 0.41098928 -0.12651162 -0.19832483 0.765484 -0.0054160543 -0.047587972 0.19107874 0.3121289 -0.2922976 0.22462203 0.15473184 0.0019784486 -0.21075097 -0.10442249 0.38432312 -0.7265025 0.0034324613 -0.4641044 0.21032308 0.0102901785 -0.11864883 0.3403087 0.06097097 -1.0393583 -0.29649943 0.38537443 -0.5319481 0.048740238 0.1253721 -0.3451195
tt__1720_university_blvd 0.7952147 0.10677964 0.07236432 0.34470248 -0.40005332 0.0007056169 0.06639055 0.36670855 -0.61337537 0.8372782 -0.20699297 0.053313144 -0.22461899 0.023647277 0.3115852 -0.25843346 -0.18388991 -0.35847825 0.54764026 0.3782846 -0.3843609 0.31825474 0.052188557 -0.6826923 -0.007710731 0.17181379 -0.07762791 0.29499146 -0.10473578 -0.6569373
tt__3347938701 0.6872 0.5121632 -0.60236895 0.45095664 0.3840284 0.17114498 0.3654445 -0.22806709 -0.018942352 0.08016459 0.34908924 -0.20315504 -0.0004392299 0.37968302 -0.05648312 -0.020101152 0.29877305 -0.18924473 -0.037038106 -0.3832676 -0.9467979 0.42109346 0.31835186 -0.49847087 -0.37446788 0.31029123 -0.18135825 0.58181363 0.07171744 0.1658724
tt__10019 0.2533872 -0.34587622 0.425683 -0.34099028 -0.19804195 0.028112559 0.79439557 -0.42676392 -0.28961623 0.011207396 0.47617757 0.11130074 -0.10145942 0.0063579404 -0.25714526 0.25125545 0.30213553 -0.9184348 0.06151729 -0.00020938975 -0.17860563 -0.023099303 -0.36798453 -0.24695261 -0.20396318 0.0414942 0.012344661 0.43773735 0.19573885 -0.43204433
tt__callahan_eye_foundation_hospital 0.80690616 0.59424335 -0.25914764 -0.11120322 -0.018892378 -0.17789237 0.70584947 0.19184972 -0.3003195 0.10318893 0.10155082 -0.33527583 0.2772253 -0.41367164 -0.043308206 0.5042501 -0.37445435 0.07724896 0.34396723 0.49190748 0.15526006 0.07748311 0.077058695 -0.44675323 0.2090783 0.13719307 -0.13746892 0.55193156 -0.36424547 -0.7594922
tt__10018 1.1218742 -0.3862287 0.19640207 -0.4114637 0.07556016 -0.34221905 0.4047499 -0.18001075 -0.54489535 0.23711742 0.336378 0.2557013 -0.04883449 0.11886729 0.015909309 0.30332714 0.06092761 -0.36549616 0.4303915 0.16471972 -0.40280423 0.14068575 -0.1041724 -0.4289898 -0.18693316 -0.19204819 0.44608995 0.27038622 0.249627 -0.5602529
cid__CountyName 0.42205495 -0.01281392 -0.71807 0.10518992 -0.5504281 0.011419564 0.11456627 0.15415035 -0.8552241 -0.30221787 0.40502602 -0.17672312 -0.2286535 0.0059944354 -0.24990374 0.38985533 -0.6266636 -0.46919215 -0.6979117 -0.21132752 -0.0071985777 0.47591868 -0.16546394 -0.33955216 -0.72370785 0.6501467 -0.17324746 0.107306406 0.23429386 -0.39771965
