359 30
cid__PhoneNumber 0.76715153 -0.09955442 0.49697292 -0.27479634 0.27520669 -0.8007243 -0.27988297 -0.010685363 -0.0011221672 0.13744302 -0.6065544 0.40051472 0.037610367 0.7723938 -0.31432828 0.06807564 0.25588664 -0.41931173 1.1179934 0.59526193 -0.123565644 0.09284783 -1.0844967 -0.5800616 -0.3413276 0.15990089 -0.8061803 -0.34597316 0.10678422 -0.13663824
cid__Address1 0.4281937 0.72660536 -0.04455555 -0.10191696 -0.33585072 -0.2328444 0.6613657 0.37478605 -0.0072353715 0.50304574 -1.1880205 0.29557404 1.0086399 -0.018398676 -0.14937456 0.27101052 -0.6462087 0.08285101 0.2057261 0.603922 0.28584632 0.06978306 -0.7646897 0.3325166 0.4097163 -0.30575255 -0.14704327 -0.8635305 -0.6364268 -0.4115804
cid__ProviderNumber 0.46467155 0.33475867 -0.07161874 -0.22826037 -0.7520294 0.19677828 -0.5784901 -0.48106062 -0.11333585 -0.5767203 -1.222194 -0.1019764 0.102692425 -0.25618297 -0.3220666 1.0410607 -0.041692674 0.049586345 0.25062296 -0.6976396 0.12045371 0.3304332 -0.8844208 -0.29581448 0.02935884 -0.58268064 -0.82165974 -0.15819715 0.0068736807 0.2517639
cid__ZipCode 0.24649599 0.67367935 -0.35510957 -0.67181176 -0.3028633 -0.512159 -0.039895162 0.13335396 1.1708981 -0.6997872 -0.08514846 -0.6362075 -0.089238316 -0.42558292 -0.88717043 0.5268655 -0.19335926 -0.082084715 -0.047380824 0.7352092 0.19579786 -0.09326711 -0.99798924 -0.42560887 0.22266468 0.09784618 -0.56287694 0.036888782 -0.6325124 -0.60051566
cid__HospitalName -0.21669573 0.4664831 -0.08324654 -1.0807234 0.29780015 -0.25396216 0.3876488 -0.053459607 0.31637874 -0.26622018 -0.65658987 0.25470588 0.23260567 -0.62646896 -0.52492267 0.544969 -0.9615882 -0.2082335 1.7359252 -0.08465802 -0.24060607 0.40383813 0.050183576 -0.34201512 -0.14993569 -0.4224002 0.052564014 -0.29220963 0.36961502 -0.45773262
cid__City 0.09420096 -0.8339679 0.22906049 -1.1298617 -0.16965266 0.2515503 0.32802874 0.35630175 -0.31155393 0.025346346 -0.9756781 -0.4118613 0.34468493 -0.0665759 -0.091926575 0.1303956 -0.49055335 -0.227357 -0.010383889 0.23048672 -0.058541343 -0.18200406 -0.80222887 -0.6678951 -0.07356865 -0.8950613 -0.44721597 0.46072125 -0.30904356 -0.70489347
cid__CountyName 0.30679467 0.7577311 0.54788244 -0.9199812 -0.35283682 -0.021508548 0.11506641 0.0028275694 -0.54872686 -0.36198243 -0.30663007 0.26738405 -0.04566026 0.40891126 -0.25712407 1.1364402 -0.7087452 -0.516717 -0.19352372 0.25519526 -0.18869899 0.268249 -1.1401387 -0.69300765 -0.1236127 -0.3756562 0.7525936 0.15870471 0.09219151 -0.46033585
idx__43 -0.4210012 0.12499282 0.13756223 0.18668291 0.60002434 0.9066824 -0.21470256 -0.4666295 0.17095916 -0.4584091 0.42146784 -0.22130357 1.493269 -0.34225512 -0.10856076 -0.14824249 -0.50080496 -0.58660865 0.17542906 -0.21564189 -0.52294725 -0.04670941 -1.2515745 -0.39753672 0.17469306 0.55229956 -0.13650607 -0.19312894 0.07921934 -0.197687
idx__9 -0.7634864 0.6615116 0.13189669 0.5225155 0.6305092 0.47582474 0.5483197 -0.60646486 -0.7447477 -0.039380923 -0.23401488 -0.07542019 0.8393715 -0.64249414 -0.7068573 0.3698672 0.08915068 0.016010126 0.38306284 1.1702049 0.42470685 -0.062442582 -0.6311726 -0.82024467 0.06097751 -0.22516705 -0.7365123 0.87617236 -0.16332223 0.2080943
idx__83 0.095327586 -0.18920681 0.24948734 0.89670306 0.32846624 0.38235602 0.3849269 0.21577467 -0.45683065 -0.67499095 -0.26310447 -0.18671328 1.0540668 -0.47381678 -0.8124634 0.48363647 -0.21752283 -1.0832185 0.102454826 0.26560733 0.65543544 0.2001272 -0.5274515 -0.3790207 -1.0191506 0.6892911 0.17090985 0.41903752 -0.12339947 -0.34119573
idx__12 -0.74409163 0.22860914 0.23744136 0.5780255 0.29116303 0.09178687 0.21191847 0.88551223 -0.46397695 -0.6149909 0.7132329 0.41522568 0.8500138 -0.8082995 -0.45079154 0.097672604 0.31373847 -0.39467257 0.20027843 -0.11310885 -0.30753538 0.40567237 -1.1710393 0.023898294 0.17901026 -0.59649515 -1.083293 0.07160337 0.38559565 -0.6440361
idx__94 -0.222224 -0.3074854 -0.7300078 0.52716935 0.9917998 0.9967554 -0.7926678 -0.12100872 0.5861183 0.22050145 -0.08054368 0.31856126 0.6810638 -0.0038457017 -0.3452016 0.4966695 0.0037438257 -1.197541 0.34537637 0.7414012 0.36527294 0.20076136 -0.5778185 -0.18780394 0.34236017 -0.5006819 -0.5007519 0.46510512 -0.23919381 0.07708369
idx__30 0.06244146 0.24109803 -0.9011764 0.54322034 -0.19090481 0.15925771 0.18447228 -0.43253264 -0.46681213 -0.30765465 0.336901 -0.33888057 0.63613933 0.5051952 -1.3038894 0.14505504 -0.21688679 -0.13610996 1.1413397 -0.10650521 0.6032749 -0.61226153 -0.7756053 0.05878072 -0.45392355 0.21077214 -0.21233904 -0.072256565 -0.25213438 -0.5822724
idx__13 -0.71307385 0.114729196 -0.09084013 0.25303745 -1.1524245 0.030305361 0.48199075 -0.101311125 -0.462701 -0.43186465 0.13385035 0.09001698 0.78125024 -0.26454914 -0.9152145 -0.6529366 -0.5344338 0.031787314 0.70988995 0.47396916 -0.5440812 -0.16951098 -0.11143278 -0.018648185 -0.41089863 0.08241428 -1.2638795 0.7947486 -0.51597077 0.22429831
idx__63 -0.0033856288 -0.29501235 0.45985216 0.4757788 -0.3426873 -0.34278226 -0.062408835 0.21041547 -0.18456407 -0.35136575 -0.20277901 -0.3578993 0.499614 -0.89954203 -0.8515541 0.117444046 -0.33982763 -0.9666191 1.128716 0.50103754 0.43820983 -0.028776001 0.33905312 0.40390825 -0.12042758 0.082940124 -1.283302 0.1605944 -1.2551522 0.5412057
idx__55 -0.7224134 0.44583574 -0.7452574 0.48720902 0.35683835 0.8060879 -0.59412277 0.29382822 -0.16708893 0.20896754 -0.20114096 0.54157805 0.39787355 -0.6541391 -0.6399196 -0.024584595 0.35399416 -0.8704016 0.9146245 0.5572487 -0.3841128 0.025413293 -1.2809359 0.47461715 -0.60298157 -0.3529621 0.09599512 1.103084 -0.92881364 0.07260403
idx__4 -0.15704298 0.06782796 -0.77576214 -0.13766816 0.003173686 0.16120575 -0.14972389 -0.5085721 -0.4826229 -0.34494022 0.5908202 -0.041446418 1.1788352 0.82087153 -0.76085055 0.082933694 0.6831475 -0.21201122 1.2269193 0.053465385 1.4961038 0.14231199 -0.9650291 -0.23050244 0.27722344 -0.14538774 -0.030544383 0.073899396 -0.28248036 -0.28244042
idx__3 -0.04081038 0.04758444 -0.6119751 -0.05958075 0.0097992 0.40324828 0.23754752 0.25211784 -0.45200583 -0.32916155 0.7936714 -0.12102164 1.1830307 0.6698386 -1.0559263 0.18482305 0.56387985 -0.24652182 1.2333585 -0.21979347 1.2218927 0.41810203 -1.1447818 -0.15348731 -0.024384536 -0.2130577 0.072760604 0.33212548 -0.36018258 -0.04443971
idx__64 -0.38618308 -0.15979467 -0.19490637 0.887779 0.5015913 0.81581485 0.49986517 0.52576447 -0.6609396 -0.5144957 0.030663433 0.59095025 0.018976424 0.16817713 -1.0815271 0.94992507 -0.055544607 0.056106236 0.52188224 -0.3106388 -0.45610383 0.3500887 -0.3837233 -1.0007684 0.46617246 0.33044615 -0.44766635 0.22798164 -1.391401 -0.50791204
idx__45 -0.4926268 0.46590853 0.13068669 -0.13668013 0.20877962 0.71458405 0.22932978 -0.32635134 -0.11774361 0.23566683 0.7860654 0.4034124 1.1977099 -0.0074494826 -0.06835644 1.2724258 0.11520011 -1.0833759 0.49734595 -0.29468483 0.1740038 -0.3529642 -0.34281695 -0.11080477 -0.5060052 0.25025314 -0.9320445 0.30755553 -1.2659677 -0.4253833
idx__44 -0.3979633 0.47156024 0.24567275 0.01447393 0.076189674 0.82446134 0.11695433 -0.3329256 -0.11250821 0.32813552 0.78566164 0.5151464 0.89560366 -0.056888893 0.011630413 1.4101809 -0.113182224 -1.2011014 0.6500189 -0.31588703 0.20055284 -0.50114775 -0.27585676 0.047611732 -0.516965 0.10874201 -1.0532157 0.3534339 -1.3081615 -0.3775489
idx__93 -0.9890713 -0.30253446 -0.15745197 0.52298206 -0.34065586 1.0165226 0.1084657 -1.3931551 0.060736094 0.40089193 0.1708508 -0.3112368 0.23537594 0.4179404 -0.79599166 0.063104756 -0.6728581 0.04588083 0.74867445 0.68356705 -0.7543998 -0.091933 -0.87851673 -0.529841 -0.1063338 -0.043186683 0.19387296 -0.38922518 -1.166731 -0.077157095
idx__10 -0.95882624 0.30958256 0.10654994 0.81572217 0.30334988 0.44155395 -0.65880895 0.7809905 0.11641295 -0.54055375 -0.063240625 0.12809774 1.3420123 0.62384516 -0.82872885 0.5260412 -0.5855151 0.22567089 0.6421517 0.2924433 -0.3233846 -1.1420798 -0.23829088 -0.64426726 -0.049936563 -0.54037976 -0.34861392 0.4501893 -0.07272866 -0.050639026
idx__92 -0.9862397 -0.26042232 -0.37195638 0.3539609 -0.15511835 0.9861671 0.007252437 -1.4798983 -0.14159785 0.5111582 0.078585505 -0.22068892 0.16306958 0.5408799 -0.65046376 0.0521036 -0.69543415 -0.077570215 0.67163616 0.7790302 -0.48470992 -0.34201732 -0.86781436 -0.3363049 -0.17504753 0.1020115 0.15120527 -0.3497115 -1.0114211 0.01854558
idx__36 -0.5191811 -0.36267185 -0.19218336 -0.036854614 0.09402225 -0.5037506 -0.21479142 -1.0464909 0.036763497 -0.45886844 -0.048686862 1.1256142 1.7432817 -0.11333986 -0.8272075 0.20033272 0.32200983 -0.2775686 -0.119612984 0.117568895 -0.089721635 0.05244972 -0.47086143 0.14932759 -0.49869093 0.07217412 0.13995655 0.7346678 -0.48647857 -0.7089734
idx__11 -0.67362154 0.38807613 0.107413046 0.9677075 0.26104546 0.4513791 -0.5726596 0.89505464 0.24920952 -0.8437993 -0.10365394 0.29579288 1.4461783 0.6405272 -0.65027624 0.51463604 -0.41524777 0.08657449 0.78862125 0.19409026 -0.01648175 -1.0728832 -0.3901503 -0.42845583 -0.05991913 -0.48665065 -0.20111446 0.624524 -0.044864997 -0.019247035
idx__65 -0.4681031 -0.14577457 -0.2555962 1.041706 0.4992772 0.6820528 0.55553 0.43501365 -0.4057865 -0.42074636 0.07726739 0.6241955 0.011639764 0.19843335 -0.8981558 0.97027475 -0.046023563 -0.051401425 0.55857044 -0.42759493 -0.7014108 0.22536874 -0.5555601 -0.8896381 0.37892988 0.32724184 -0.49604627 0.3212095 -1.3467681 -0.5719164
idx__54 -0.74437284 0.34747612 -0.6836975 0.5130857 0.5433518 0.8315782 -0.51033854 0.19420302 -0.04170617 0.26520962 -0.34116125 0.5855994 0.4799608 -0.551674 -0.49005648 0.01882074 0.2243203 -0.97716254 0.77402484 0.37492323 -0.6920868 -0.035081375 -1.2446997 0.36124966 -0.6702185 -0.33680522 0.13663344 0.95623213 -0.8894185 0.09370462
idx__35 -0.7789912 -0.34179136 -0.0027338034 -0.08624253 0.122571915 -0.4974421 -0.37584007 -1.0511396 -0.06540476 -0.3419952 -0.09426594 1.1192819 1.8819829 -0.11476703 -0.7587044 0.19218789 0.33015013 -0.37146208 -0.08714008 0.27376077 -0.14758804 0.12998062 -0.47515762 0.23443446 -0.30983317 0.21620955 0.02664643 0.89844126 -0.5463917 -0.7724513
idx__27 -0.13601449 -0.34695342 0.683306 -0.10857134 -0.5695354 0.46399215 -0.17610171 0.05207358 -0.09184072 -1.069536 0.37852183 -0.05347546 1.4246725 -0.8986848 -0.3375155 -0.40898257 -0.31768632 -0.049403492 1.1093023 0.495618 0.2749554 -0.14453785 -0.76357406 0.041046355 -0.56867796 0.25617102 -0.24026729 -0.105624855 -1.2240943 0.8842821
idx__58 -0.5006026 -0.24714915 -0.05475914 0.6381878 -0.65868473 0.64960027 -0.0240561 -0.5928039 -0.67418146 -1.3633229 -0.19419648 0.095210634 1.1231594 -0.090451196 -0.89798385 0.5700694 0.814111 -1.291108 0.68146205 0.90662944 -0.8774109 -0.5523661 -0.115486346 -0.053808395 0.5375837 -0.18994822 -0.10439398 -0.3390205 -0.18894732 -0.6919987
idx__0 0.014802918 -0.41018784 0.46344963 -0.119124666 -0.40210503 0.38123283 -0.18132456 0.04931229 -0.24700265 -1.1326679 0.32106474 -0.24434249 1.3055183 -0.81153476 -0.39897808 -0.38463455 -0.46411115 -0.16240193 1.1927587 0.584164 0.11575455 -0.3097392 -0.4349148 0.0030608787 -0.1529868 0.44343838 -0.37284186 -0.26960215 -1.4437573 0.84732604
idx__38 -0.7604442 -0.6824661 0.88043505 0.63337195 0.045840345 -0.016328705 -0.18881664 -0.4142572 -0.28718764 -0.06648859 0.08432734 0.31580457 0.382652 -0.73688823 -0.43283227 0.21892771 -0.27641016 -0.7285206 0.66049486 -0.2646655 0.69694424 -1.296557 -0.9968925 -0.46281505 0.58461434 -0.5141507 -0.09292313 0.17923841 -0.52149 -0.8643391
idx__81 -0.09793335 0.6727358 -1.0570129 0.3095486 0.40130544 -0.11294136 0.10006598 -0.21857004 -1.0126253 -0.9029193 -0.19163236 0.4417477 0.5723615 0.1743581 0.3596945 0.54386353 -0.73590255 -1.0452749 0.029427176 0.7920317 -0.24389586 -1.1034774 0.10549752 -0.3141032 0.12974702 0.17985357 -1.2932451 0.55958104 -0.30022702 -0.28611338
idx__56 -0.92924446 -0.081879914 -0.23650746 1.1147097 -0.57128745 0.3974486 0.22305334 -0.6003357 -0.3355127 -1.0332074 -0.68280613 0.08770076 0.80982524 -0.019619163 -0.50680244 0.56248164 0.5056065 -1.4513664 0.6391134 0.84818494 -0.85077673 -0.49152923 -0.49123406 0.032184646 0.5049398 0.13892977 -0.16541305 0.08389515 -0.085107885 -0.9557683
tt__jefferson 0.511324 -0.24563211 0.10245431 0.63673323 -1.5149097 0.44322282 1.0855954 -0.089460455 -0.19873554 -0.6910507 1.0956872 0.41925988 0.4101281 -0.6613971 -0.45116466 0.07975289 -0.96312964 -1.1411021 0.7604185 0.69783777 -0.11746341 0.39025292 -0.64671797 -0.484071 -0.43276545 -0.5774164 -0.10106561 0.5991018 -0.65010655 1.1934489
idx__57 -0.9627029 -0.21907578 -0.3119798 0.97559506 -0.615852 0.4694308 0.32093498 -0.48237625 -0.29055378 -1.207605 -0.6042889 0.19617909 0.6524159 0.28863537 -0.4027146 0.44123998 0.47660598 -1.165346 0.82249403 0.7344266 -0.68232346 -0.4968143 -0.55307496 0.0061160447 0.6709344 0.17482027 -0.12756725 0.09748462 -0.0704266 -1.0012248
idx__15 0.06183055 -1.0874584 0.83655447 0.09454485 0.21148725 0.66542965 -0.06723016 -0.9698575 -0.051860083 -1.1272244 -0.014347176 0.7446535 0.9739342 0.76989895 -0.34348676 0.48526895 -1.1016281 0.04228882 0.32823962 0.92152375 0.34592783 -0.3967768 -0.27527657 -0.2387589 0.09381921 -0.013964061 -0.9319715 0.22161382 -0.36542773 -0.29598868
idx__28 -0.7380105 0.24698271 -0.0107281925 1.0773792 0.13187413 -0.8567987 -0.061836027 -0.40701675 -0.56596696 -0.29690823 -0.027136108 -1.155365 1.2885895 0.6848472 -0.12247998 0.7478169 -0.5809891 -0.2524722 0.55059826 0.6335248 -0.15733972 0.6085852 -0.52734625 0.072591074 0.5613336 -0.55451083 -0.35857403 0.5431522 -0.83507425 -0.5416903
idx__21 0.6289672 0.11561097 -0.311096 0.05969462 1.0259291 1.1495607 0.71700275 -0.9656313 -0.7542424 -0.890217 0.045097377 0.6695039 0.24267013 -0.0077059665 -0.9547924 -0.61005074 -0.050040346 -0.8522384 0.5062912 0.22946617 -0.30992457 -0.16852266 -1.0254823 0.71949536 0.3919554 0.2516153 -0.57281613 0.3588524 -0.58414966 -0.2553547
idx__22 0.3242089 0.6043187 0.031848364 0.568215 0.4931713 0.47222844 1.1234804 -0.7878192 -0.81040883 -0.8103523 -0.15793416 0.37339818 0.35491064 -0.31338054 -0.091148704 -0.6205187 -0.28582054 -0.64143157 0.41500995 -0.3350875 -0.063192286 0.10343692 -1.3920575 0.506726 0.666661 0.35328087 -0.47180125 0.37285522 -0.9065097 -0.5282176
idx__6 -1.070201 -0.13559406 0.008371784 -0.18575527 0.23245573 -0.024643345 0.037012625 -0.22792894 -0.5848548 -0.45788747 0.57711655 0.9259603 0.80895513 0.45605618 -1.2411796 0.027621187 0.017179232 -0.350865 0.14599445 -0.009136934 -0.014249271 -0.4173955 -0.8293879 0.48680967 0.0944934 -0.18140033 -1.6051065 -0.39704958 0.3620794 -0.8903286
idx__53 -1.5811614 0.68347764 0.48787385 -0.026080457 0.3542409 0.7328681 -0.46093658 -0.026948478 -0.52868783 -0.6185299 -0.80158293 -0.2012663 0.31981146 0.49039754 -0.59716254 -0.09668082 -0.32311603 -0.5490378 0.47473377 0.4217161 0.8723542 -0.016481232 -0.52813786 0.31439957 -0.33148262 0.8484851 -0.6123466 0.5139311 -0.703195 -0.44591588
idx__51 -1.6525022 0.5830215 0.74680454 -0.06439847 0.3520695 0.94361717 -0.60197824 -0.037042245 -0.4856838 -0.62720805 -0.7502162 -0.267649 0.29444486 0.5016368 -0.5583174 0.14246443 -0.32955775 -0.60651064 0.23854738 0.58668125 0.6902704 -0.036168203 -0.49592546 0.39856347 -0.23068334 0.8907703 -0.747402 0.50935763 -0.58833456 -0.5578254
idx__52 -1.5926358 0.7712695 0.5254258 0.040332682 0.4601608 0.9216741 -0.4539511 0.12729636 -0.64288515 -0.58582115 -0.7348267 -0.33119786 0.22798987 0.46851406 -0.21269104 -0.19726576 -0.4517547 -0.5149159 0.40528536 0.6230117 0.6965637 0.118725985 -0.57925147 0.13311255 -0.2962869 0.8420021 -0.8278892 0.4020813 -0.64350575 -0.47679284
idx__82 0.0356344 0.5838633 -1.1075641 0.33734402 0.46610484 -0.23749094 0.019701986 -0.31374454 -0.94702405 -1.0014688 -0.12052648 0.37342712 0.6672387 0.12413768 0.32350114 0.34239936 -0.82212347 -1.2485237 -0.07881398 0.5865138 0.077198185 -0.90171945 0.06774271 -0.3905797 0.018498112 0.30375358 -1.1004072 0.46551234 -0.15290816 -0.41215813
idx__75 -0.7287765 0.20267278 0.517007 0.66786045 0.6358983 -0.12361726 0.1681861 -0.62625664 -0.4818063 -0.46333936 0.33367407 -1.1287258 1.1371971 0.4613273 -0.13686055 0.3615165 -0.5824103 -0.5475179 0.6293662 0.045335297 -0.7496997 0.44197854 -0.752698 0.4174695 0.5374163 -1.0667545 -0.70232886 0.6532153 -1.1705774 -0.6947197
idx__80 0.054381818 0.46343943 -1.1088347 0.2998462 0.39268902 -0.21291587 -0.19618703 -0.35480213 -0.9354427 -1.0511358 -0.12199336 0.3424924 0.52106 0.18930468 0.41055208 0.4318855 -0.9064082 -1.0157475 0.017158287 0.64186126 0.15603088 -1.0538148 -0.069962904 -0.39067242 0.013313208 0.26608354 -1.1816578 0.57128835 -0.14746305 -0.30964607
idx__85 -1.063561 0.12901464 -0.8126414 0.6592052 -0.114738904 -0.39491653 0.107251965 -0.1814739 -0.0047689085 -0.6176582 -0.27077135 0.40774152 1.0083022 0.13630405 1.0191793 0.091530696 -0.5978388 0.18422121 0.9877139 -0.21516591 0.43313864 0.17171417 -1.5044147 -0.8194317 -0.5842759 0.4611834 -0.5205624 0.44397628 -0.78386456 -0.6456195
idx__18 -0.2615816 -0.94304407 0.4028619 0.2935764 -0.021172548 0.44081524 0.33511055 -0.27809086 -0.18877394 -1.0118091 0.28896686 0.8185152 0.36747795 0.43250346 -0.39716372 1.635156 -1.3092848 -0.21577892 0.5792729 0.63938254 0.2692548 -0.0055666375 -1.2670842 0.7664054 0.10892135 0.038010933 -0.3120941 0.77864087 0.06275929 0.097460724
idx__19 0.44569132 0.423252 0.2971303 0.25749364 0.6475147 0.907002 0.8805531 -1.147536 -0.41106713 -0.9135809 -0.09692324 0.60769516 0.2309265 -0.069214426 -0.6313797 -0.6986884 -0.1601191 -0.7299379 0.3810473 -0.07486891 0.011029784 -0.079720266 -1.000875 0.36329404 0.24065344 0.17900343 -0.6539602 0.43509817 -1.0461104 -0.72828037
idx__20 0.4032566 0.4099867 0.1811782 0.34371218 0.7026767 1.0571569 0.8281386 -1.0276387 -0.35793588 -0.8228895 -0.08159593 0.76963586 0.10902756 -0.1796513 -0.6819972 -0.68713397 -0.06277736 -0.64267695 0.5658844 -0.26159745 -0.05863465 -0.033565737 -1.0874879 0.4074094 0.47604716 0.04325953 -0.63345385 0.61702526 -0.8152609 -0.8881552
idx__86 -0.89272296 0.17995667 -0.7564348 0.42892802 -0.1690631 -0.31175902 0.17933999 -0.32708254 0.066572875 -0.70345426 -0.094037175 0.6050648 0.7950188 0.2075047 1.0814749 0.11314698 -0.6401815 -0.05264677 0.79081887 -0.2255894 0.36093274 0.10287809 -1.5281105 -0.7040722 -0.771218 0.30517444 -0.6979622 0.25880185 -0.81298757 -0.51341575
idx__8 -1.4197339 0.10802983 0.10269627 0.07815762 0.44375783 0.14854094 0.34890658 -0.5128155 -0.2745408 -0.103304915 0.271522 0.8994822 0.52979213 0.4143419 -1.2698702 0.08174165 0.080439195 -0.4806986 -0.010793016 0.11663854 -0.1428415 -0.035006616 -1.3374029 0.19586653 -0.23931105 -0.4186693 -1.4455501 -0.38218933 0.5899672 -0.393826
idx__7 -1.5113053 0.0142462 0.053691834 -0.38536778 0.12878299 0.26875073 0.46548563 -0.48137358 -0.71978784 -0.15907435 0.6074146 0.41438055 0.5819511 0.2533882 -1.2878017 0.29194397 0.33123988 -0.60330284 -0.014583889 0.18275927 0.0018997232 0.29397848 -0.98441136 0.33438694 0.12574655 -0.45348272 -1.4139808 -1.0357227 0.13009869 -0.6007578
idx__31 -0.64345276 0.003541538 -0.19054238 1.1791747 -0.1970989 0.15853518 0.08169866 -0.8434434 0.46035752 -0.1163101 -0.20322819 0.6046158 0.6958223 0.07754442 0.21540608 0.32082593 -0.7791189 -0.21482834 0.388446 0.6957979 0.93164635 0.9032092 -1.0384418 -0.20161977 -0.5980987 -0.5132845 -0.9126545 -0.2543017 -0.03843245 -1.4699552
idx__95 0.1379498 0.03706922 0.17111799 0.08949132 0.16637455 0.82729685 -1.2357662 -0.76362944 -1.3154609 -0.05088685 0.504877 -0.21008924 0.6450016 -0.6125557 -0.44864944 0.16729566 -0.65916365 -0.4497921 1.1434002 0.45913592 -0.05823893 0.49886674 -0.30452934 -0.39104098 0.40128157 0.2532613 -0.56777936 -0.00050733064 -0.39568862 -1.905338
idx__74 -0.62869996 -0.054147273 0.27186933 0.86306643 0.4050663 -0.8053909 0.15631935 -0.5799955 -0.47421747 -0.4508532 0.20697641 -0.9869956 1.1042842 0.601581 -0.31893337 0.7726925 -0.5679593 -0.37969297 0.6404508 0.017619379 -0.4014387 0.4956669 -0.8397061 0.31479734 0.6483531 -0.8827221 -0.28292167 0.60037446 -1.0274417 -0.43729904
idx__84 -0.93100125 0.015687607 -0.72556514 0.75298107 -0.10356961 -0.24708956 0.33585757 -0.16902816 0.05590719 -0.5390201 -0.24962202 0.6309944 0.8042111 0.111830145 0.881398 0.12888257 -0.78428745 0.12107135 0.8487461 -0.107130095 0.31435063 0.10978186 -1.5060763 -0.89197826 -0.80383897 0.31103265 -0.58125144 0.5274862 -0.8318829 -0.49792182
idx__5 -1.367294 0.09230421 0.22523943 -0.33851624 0.13432254 0.17183463 0.47997922 -0.48179415 -0.7430067 -0.113006674 0.8137628 0.48401073 0.5483526 0.08142112 -1.0087308 0.2509574 0.111563094 -0.81674117 0.075019866 0.029817816 -0.05425646 0.18771045 -1.0668569 0.1087658 0.14745305 -0.2194399 -1.5182401 -1.0032927 0.13968164 -0.6652501
idx__39 -0.8055398 -0.16260068 1.0182818 0.9896193 -0.2037376 -0.116624795 -0.2558982 -0.4277236 -0.2982471 -0.03748796 0.2700652 0.6032523 0.12197583 -0.8679668 -0.64093864 0.43408212 -0.34867185 -0.4488228 0.94945467 -0.13031524 0.9359283 -0.9574554 -1.2428972 -0.39465895 0.52752453 -0.15132272 -0.017947283 0.19449098 -0.5139633 -0.6503101
idx__29 -0.63192666 0.17495917 0.17106763 0.78933847 0.2772556 -0.719799 0.24013297 -0.72532064 -0.45320818 -0.6624355 0.11782178 -0.95432633 1.1732501 0.78442264 -0.44491422 0.46765187 -0.57499105 -0.22216544 0.73778987 0.15341958 -0.62085205 0.5111988 -0.8237863 0.3306659 0.6211426 -0.86861676 -0.20442101 0.78528744 -0.9641908 -0.30545396
idx__68 -0.61614364 0.8578044 -0.055798195 0.22805369 -0.0638265 0.5082664 -0.32065186 -0.2341922 -0.5450923 -0.78186655 0.41331735 0.5752934 0.7356361 -0.04251416 -0.655443 -0.54413617 0.023756202 -0.9576017 0.48083866 0.16349964 0.2178172 0.32839623 -0.07095106 -1.378859 -0.32035932 -0.8423355 -0.4526564 -0.47414577 -1.5748671 -0.2799691
idx__71 -0.64076716 -0.3004867 -1.0894144 0.2982693 0.053332318 -0.02891669 -0.34591135 -0.29006833 -0.3868364 -0.73364544 -0.6998632 0.61522156 -0.051534545 -0.29121488 -1.7914331 -0.64504164 -1.2585181 -1.0399637 -0.23341852 0.40223885 0.3611938 0.18613712 -1.1242259 -0.51251 0.88182145 -0.1576122 0.0010010148 0.20048766 -0.5364505 -0.05881246
idx__40 -0.38283792 0.3151514 -0.004062167 0.13556936 -0.7127867 0.20988855 -0.24565731 -1.0492408 -0.68849474 -0.6315848 0.8060381 -0.19136295 0.74813914 -0.18364061 -0.28232458 -0.17535211 -0.9265166 -1.3047681 0.37961206 0.88047403 0.2837087 -0.3089997 -1.1078744 0.4173417 -0.4733383 -0.99451315 0.03921151 0.2560953 0.41100073 0.23786393
idx__1 -0.5688434 0.3413281 0.036920696 -0.26637435 -0.81208205 0.48325127 -0.62369967 -0.8015404 -0.37885678 -0.54044276 0.40158352 -0.3648868 0.85466146 -0.44809425 -0.08398556 -0.26845416 -0.7462421 -1.0551497 0.7437122 0.79597634 0.54185003 0.10679403 -0.6600268 0.62770736 -0.46872014 -0.62164706 -1.0578732 0.3087563 -0.2703764 1.0000015
idx__76 -0.4912281 -0.82539946 -0.3368259 0.23142171 -0.20417613 0.49151427 -0.8537823 0.53293836 -0.040815204 -0.8267322 0.51392275 0.31964135 0.61516595 0.7723792 -0.3709666 0.1924118 -1.0822533 -1.410475 0.3762494 -0.4460671 -0.53745574 0.40910324 -0.6675876 0.5124007 -0.23231614 0.17330095 -0.03804203 -0.43485203 -1.0516669 -0.75831264
idx__25 -0.0549423 -0.021131493 0.09105405 0.3153891 1.0414498 -0.07466829 -0.8257663 -0.4012959 -1.3666452 0.2397918 0.7509288 0.35957578 0.64336514 -0.51216716 -1.5434569 0.42727962 -1.534426 0.16715972 -0.07879273 0.093635134 -0.29091075 -0.13732992 -0.99187076 0.0020691538 -0.7536221 -0.32100257 -0.7602996 0.39957893 -0.8327993 0.23518896
idx__26 -0.11030836 0.13686535 -0.03422674 0.5307351 1.0844517 0.08786523 -0.709392 -0.22458579 -0.94692975 0.13441242 0.50669533 0.17718431 0.79724723 -0.44330546 -0.95350665 0.21687524 -1.8784606 0.1222115 -0.084733136 0.042916875 -0.3687981 0.21063359 -0.7065957 -0.21537149 -1.1841972 -0.16207351 -0.85382754 0.3901827 -1.0666959 -0.07769789
idx__66 -0.6798734 0.69610476 0.10806739 0.47671744 0.19956627 0.33186936 -0.25224155 -0.17052157 -0.44894934 -0.7625315 0.11775299 0.80514896 0.88287157 -0.07498466 -0.6279262 -0.57518053 -0.15483491 -0.91246915 0.24273434 0.23633341 0.21149111 0.24876726 -0.065710925 -1.5365219 -0.28925267 -0.74522287 -0.49179906 -0.6299997 -1.4109175 -0.24358867
tt__marion -0.6204714 0.48774907 -0.3484614 0.616112 0.0076190736 0.030785063 0.28470764 -0.275301 0.18271133 -0.5736381 -0.49650165 0.7805518 0.2704571 0.47680295 0.88578826 0.64360076 -0.9430768 -0.3038183 0.21977404 0.38372964 0.33588228 0.7327133 -1.6216658 -1.0487721 -0.59105897 -0.290128 -0.11490079 -0.022620106 0.08202209 -1.3249353
idx__78 -0.44873607 -0.6765504 -0.42781135 0.32041085 -0.53459746 0.25729635 -0.60677713 0.63668126 -0.03851692 -0.81936014 0.6808496 0.15090492 0.61921614 0.7276098 -0.49504507 0.08993362 -1.0362467 -1.4535788 0.54106265 -0.6183451 -0.47905153 0.52208084 -0.73933125 0.5680046 -0.33033776 0.15839367 -0.13917008 -0.4642743 -0.88354874 -0.7470554
idx__24 -0.033962186 -0.011765599 0.22615327 0.5124561 1.0427879 -0.008433258 -0.6718288 -0.2827114 -0.90377975 0.2825121 0.5617568 0.27238712 0.7128296 -0.7353151 -1.1336007 0.46009436 -1.6127341 0.25473455 -0.10163029 0.29145542 -0.16959426 0.1090763 -0.71891546 -0.0907671 -0.8817751 -0.074398346 -0.9205895 0.574084 -1.0815939 0.042011507
idx__67 -0.7388124 0.79000825 0.0018967048 0.4213599 0.14499904 0.4515569 -0.0633434 -0.22836998 -0.27841365 -0.9411386 0.12063252 0.52159745 0.999751 0.26049376 -0.70007664 -0.55641675 -0.03898476 -0.8623958 0.31895247 0.20689274 0.38620186 0.2713936 0.055377245 -1.3693224 -0.41961426 -0.80201274 -0.4650842 -0.40442818 -1.5178093 -0.36351198
idx__37 -0.6588567 -0.18553871 1.0341406 0.9411413 -0.2371634 -0.13712233 -0.19940181 -0.6022481 -0.15602216 -0.16922659 0.28475568 0.68537366 0.18335156 -0.9396893 -0.5526395 0.30250508 -0.3491302 -0.82424086 0.9222735 -0.04287204 0.66702 -1.0822908 -1.2624471 -0.4219097 0.59551656 -0.2019554 0.12540646 0.0954698 -0.64133525 -0.6024207
idx__79 -0.45801383 -0.6619491 -0.41142708 0.11387713 -0.33606985 0.5494637 -0.57537115 0.55702305 -0.2112061 -1.0332097 0.5196163 0.42758715 0.42640585 0.8894138 -0.54917943 0.29961035 -0.9628506 -1.335255 0.26056218 -0.28237364 -0.69600546 0.5230965 -0.41909575 0.65224564 -0.40655503 0.21266037 -0.4183333 -0.47296748 -1.083021 -0.63205844
idx__59 -1.1294748 -0.6257557 -0.9193772 0.26382273 -0.014029514 -0.11681573 -0.27858722 0.14894047 -1.3089279 0.2568398 0.16106029 -0.11265338 0.52762544 -0.82178485 -0.18593565 1.2176428 -0.052727927 -0.7690253 0.51747864 0.7208235 -0.074280225 0.52701765 -1.2990015 -0.020735472 0.6596319 1.0395668 -0.29151747 0.06747545 -0.13677137 0.009642644
idx__14 -0.14881645 -0.94676435 0.29404938 0.010022222 -0.2753297 0.67485124 0.3837385 -0.57562935 -0.21738471 -1.0550491 0.15101267 0.5437075 0.8652073 0.80546486 -0.63743263 1.3258554 -1.418238 -0.16535927 0.7079455 0.86483663 0.24502298 -0.1344262 -0.9032028 0.46541822 0.6072902 0.7983698 -0.6823646 0.7669018 0.01131561 -0.13708833
idx__32 -0.5874439 -0.21316019 -0.46501878 1.3811307 -0.006678233 0.59441394 0.27508295 -0.3776964 0.4506674 -0.434784 -0.36329785 0.29479414 0.46636456 0.031727243 0.11207449 0.26473966 -0.66888946 -0.680529 0.5090623 0.4882106 0.36291975 1.1203144 -1.0329754 -0.47751254 -0.85291654 -0.40383267 -1.0152073 -0.12589584 -0.12274453 -1.1631941
idx__23 -0.09511508 0.057712484 0.120361015 0.24906044 1.1633023 0.073407374 -0.69917303 -0.06887326 -1.1166493 0.04442724 0.79977876 0.3760772 0.8508543 -0.4103036 -1.5633767 0.57090116 -1.4146149 0.20261545 -0.2753098 -0.06020553 -0.11260968 0.13066146 -0.6639233 -0.061671037 -0.86499375 -0.18848303 -0.70829993 0.35539734 -0.98821926 0.1144786
idx__77 -0.38427392 -0.63649654 -0.25334406 0.22841617 -0.38403752 0.51032305 -0.5976232 0.57600373 -0.06702715 -1.053792 0.57637346 0.51597416 0.54525024 0.5848255 -0.5789631 0.016273173 -1.0151427 -1.5930947 0.29890162 -0.54214144 -0.4782314 0.30083713 -0.6268873 0.8256726 -0.26625514 0.08055381 -0.32473642 -0.34957176 -1.0881186 -0.780223
idx__17 -0.12694384 -0.8901882 0.38490435 -0.24238786 -0.28242883 0.6442951 0.24984719 -0.555481 -0.09046148 -0.97427356 0.16823147 0.5365587 0.9601528 0.54206824 -0.6442983 1.3348316 -0.98103386 0.13446553 0.7818899 0.93083626 0.23455875 -0.24813426 -1.0585219 0.3905561 0.62915033 0.889252 -0.54117 1.0113119 -0.09271909 -0.1610513
idx__61 -1.0877318 -0.7129404 -0.6952681 0.19425447 -0.3007234 0.12444233 -0.2613309 0.23847692 -1.463613 0.2403873 0.23541087 0.07389751 0.48218757 -0.8502043 -0.24650787 1.2135441 -0.10220477 -0.76306516 0.53850746 0.9596727 -0.011771342 0.20993742 -1.0039389 -0.03577018 0.58461946 1.0061829 -0.49810943 0.10706609 -0.20147541 0.23130299
idx__60 -1.2541076 -0.6579946 -0.81648076 0.056470454 -0.2894548 -0.15835613 -0.33526275 0.03764958 -1.3045185 0.34126866 0.1689134 0.011482109 0.5310327 -0.9213494 -0.097848035 1.146506 -0.06261761 -0.82256263 0.43200806 0.8161877 0.038037635 0.28202325 -1.1980449 -0.077863105 0.45884395 0.88592035 -0.32572243 0.11770022 -0.27395198 -0.098685935
idx__16 -0.15942031 -1.0139728 0.3410951 0.008572343 -0.2769199 0.6659914 0.27542672 -0.49903116 -0.089080244 -1.1460738 0.12117521 0.72030056 0.7394616 0.49978366 -0.5966621 1.1793851 -1.060159 -0.005087728 0.732353 0.93218076 0.28515685 -0.012833995 -1.1096077 0.39607185 0.6979243 0.6821471 -0.6357592 0.8178833 0.017266626 0.020582529
idx__33 -0.68884474 0.12495679 -0.3138789 1.4570299 -0.08981032 0.7197802 0.36763448 -0.46907297 0.3586836 -0.4125823 -0.25744593 0.34250668 0.31649774 0.15330027 0.0029412762 0.34173757 -0.67952174 -0.5835461 0.53798497 0.6167528 0.69287556 1.1529387 -0.9799992 -0.49975404 -0.80253226 -0.41898236 -1.1067914 -0.09357527 -0.047660146 -1.0789322
idx__34 -0.63139784 -0.07670009 -0.35150686 1.3067888 0.11381764 0.7459267 0.3029804 -0.4731016 0.56768906 -0.39462703 -0.28675258 0.24803014 0.5794735 0.09439248 0.0904472 0.23414747 -0.8351275 -0.56967443 0.4894738 0.6043773 0.5402173 1.0721617 -1.1246496 -0.58826697 -0.81365967 -0.6157155 -0.87587905 -0.1569203 -0.09004814 -1.0786662
idx__2 -0.5067918 0.39898667 0.079270504 0.027571075 -0.7970965 0.0659621 -0.056598384 -0.6876539 -0.5763898 -0.64280075 0.6452042 -0.29579797 0.95990163 -0.47388205 -0.14537409 -0.24387945 -0.7552773 -1.2682418 0.75231904 0.791773 0.32775912 -0.20438299 -0.87566316 0.5243802 -0.6255797 -0.8215406 -0.5852094 0.08948865 -0.29476222 1.0168865
idx__90 -0.980359 -0.46234643 -0.605682 0.486203 1.4405048 -0.12427634 -0.11281894 -0.7957273 -0.32772633 -1.2158837 -0.63252014 -0.1684343 0.40143192 -0.03509537 -0.32027826 1.1586523 -0.091075964 -0.37874454 0.16074173 -0.35189867 0.21079446 -0.6027363 -0.9671351 -0.040755663 -0.35390225 -0.08416229 -0.2687153 -1.1229115 -1.0589918 0.14823009
tt__marshall -0.855454 0.67084736 0.30023503 -0.37315705 -0.08277369 0.04260842 0.1346125 0.22970536 -0.9845691 -0.27792966 0.70506316 0.75199896 0.2840101 0.36714622 -0.6739092 0.4890219 0.067605324 -0.44641885 -0.23501259 0.13232039 -0.4599895 0.28850713 -1.4296985 -0.15805116 0.08830507 -0.70322603 -0.8298647 -0.5144094 0.8418173 -1.0519235
idx__46 -0.49687588 0.028169777 0.37609082 0.24604788 -0.07265004 0.05656398 0.13412917 -0.67882997 -0.3337514 0.8536649 0.19011089 0.15707104 0.7749604 0.3732627 -0.8127981 0.032996476 -0.8039726 -1.0698793 0.4121789 -0.25613764 0.54339296 0.7752413 -0.44627535 -1.3067976 0.48942837 0.9479235 -0.862607 0.54398733 -0.45073947 0.090603665
idx__89 -0.6575708 -0.18100397 0.09733332 0.41064778 0.9359544 -0.80348396 0.69818753 -0.6794953 -1.4432042 -0.892815 0.08426113 -0.08959895 0.8721165 0.30077013 -0.48944598 0.629727 -0.25310442 -0.25391126 0.46944708 0.15094027 0.3505582 -0.79926133 -0.94212943 -0.7206358 -0.47244444 -0.057479717 -0.34665108 -1.1395772 -0.6239104 0.6776882
tt__fayette -0.6348742 -0.3224411 -0.22349288 -0.22059946 0.7900665 -0.19726047 0.49400154 -0.0977724 -1.2141455 -0.69217163 -0.3553005 -0.27612677 0.3986384 0.39754623 -0.15323547 0.8567724 -0.28867325 -0.51475275 -0.06484114 -0.15110737 0.056205597 -0.677657 -1.2829591 -0.78928953 -0.6414359 -0.835902 0.35547748 -0.5654098 -0.36917418 0.15256143
idx__62 -1.2493699 -0.77456045 -0.9044498 0.14089863 -0.23789139 -0.11189936 -0.24089174 0.09622083 -1.1906978 0.4023585 0.30171052 -0.07628044 0.4369312 -0.72743005 -0.2327621 1.262714 -0.35265464 -0.7588129 0.38077542 0.8826289 -0.1507602 0.45285168 -1.1961348 -0.2725863 0.39069566 0.91062146 -0.49437338 0.1327027 -0.086606964 -0.02542191
tt__montgomery -0.04339507 -0.18631351 0.24133956 -0.3594825 -0.52116394 0.3231038 0.2660674 -0.16389953 -0.59524786 0.57421434 -0.22272123 -0.16594437 0.7585999 0.6774622 -0.51312524 0.27761745 -0.9770318 -1.0728141 -0.23921698 -0.2706157 0.116040595 0.1543046 -0.4890623 -1.4271954 0.47795963 -0.011020099 -0.03779225 0.89873785 0.063341856 -0.5328136
idx__98 0.13658015 0.2759624 0.025906133 0.3775724 -0.09239905 0.80622256 -1.2457538 -0.41879913 -1.0303437 -0.5804041 0.37475348 0.072669476 1.1394078 -0.7129007 -0.0879948 0.17898315 -0.3714611 -0.030621566 1.1914955 0.8735832 -0.06550503 0.27134138 -0.40879628 -0.55165535 0.13158453 0.17737523 -0.5942197 0.45166647 -0.59806114 -1.8362246
idx__99 0.3268405 0.34258735 0.23932864 0.34541976 -0.11163391 0.87766474 -1.1011986 -0.44547722 -1.0437955 -0.5951222 0.47299686 0.20024022 0.91661483 -0.7389638 -0.055732787 -0.026732553 -0.3657668 0.13823809 1.2124362 0.9724022 -0.11902905 0.22612332 -0.6084501 -0.4305576 0.14749351 0.19782965 -0.64306056 0.48233652 -0.6126293 -1.6868712
idx__96 0.12392706 0.24371888 0.1501837 0.2330795 -0.12320967 0.77752924 -1.3265287 -0.31594515 -1.0543704 -0.590556 0.566319 0.12916236 1.1789502 -0.7913602 -0.18466178 0.26193592 -0.3476247 0.13045146 1.1398935 0.6783487 0.11327905 0.38716307 -0.596301 -0.47979417 0.13012122 0.21934766 -0.6213256 0.49679473 -0.4542349 -1.6361312
idx__42 -0.36539122 0.5054346 0.10819878 -0.07359666 -0.78192204 0.0650002 -0.06863743 -0.69493836 -0.7543121 -0.88782805 0.5725492 -0.34323677 0.9541771 -0.39450952 -0.18307835 -0.4954524 -0.6384156 -1.0718548 0.712675 0.90740246 0.5936748 -0.0729276 -0.92167073 0.6428875 -0.5631267 -0.7761037 -0.65101826 0.24913199 -0.060309883 0.86401963
idx__69 -1.0174595 -0.30322054 -0.38831127 0.36371464 0.3353189 -0.40074542 -0.66383815 -0.09903667 -0.56651706 -0.85102624 -0.59533775 0.23771156 0.24131994 -0.090411015 -1.7515922 -0.5841816 -1.0900044 -0.91517705 0.26996693 0.38537398 0.6322467 0.7753374 -1.2421478 -0.16020171 1.2127246 -0.46802154 0.19339745 0.20863745 -0.35041893 -0.10100606
idx__41 -0.45413437 0.2688725 0.02949002 0.09511499 -0.79434335 -0.0031917256 -0.082171895 -0.51064384 -0.72465235 -0.72355074 0.64377654 -0.26184276 0.74593973 -0.37273568 -0.18923473 -0.31231248 -0.9298386 -1.1077089 0.8989336 0.85993755 0.45539254 -0.25277016 -0.8831744 0.61134666 -0.509226 -0.9194276 -0.5626718 0.08380418 -0.121721506 1.0448838
idx__97 0.19453984 0.18205486 0.073818475 0.21219511 -0.13048464 0.9109997 -1.2897987 -0.30911732 -1.1084445 -0.45463076 0.5236242 0.1640476 0.95265293 -0.61232555 -0.13266258 0.25855902 -0.30128336 0.15066436 1.1186244 0.97661245 0.008803806 0.12571305 -0.5616341 -0.2542437 0.042838853 0.267757 -0.765908 0.48282906 -0.39628357 -1.7311016
tt__dekalb_regional_medical_center -0.0708834 -0.81260055 0.40581682 -0.7677861 0.20985886 0.12910983 0.4322866 -0.4759826 0.015342825 -1.0968751 0.15641677 0.84422445 0.49483386 0.20253213 -0.61164266 1.4348323 -1.3515145 0.01414332 1.2070398 0.7518144 0.41738418 0.14564365 -0.15769571 -0.04649069 0.36023274 -0.005484815 -0.5368255 0.021011837 0.20749941 -0.17961542
idx__72 -0.89816254 -0.33613434 -0.35990995 0.18748651 0.13200065 -0.18547556 -0.6045179 -0.102273755 -0.5991269 -0.71165276 -0.34014425 0.35241857 0.21124123 0.046009764 -1.6689448 -0.42476404 -1.0856743 -0.5137977 0.3456587 0.52444535 0.84723157 0.74991673 -1.1046953 -0.17193076 1.0488665 -0.61062074 0.16450827 0.17665161 -0.47776318 0.0050144405
idx__70 -0.9670346 -0.37710786 -0.5129418 0.27747768 0.22383288 -0.5496359 -0.54991025 -0.10433078 -0.40053248 -0.9312915 -0.52101517 0.44936687 0.19356747 -0.053339288 -1.7766689 -0.49542323 -1.2309176 -0.86195606 0.19516073 0.283185 0.4594332 0.7522015 -1.2331856 -0.15985774 0.9892928 -0.30265996 0.22845387 0.3396884 -0.61051923 0.10746305
tt__35968 0.24458724 -0.5982354 0.3128627 -0.30027172 -0.1369733 0.19477917 0.1914965 -0.36343113 0.5766381 -1.4221076 0.3028184 0.21288487 0.39702442 0.1993237 -0.7894714 1.413898 -0.9732598 0.20389615 0.07132886 1.1887062 0.5079027 -0.2303443 -0.9112735 -0.11439339 0.47822404 0.50651604 -0.9051125 0.38652012 -0.29962292 -0.37255147
idx__73 -0.7606142 -0.44451535 -0.3458404 0.18016519 0.46007422 -0.2451733 -0.674466 -0.23194586 -0.6006341 -1.0402501 -0.57869786 0.27113008 0.14750803 -0.04004719 -1.5991274 -0.6596377 -1.0998431 -1.0084356 0.2919406 0.45549417 0.5643088 0.9403633 -1.1468868 -0.13383901 1.0289679 -0.3822522 0.08710492 0.26667455 -0.30153602 -0.07009741
idx__91 -1.0944741 -0.24603568 -0.36451375 0.40229562 1.3277767 -0.42282438 0.7541379 -0.7325407 -0.6451669 -0.88354135 -0.54749435 0.09292703 0.8499354 0.041684285 -0.6415239 1.0694499 -0.046151936 -0.8217601 0.24299653 -0.13542427 0.4097393 -0.71806586 -0.9531465 -0.45041442 -0.45080206 -0.21889833 -0.14419565 -0.707028 -0.74084485 0.7805005
tt__200_med_center_drive 0.31934568 -0.6232903 0.33377486 0.021602074 -0.09697034 0.29031926 0.47543424 -0.046097696 -0.27240735 -0.7891768 -0.21766517 0.9286072 1.2868255 0.72695696 -0.20278272 1.0983715 -1.0699192 0.3485036 0.26788732 1.0874662 0.6920416 -0.044502977 -0.7060238 0.36968815 0.80657846 0.11992542 -0.53904897 -0.4204279 -0.32597497 -0.062223118
tt__10012 0.21567759 -0.9098015 0.27021125 -0.22391969 -0.3169525 0.6448795 -0.16661425 -0.6732387 -0.44646394 -1.4526838 -0.40375313 0.75543505 0.50805306 0.27809227 -0.3220848 1.665462 -0.49176103 0.38414103 0.40570873 0.329952 0.62983173 -0.027055599 -0.8142668 0.068997025 0.460752 -0.12479607 -0.951863 -0.030147796 -0.03135044 0.30487323
tt__150_gilbreath_drive 0.6848646 0.5513049 0.078017786 0.0655255 -0.2024017 0.42811587 -0.9374373 0.07409625 -0.9295562 0.32085478 -0.2744066 0.2376208 1.1576202 -0.53638005 0.046219625 0.065949805 -0.5416373 0.076251976 0.88519037 0.9444452 0.023844946 0.31319353 -0.38868517 0.04603154 0.6144873 0.2346951 -0.40454295 -0.35403186 -0.98090637 -1.6317127
tt__fayette_medical_center -0.6980128 0.12646396 -0.44963947 -0.37038606 1.271746 -0.80648804 0.056892864 -0.47043973 -0.93669385 -0.869465 -0.5648872 -0.1504954 0.52577 -0.5940523 -0.19057308 0.6820929 -0.3109955 -0.27795908 1.3731843 -0.11735756 -0.08838826 -0.34819767 -0.5837042 -0.5734781 -0.5903088 -0.32381314 0.14250924 -1.1137184 -0.35327864 0.03014822
tt__1300_south_montgomery_avenue 0.1341735 0.882087 0.055984955 0.054132428 -0.9597488 0.123383254 0.052696466 -0.37960032 -0.29160956 0.331877 -0.021031365 -0.046664372 1.3095794 -0.35838497 -0.108525045 -0.22667012 -1.0196357 -1.0599921 0.36403257 1.0675483 0.5381546 -0.28044054 -0.9175115 0.8930463 -0.19622292 -0.7714538 -0.2793468 -0.5739481 -0.1162796 0.3916669
tt__2105_east_south_boulevard 0.29369077 0.52178514 0.08043917 0.6541076 -0.37788048 -0.16719396 0.58104664 -0.16777815 -0.27654648 1.116216 -0.6199705 0.2551316 1.6750314 0.24418521 -0.8016552 0.09455031 -0.9375013 -0.6500029 0.013327171 -0.06284215 0.3206348 0.45324162 -0.21331096 -0.8848965 0.8593326 0.5830432 -0.57375824 0.05356924 -0.49538377 -0.24937259
tt__35660 0.014589059 0.6296198 -0.18431377 -0.3851988 -1.0859137 -0.07235346 -0.514887 -0.7894912 0.42548648 -0.65002424 0.60264355 -0.7694753 0.5397888 -0.63631785 -0.68647087 -0.10405948 -0.6159357 -1.0934945 0.16640523 1.3020668 0.6197469 -0.52682835 -1.0056863 0.11321898 -0.3548599 -0.30459604 -0.5826924 0.16369985 0.053589273 0.18351665
tt__coffee 0.046660703 0.3300649 -0.3914572 -0.30268383 0.6196534 1.0945637 -0.77636194 0.38301033 -0.028381506 -0.080112524 -0.25575382 0.7508436 0.2221621 0.10238733 -0.26756534 0.75380003 0.025788147 -1.1837426 0.1759606 1.1144793 -0.4361706 0.3818705 -1.1030288 0.0066709192 -0.2144056 -0.80949014 0.7261656 0.7652664 -0.40266433 0.20273353
tt__10015 0.77492684 0.37391657 -0.012104638 -0.038689733 0.27975947 0.9302608 0.3718229 -1.130199 -0.50615185 -1.0241895 -0.9499426 0.37388855 -0.16398905 -0.35578322 -0.22087276 0.1925848 0.14900695 -0.44021273 0.47871608 -0.69546735 0.20624867 0.2783131 -1.0563031 0.3418689 0.61362237 -0.049981654 -0.82429284 0.032396875 -0.54618704 -0.016399242
tt__36116 -0.15922923 0.47257 0.07128768 0.029125545 -0.39673886 -0.4999314 0.13029717 -0.27308348 0.6899411 0.16548438 0.47806686 -0.4870411 0.65407735 0.19518949 -1.3184427 0.42501107 -0.9514828 -0.6547434 -0.06913527 -0.10152279 0.48374048 0.24897851 -0.51903707 -1.315676 0.6807457 0.80091447 -1.1720077 0.5629544 -0.24360791 -0.28602973
tt__1653_temple_avenue_north -0.25237748 0.28014308 -0.33957022 0.44393486 1.0375205 -0.36305594 0.4679625 -0.09235786 -1.0676402 -0.50295675 -0.9414831 -0.09019338 0.9504625 -0.1557052 -0.10263874 0.66471046 -0.27119243 -0.12222829 0.27572426 0.18521275 0.3678185 -0.5754603 -1.0522629 0.045078598 -0.15239255 -0.2388336 -0.10072516 -1.7670313 -0.836095 0.060304765
tt__helen_keller_memorial_hospital -0.3194582 0.40325966 -0.06399221 -0.5084232 -0.5536641 -0.01577344 -0.20600246 -0.7927122 0.01596444 -0.41027525 0.108961076 -0.073541984 0.80702406 -0.6555658 -0.33053258 0.0028752119 -1.2431316 -1.0831547 1.4071126 0.6477363 0.41535696 -0.13749495 -0.16575944 0.2078615 -0.6708965 -0.73482656 -0.22060698 -0.029517666 0.76633877 0.31105986
tt__2052743000 0.694797 -0.017403662 0.57889557 -0.013226314 -0.0918571 -0.0030011341 -1.3018738 -0.2950076 -0.90297294 -0.0069487127 0.05518606 0.41917548 0.58318365 -0.059546217 -0.34096333 -0.33659315 -0.06665547 -0.34188718 1.3753101 0.807126 -0.29374933 0.44956332 -0.65347505 -0.40209538 0.24039558 0.33563846 -1.021059 0.17761174 -0.08202693 -1.2699631
tt__oneonta 0.42408973 -0.6736046 0.16010068 -0.6614006 -0.18033291 0.88043356 -0.7214951 -0.017882913 -1.103029 -0.14657646 -0.13619001 -0.18708438 0.6979942 -0.54058176 -0.08087195 -0.051332824 -0.5877705 -0.06811564 0.7679295 0.4696427 -0.044221327 0.116744 -0.371761 -0.71643347 0.33001092 -0.37456495 -0.66787606 0.82170725 -0.532967 -1.7792358
tt__covington -0.283763 0.24754582 -0.42591834 -0.13820587 0.0020272848 -0.31733975 -0.394509 -0.0083914455 -0.7203355 -0.8804174 -0.5626739 0.5003831 -0.2801534 0.28632966 -1.1617159 0.012032531 -1.4004409 -0.6246532 -0.15134399 0.53302383 0.19954394 0.39929414 -1.4969186 -0.7981226 0.8746547 -0.5037743 0.7118421 0.078675196 -0.05728705 -0.31767407
tt__clarke 0.71604115 0.8599331 0.47434804 -0.33654895 0.580973 0.8693591 0.86403674 -0.56500226 -0.73979867 -0.9692423 -0.10582027 0.816727 -0.06805997 0.24733572 -0.3067209 0.13284025 -0.16207889 -1.0178008 0.122670166 0.13658938 0.025297746 0.2476823 -1.4023885 -0.010867098 0.48244876 0.027098717 0.32949966 0.24079329 -0.42270783 -0.42304754
tt__blount 0.61151564 0.74908584 0.35554454 -0.61496204 -0.17398448 0.5926407 -1.1520002 -0.18300426 -1.3964472 -0.4303048 0.26490828 0.38133976 0.2794213 -0.04761892 -0.18749277 0.7410221 -0.5260468 -0.40969348 0.46720073 0.6440391 -0.019201184 0.34070513 -0.6366988 -0.72314686 0.25746593 -0.02745802 0.04287273 0.29535532 -0.053724512 -1.7506257
tt__2563864556 0.23525578 0.15137818 0.37407497 -0.06295389 -0.5745965 -0.3140928 -0.54780686 -0.6117695 -0.3697129 -0.069600634 0.10260761 -0.045316264 0.54681474 0.28625125 -0.26915088 -0.458979 -0.42215228 -1.2708206 0.9308875 0.9602848 0.2805944 -0.30614322 -1.1520334 0.3160695 -0.9856919 -0.3051279 -0.768355 -0.09349598 0.5630203 0.6478035
tt__thomasville 0.6340411 -0.35372058 0.03172266 -0.61094236 0.7242215 0.9293858 1.009348 -0.55053645 -0.5764166 -0.6241375 -0.6049799 0.07018977 0.2470097 -0.113558814 -0.09654709 -0.7055839 -0.062959686 -0.45946556 0.21798743 -0.005695564 0.12984864 -0.07381403 -1.1165507 0.071176134 0.68293643 -0.46915546 -0.61633855 0.8968958 -0.81979257 -0.76810706
tt__10036 -0.34789768 -0.09426642 -0.92014825 0.11311873 -0.43127218 -0.26162493 -1.1255373 -0.3770554 -0.6288016 -1.0690917 -1.3557006 0.21497007 0.15693338 -0.3087944 -1.2413051 -0.22772399 -1.0234942 -0.31659886 0.12594683 -0.120369755 0.45150745 0.64306986 -1.2222629 -0.44195223 0.92215675 -0.46887544 -0.22007081 -0.03437208 0.08207571 0.16958517
tt__marshall_medical_center_south -1.3155463 0.2949123 -0.22350508 -0.95306313 0.44975087 -0.18745662 0.122001596 -0.32450664 -0.21225183 0.11325366 0.19857606 0.84533775 0.27842388 0.019262256 -1.2468979 0.37856492 -0.40176332 -0.4811833 0.9371682 -0.09097166 -0.38530225 0.18510851 -0.3334731 0.15247059 0.19432774 -0.4579757 -1.1164314 -0.60887635 0.7257428 -0.95928735
idx__47 -0.44668233 0.3229768 0.21716803 0.49070427 -0.22430514 0.20487139 -0.16364011 -0.61852443 -0.12030781 0.40054724 -0.012329386 -0.18252565 1.3890634 0.53724605 -0.9988154 -0.0036203365 -1.1297288 -1.0148902 0.22821008 -0.53349423 0.58253306 0.2084428 -0.09955154 -1.159966 0.79810244 0.80138236 -0.702616 0.96374726 -0.31576505 -0.34541008
tt__dothan 0.20015164 -0.58206713 -0.81451666 -0.36893705 -0.18689398 0.312047 0.28559616 0.15853259 -0.7415895 -0.13304754 0.09783529 -0.6824918 1.0806179 0.7275347 -0.927453 -0.07975863 0.29571044 0.08957247 0.9701952 -0.3640264 1.1255916 -0.49834266 -0.99477756 -0.29309222 -0.28281102 -0.5555855 -0.12940235 0.32909164 -0.42071784 -0.7382397
tt__southwest_alabama_medical_center 0.39862883 0.6644992 -0.123394966 -0.37877414 1.0208834 0.68510956 1.0871003 -0.70191497 -0.15104094 -0.92775685 -0.29532814 0.4618891 0.018070996 -0.43945003 -0.39998594 -0.32053596 -0.5147865 -0.64770263 1.5724032 -0.15226516 -0.081189424 0.3953331 -0.3600153 0.35317218 0.52443904 -0.11661715 -0.3247785 0.07532989 -0.3234612 -0.64934134
tt__36784 0.5187303 0.6508233 -0.36623847 -0.37086937 0.43278965 0.40971333 0.8293817 -0.6894226 0.36502114 -1.0041375 0.23868121 0.033396725 -0.4188778 -0.38389692 -0.6217724 -0.32313758 0.12505041 -0.4302915 0.21551651 0.34410533 0.091307625 -0.10575019 -1.3216524 0.13534474 0.6560535 0.2668711 -0.6262285 0.3091593 -0.9394501 -0.61938316
tt__2562358900 -0.08014102 0.1517358 0.6129458 0.4374006 0.68534905 -1.2539134 -0.32439893 -0.4742045 -0.454393 0.1355821 -0.07838528 -0.4364655 0.62172574 1.2054175 -0.0884341 0.42395735 0.068290494 -0.43764096 0.9376986 0.5697027 -0.611244 0.6254147 -0.75647134 0.118968874 0.19003178 -0.47662356 -0.8481088 0.4683137 -0.8136789 -0.23924997
tt__2505_u_s_highway_431_north -0.9407894 0.6445524 -0.1572885 -0.32679397 -0.0016296158 -0.12423996 0.38774467 0.14097738 -0.22202718 0.4952024 -0.11449358 0.7477397 0.726847 0.44107231 -0.7514632 0.05847323 -0.30431265 -0.20627296 0.039260197 0.3367517 0.11033636 -0.14427891 -1.0708629 0.82021856 0.4019521 -0.52805954 -1.5284448 -1.2990723 -0.20863374 -0.58161026
idx__87 -0.85610056 -0.31119338 -0.6255898 0.47442505 1.2379588 -0.47739282 0.7398968 -0.5891848 -0.7521305 -1.088289 -0.38906637 -0.120627835 0.69435525 0.110935725 -0.54820037 0.9586734 -0.23146178 -0.8132905 0.39700463 -0.3550018 0.44480267 -0.5229171 -1.194207 -0.41473293 -0.37233853 -0.10960959 -0.19027705 -0.7704703 -0.7039795 0.7359125
tt__35555 -0.7184932 0.5581771 -0.5888991 0.32702932 0.9976414 -0.7796003 0.010018396 -0.44274127 -0.39608684 -0.88122326 -0.1269868 -1.0611837 0.18364522 -0.50760955 -0.6529437 0.38217178 0.1447525 -0.7094886 0.23367263 -0.08498587 0.07419685 -0.7999648 -1.1609557 -0.85449624 -0.36435056 0.28640747 -0.42080292 -1.0689595 -0.9954754 -0.1397867
idx__88 -1.0086471 -0.2774367 -0.5357817 0.546072 0.9424828 -0.70575315 0.6686239 -0.6321823 -0.60195816 -0.98403513 -0.33468342 -0.00941619 0.89521194 0.3911207 -0.68728983 0.79411596 -0.12955488 -0.97008795 0.13027684 -0.26085684 0.39828286 -0.8428585 -1.1374465 -0.5123729 -0.4890205 -0.14186062 -0.13120651 -0.88862073 -0.7000242 0.8306587
tt__de_kalb 0.14476863 -0.33709365 0.5969888 -0.7043673 -0.31892738 0.50853425 0.08208999 -0.33436713 -0.41688466 -0.8847144 -0.05526181 0.7705947 0.48421595 0.933399 -0.6251308 1.7012823 -0.91125983 -0.47234595 0.17221965 1.2420827 0.40423724 0.13646875 -0.6213911 -0.42968813 0.27926183 -0.039788812 0.0073109744 0.46243888 -0.08072373 -0.017938241
tt__anchorage -0.22647437 -0.39969185 0.7812279 -0.0746474 -0.5629603 0.10933557 0.030586295 0.16081129 -0.67055845 -0.10054855 -0.085366145 0.38949978 -0.053093992 -0.36485872 -0.175415 0.3158717 -0.33348176 -0.5685288 0.2704238 0.06058049 0.29295582 -0.97778356 -1.3959523 -0.6128198 0.18790853 -0.7847021 0.7152961 0.47818398 -0.26122797 -0.8223766
tt__andalusia_regional_hospital -0.5680415 -0.14775637 -0.8029852 -0.61709785 0.49265364 -0.51162624 -0.32107392 -0.16793528 -0.15045436 -0.88017243 -0.5742611 0.42275837 0.051962417 -0.49657813 -1.3928252 -0.42758194 -1.4840499 -0.48022926 1.1239604 0.13707753 0.23950279 0.80302006 -0.74180466 -0.33125898 0.96974194 -0.6110029 0.15613393 -0.006007296 -0.028600693 -0.20073964
tt__baptist_medical_center_south -0.32120338 0.26269817 -0.06338933 -0.3670795 -0.07893403 -0.34681746 0.06780071 -0.28043237 -0.045249663 0.3456702 -0.022472868 0.17687617 1.0685993 -0.03256948 -0.8593921 0.22337615 -1.2508485 -0.7178856 1.1089386 -0.6253134 0.29487076 0.55067897 0.32683828 -1.3858855 0.4780858 0.4772703 -0.6827949 0.24764794 0.3863041 -0.36181203
tt__10050 0.69355327 0.29827496 -0.14021784 0.03335181 -0.6472482 0.8010227 -1.5476089 -0.6923981 -0.9215581 -0.5302084 -0.34145615 0.108017385 0.6319807 -0.69888437 -0.31779274 0.54356515 -0.28243437 -0.04935826 1.0748982 -0.095429845 -0.2666897 0.48308504 -0.39686313 -0.45110264 0.47988266 -0.11550892 -0.9353704 0.1889806 -0.18526118 -1.0540224
tt__cullman -0.22455524 0.18010794 0.19993284 -0.7693315 -0.030574799 0.57781196 0.12602475 0.24741317 -0.9791729 -0.71792847 0.028905503 0.4955895 0.59891856 0.25391507 -0.011649385 -0.040168628 -0.24639267 -0.532262 -0.24759686 0.4456604 0.13119857 0.21919103 -0.24680738 -1.6517857 -0.25261268 -1.1563817 0.1099506 -0.044056248 -0.9564924 -0.36994773
tt__sheffield -0.108729936 -0.5579804 0.25536904 -0.73038465 -0.86006576 0.30903512 -0.007219806 -0.5541532 -0.62411183 -0.113189965 0.02972572 -0.61498433 0.82972896 -0.51307076 -0.027507622 -0.29167065 -0.7825905 -1.1734234 0.27068165 0.7828781 0.4856482 -0.5150536 -0.909383 0.037174307 -0.6445402 -1.278588 -0.6203535 0.4835828 0.13167088 0.06192264
idx__49 -0.25018603 0.12802094 0.24101734 0.43776003 -0.07881363 0.09531822 -0.23259029 -0.36650032 -0.17788231 0.43369007 0.32812423 0.063101195 1.5068282 0.36404195 -1.003899 0.15468085 -1.1953888 -1.0242263 -0.008314257 -0.5552671 0.72854614 0.38444442 -0.16996576 -1.3855103 0.7595192 0.74544233 -0.9829987 0.84941775 -0.44212365 0.0105707105
tt__andalusia -0.4321868 -0.88964784 -0.53143215 -0.6113074 0.20655939 -0.34952754 -0.332871 0.11255247 -0.57087946 -0.73570234 -0.98734635 0.033196926 0.05108802 -0.030781921 -1.0775172 -0.6627743 -1.1854243 -0.45348412 0.06574206 0.3960847 0.36194274 0.39903533 -1.2476376 -0.72413594 0.87830096 -1.1655178 -0.087387756 0.5308906 -0.35656238 -0.37490237
tt__35121 0.43916586 0.45817807 -0.11684868 -0.4448953 -0.43802327 0.24058598 -1.3506663 -0.32455245 -0.13380757 -0.6200388 0.49983323 -0.22695637 0.4239733 -0.8407589 -0.6212835 0.088664174 -0.34734264 -0.016926395 0.59118366 0.95328665 -0.026963398 0.28094256 -0.5453217 -0.513304 0.4851123 0.2734096 -0.68574727 0.49290028 -0.71055526 -1.6820323
tt__10038 -0.16361612 0.29598767 0.036778096 0.5367262 -0.18071538 -0.4088522 -0.6277125 -0.9809775 -0.45098245 -0.49913278 -0.62138677 -0.9473342 0.91652703 0.44846553 -0.12687245 1.1374383 -0.28493187 -0.26534897 0.31905526 -0.37026486 -0.28343093 0.75647306 -0.50263906 0.2528344 0.56734806 -1.2988085 -0.675967 0.55892736 -0.8067918 -0.1541081
tt__stringfellow_memorial_hospital -0.5755814 0.33457956 -0.068184756 -0.023046784 0.77791107 -0.94565797 0.09867109 -0.5132127 -0.17748065 -0.2758636 -0.3228259 -0.75655293 0.737095 0.17678589 -0.16146971 0.7434761 -0.7389609 -0.3633115 1.3805639 0.029711878 -0.44997054 0.7748466 -0.0336977 0.24598524 0.4047453 -0.92803556 -0.0009566558 0.3671489 -0.71952254 -0.7185883
tt__3342228466 -0.11240335 -0.5320144 -0.34583297 0.32557985 0.32576096 -0.6120834 -0.7704307 -0.12476372 -0.3391342 -0.9020149 -0.66440475 0.58398783 0.09528204 0.34867984 -1.4734967 -0.8840767 -0.5248203 -0.45327583 0.5434299 0.7083148 0.36740267 0.6225241 -1.5652597 -0.7657926 0.73075205 -0.038482472 -0.08597555 -0.2936447 0.26253936 -0.06472577
idx__48 -0.26716793 0.21764624 0.23725869 0.3988873 -0.122784965 0.07702209 -0.19776602 -0.41628605 -0.24808955 0.39630392 0.20952955 -0.10185643 1.3902668 0.3883464 -0.9067912 0.120914035 -1.1875681 -0.8227044 0.36891103 -0.7481637 0.6976847 0.33872283 -0.23152912 -1.2889187 0.7226411 0.74511623 -0.8636247 0.9571746 -0.4094026 -0.11051001
tt__35801 -0.023314428 -0.27909926 -0.5593571 -0.2977809 -0.5410154 -0.18733786 -0.6266455 0.6787488 0.9051127 -0.9486615 0.55652386 -0.21762446 -0.08599995 0.14552346 -0.7170119 0.27918053 -0.77791405 -1.0828447 0.040013365 0.0779489 -0.49797508 -0.058543626 -1.0123916 0.33960998 -0.23523682 0.26245236 -0.39915395 -0.4616267 -1.1487861 -0.9945389
tt__1000_first_street_north 0.52500474 0.6459721 -0.05351634 0.29301265 0.69275427 -0.19990323 -0.16721196 0.13462053 -0.68299395 0.6928995 -0.28889343 0.5298093 1.071689 -0.36337146 -0.8058875 -0.05009581 -1.6283314 0.41857997 -0.29135117 0.19919993 0.1498003 0.104676224 -0.8164801 0.40484184 -0.5207707 -0.22120988 -0.68539214 -0.23259085 -1.1052898 -0.2827574
tt__35957 -1.0955192 0.399332 -0.44235757 -0.6226317 0.124625705 -0.46409 0.0661986 -0.033930354 0.37534705 -0.24225181 0.58053815 0.27790806 0.10175737 0.074988484 -1.4515371 0.28062537 0.13073914 -0.35223183 -0.17212968 0.35856408 -0.1234967 -0.29773012 -1.1295263 0.14912659 0.27325535 -0.2264005 -1.5906034 -0.56151605 -0.05225945 -0.7972438
tt__huntsville -0.119844675 -1.403523 -0.15386231 -0.64707124 -0.47892553 0.32370758 -0.33177555 0.85782146 -0.32394144 -0.58457136 -0.100044824 -0.14767955 0.36403385 0.5861134 -0.09777392 0.0062029613 -0.88519436 -0.914798 0.27920198 -0.2988057 -0.47615737 -0.053016044 -0.734263 0.015998676 -0.4417554 -0.5751497 -0.3115086 -0.21610896 -1.009229 -1.1129811
tt__houston 0.19199933 0.695027 -0.35909444 -0.35598016 -0.40442196 0.19950652 0.11999601 -0.142088 -1.0119063 -0.40593034 0.64499587 -0.24651176 0.8687148 0.93749523 -1.2389249 0.54546493 0.34260485 -0.17973894 0.9446584 -0.08244023 0.7445618 0.05282112 -1.1118836 -0.16061576 -0.29247805 0.11802556 0.93949276 0.13903648 -0.282915 -0.5174485
tt__shelby_baptist_medical_center 0.093268834 0.37080026 -0.06954077 -0.31329203 1.0924904 -0.30354548 -0.236294 -0.03720505 -0.51079726 0.011122056 0.2001919 0.44420713 0.25559613 -0.83637977 -0.94202214 0.35638767 -2.077868 0.124853976 0.90077645 -0.20344181 -0.24395989 0.1520402 -0.25721788 -0.11249646 -1.0033966 -0.5069446 -0.6191966 0.10683205 -0.3231797 -0.19534852
tt__849_south_three_notch_street -0.20065244 0.1494343 -0.5983124 0.29180104 -0.036998376 -0.4308637 -0.16504054 0.4196767 -0.30472547 -0.7134382 -0.96806514 0.7648145 0.66280735 -0.014739236 -1.2594614 -0.43142036 -1.2679158 -0.20267417 0.0112923 0.6854095 0.45284948 0.60942245 -1.2242005 -0.034988586 1.2913684 -0.57720435 0.298407 -0.5003847 -0.5570374 0.017661016
tt__10023 -0.12552533 0.155247 -0.0878477 0.26944637 -0.9158345 -0.1637464 -0.5928525 -0.7765994 -0.4733933 0.2934768 -0.8207989 -0.37070182 0.9269222 0.18321757 -0.8831806 0.47253975 -0.6608056 -0.79656065 -0.04694283 -1.184232 0.3331927 0.29248142 -0.38826483 -1.516877 0.41325787 0.21186778 -1.2087656 -0.11163808 0.038610794 0.079521775
tt__36201 -0.24733225 0.5545243 -0.023255698 0.021461839 0.30482608 -1.0177383 0.010316525 -0.3011856 0.38230032 -0.6203308 0.2536407 -1.4255891 0.6691651 0.31366485 -0.48862576 0.7455163 -0.3002321 -0.31906334 0.15394284 0.65658844 -0.16242073 0.36378652 -0.7485471 0.041029375 0.7961748 -0.65787846 -0.5583638 0.4268451 -1.2393404 -0.67459834
tt__boaz -1.25771 -0.55338794 -0.022907585 -1.0356045 0.21384932 0.14971504 0.2889452 -0.0038340718 -0.5871706 0.321147 -0.13257153 0.2458976 0.3094038 0.3892281 -0.8506226 -0.016624264 -0.052034393 -0.32980213 -0.02661432 0.16641992 -0.27856812 -0.33635023 -1.1065048 -0.055311058 0.042442307 -0.9819666 -1.3510947 -0.14692068 0.026340375 -0.9158604
tt__fort_payne 0.10500685 -1.5657898 0.012342008 -1.0090377 -0.11094988 0.29521012 0.29549983 -0.099558204 -0.29684263 -0.8455579 -0.2299328 0.07213784 0.6644376 0.46349874 -0.29360828 0.968318 -1.0434389 0.35140657 0.5495209 0.90280074 0.21893126 -0.32477954 -1.312163 -0.023139646 0.0011181356 -0.13403352 -0.31204596 0.6104116 -0.24845186 -0.42005238
tt__101_sivley_rd 0.19328873 -0.1529086 -0.39883763 0.14450191 -0.39561775 0.25028744 -0.16854002 0.83392125 -0.046792552 -0.2448843 -0.014750622 0.40872324 0.64897287 0.46389988 0.12674251 0.1705549 -0.9893583 -0.81607497 0.27959597 0.111491434 -0.2723447 0.01593066 -0.89654917 1.0720278 0.2840794 -0.35629904 -0.19658907 -1.1051099 -1.3721466 -0.76682514
tt__calhoun -0.23379757 0.78308266 0.45230705 -0.0934131 0.2458579 -0.6494501 -0.00082965055 -0.22556455 -0.7754269 -0.38035852 -0.09005428 -0.7027005 0.7223804 1.0805484 -0.03935485 1.192134 -0.43507093 -0.7544263 0.18780515 0.40669662 -0.30709097 0.59950095 -0.8325786 -0.061167512 0.68132573 -1.0127809 0.4796796 0.52188426 -0.57312447 -0.74428016
tt__35007 0.4403029 0.57889414 -0.25632614 -0.26353934 0.7434502 -0.4760941 -0.462801 -0.21913394 0.15764406 -0.06578315 0.7199669 -0.3135518 0.13694644 -0.7390548 -1.3808941 0.3723618 -1.2242935 0.32354015 -0.531778 0.255494 0.005137227 0.17634508 -1.1468797 -0.2811495 -0.6355038 0.11541994 -0.85112566 0.25457537 -0.9126264 -0.27104363
tt__2056208100 0.66977996 -0.13990162 0.5186283 0.27747437 1.1439755 -0.5572382 -0.5124985 -0.3621156 -0.49251023 0.4274947 0.27442196 0.50947064 0.36704868 0.22322504 -0.9311513 0.016693743 -1.0197064 0.0046357336 0.36885986 0.29642412 -0.07769405 0.20954745 -0.97028935 -0.28856212 -1.0747312 -0.10198547 -1.097122 0.16762236 -0.4946336 0.20438297
tt__madison 0.03569665 0.068910345 -0.0022331583 -0.4510046 -0.51367116 0.16510887 -0.66925275 0.48559603 -0.44211933 -0.8402791 0.36618328 0.33680552 -0.044101693 0.8544006 -0.14205454 0.626693 -1.1000316 -1.2334676 0.06854721 -0.19930066 -0.34257162 0.19393758 -1.0076114 -0.0317395 -0.30625853 -0.16624074 0.701704 -0.40283218 -0.718598 -0.92907995
tt__northwest_medical_center -0.44197837 0.18279102 -0.43651783 0.27763268 0.34029946 0.23004147 0.508728 -0.5020971 0.52242196 -0.4302562 -0.39436716 0.11427043 0.59784716 -0.111343935 0.045038577 0.4691005 -0.98178464 -0.13350716 1.1575228 0.6015621 0.23711629 1.3864516 -0.4069377 -0.2757517 -0.8704869 -0.39910543 -0.66764456 -0.5413078 0.20995006 -1.2556158
idx__50 -0.43041766 0.10777614 0.10470689 0.558385 -0.32053617 -0.0427672 0.053658795 -0.28586522 -0.18280056 0.48922268 0.19506548 0.08155519 1.3993715 0.56727654 -1.0196887 0.19603638 -1.1106632 -1.1134678 0.18401247 -0.54382634 0.3344646 0.3125036 -0.17130719 -1.1116412 1.0483762 0.85052043 -0.975953 0.740786 -0.2535998 -0.20683669
tt__2568453150 0.3218956 -0.9741154 0.29509372 -0.39377376 0.11760823 -0.28764313 0.11491181 -0.33225322 -0.34017166 -0.93588376 -0.036924835 0.6161076 0.42129475 1.0472693 -0.334184 1.1337583 -0.5735014 0.13635634 1.0256326 1.1380616 -0.18916681 -0.08499313 -1.4874165 0.18968719 0.01535232 0.54662746 -0.41810024 0.011143792 0.111744605 0.23526445
tt__2562651000 0.4300603 -0.9782611 0.17962891 0.057990365 -0.22458659 -0.36760557 -0.7696249 0.46506098 0.03297154 -0.49854848 0.27788308 0.43031886 0.2615499 1.0969851 -0.3098095 -0.2244144 -0.5030604 -1.4117293 0.8074216 -0.16489482 -0.45179328 0.19791774 -0.92963284 0.046388928 -0.37686682 0.27984387 -0.57090586 -0.7537468 -0.6246454 -0.50393635
tt__randolph -0.7854297 0.16721763 -0.11493521 -0.70792747 -0.43742326 0.09514484 -0.27821243 0.3461584 -1.402303 0.1402894 0.06202383 0.4037967 0.09639844 -0.38380164 -0.019205166 1.3491336 -0.4288268 -0.8010963 -0.046717014 0.89794433 -0.1899225 0.55249584 -1.1913909 -0.63314414 0.3525256 0.5048889 0.5293501 -0.08078177 -0.13377614 -0.0567429
tt__10005 -0.764103 0.25660658 0.00592714 -0.48800704 -0.33885762 0.19134456 -0.47738025 -0.5330216 -0.34181568 -0.22736874 -0.23890157 0.7421397 0.2347336 0.3439355 -0.83457416 0.60731775 0.19780378 -0.077956595 0.23666534 -0.5842915 -0.04258702 -0.034299847 -0.955837 0.26696986 0.12867008 -0.6995387 -1.8467065 -0.6580029 0.24320014 -0.20837656
tt__2563572111 -0.07220046 -0.7618873 -0.3977289 -0.26097965 -0.10610825 -0.55473274 -0.28613442 0.10293397 -1.1774371 0.58572435 -0.029645434 0.3545635 0.24124008 -0.2002118 -0.16364679 0.62881786 0.43993536 -0.9730672 0.8838437 0.93712497 -0.29095483 0.37342548 -1.2645385 -0.46761477 0.2587765 1.1472992 -0.7350052 -0.23580922 -0.038810387 0.27973726
tt__10086 -0.1552848 -0.024897242 -0.50533813 0.6510632 -0.3735743 0.7503506 -0.0072826617 -0.6808045 0.15456897 -0.74858826 -0.8299622 0.13465327 0.5461306 -0.053287845 0.12618168 0.78757626 -0.34326944 0.08904706 0.19260357 0.13888094 0.2863184 1.3165516 -0.96554434 -0.4292564 -0.83949053 -0.49170136 -1.2873566 -0.7316596 -0.053597067 -0.7888063
tt__10045 -0.15204678 0.059428163 0.04759376 0.25707608 0.6673795 -0.42081273 -0.051113524 -0.6912011 -0.8050694 -0.8872602 -0.8745234 -0.57722074 0.49587095 -0.09751488 -0.3204483 1.1673275 -0.109624185 -0.80288976 0.3296801 -0.75441545 0.537715 -0.27817354 -1.1691027 -0.73629117 -0.070906654 -0.32229334 -0.65993655 -1.1129522 -0.3063898 0.7325276
tt__10032 -0.44714522 -0.46052572 -0.7879899 -0.2987266 -0.62195957 0.22791941 -0.52159476 -0.28409758 -1.1747175 -0.105643205 -0.52265 0.20300764 0.2116678 -1.1915215 -0.13453975 1.3067807 -0.04063521 -0.33550188 0.1764459 -0.06471172 -0.058064193 0.7200582 -1.2428516 -0.16262278 0.2676598 0.79154044 -0.74315137 -0.16752182 -0.18508844 0.5112342
tt__10016 0.38445494 0.11850244 -0.028006596 0.13568549 0.32328564 0.3922182 -0.93512344 -0.6912661 -0.81877613 -0.1467677 -0.4030709 0.122972995 0.23388918 -0.6923429 -1.1268662 0.8551098 -1.1486967 0.32964846 -0.26754794 -0.66173035 -0.03597859 0.35751787 -0.8157783 -0.073172085 -0.87526596 -0.33799303 -1.1235344 -0.08788113 -0.44553846 0.13571173
tt__shelby 0.54034686 0.58587784 0.25760496 -0.3163869 0.6112079 0.13130729 -0.42162892 -0.33796948 -1.3212957 -0.11453381 0.294963 0.30947337 0.19857553 -0.16007166 -1.1105952 0.613564 -1.7325586 -0.07556274 -0.53084326 0.26919734 -0.6582396 0.16294743 -1.024047 -0.2789009 -0.8958491 -0.15815893 0.1262147 0.28883073 -0.4387338 -0.29065642
tt__birmingham 0.16482848 -1.2660782 0.56855714 -0.34639412 -0.15718102 0.2877612 0.5935706 0.24315576 -0.310801 -0.57176375 -0.17898631 -0.68703014 0.68337524 -0.84918714 -0.028869854 -0.17371322 -0.33660796 -0.45199797 0.7577475 0.30459508 0.43126097 -0.048591148 -0.1960948 -0.4511845 -0.16918825 -0.34612277 -0.9265041 0.25656077 -1.4584476 0.48891565
tt__winfield -0.39837837 -0.8029852 -0.2337876 0.21932667 0.30294484 0.5646909 0.52683055 -0.4357757 0.11703248 -0.25575617 -0.7858589 -0.1737712 0.60098046 -0.103344135 0.38006976 0.16518319 -0.68820447 -0.21373856 0.03126462 0.6490214 0.40059114 0.73100203 -0.9538185 -0.693377 -0.8776288 -0.75028235 -0.85961086 -0.15210275 -0.20862706 -1.5356447
tt__10039 0.15809196 -0.53123736 -0.3710264 0.059355702 -0.8868606 0.28484082 -1.0804926 0.18288553 -0.1638343 -1.0622135 -0.30186212 0.24135292 0.26868084 0.36240596 -0.31993732 0.69752437 -0.57103235 -0.97234076 0.35186324 -1.2617291 -0.44789776 0.34691587 -0.78399205 0.29280445 -0.20562309 -0.37704438 -0.51992667 -0.7377092 -0.7098909 -0.22112405
tt__st_vincents_blount 0.1981538 0.4935227 -0.07349823 -0.16587524 -0.04997148 0.17395918 -0.6908585 -0.009892583 -0.37237534 -0.42332315 -0.22626086 0.23033372 0.68238884 -0.81347454 -0.10939652 0.24934737 -0.87275225 -0.22116646 1.7982488 0.36278254 -0.14181796 0.55164295 0.013999575 -0.35004124 0.20931025 0.013892962 -0.38797376 0.6004946 0.13949385 -1.615734
tt__2000_pepperell_parkway -0.31499365 0.23215517 -0.2974226 0.46843258 -0.9214606 0.38569963 0.51276976 -0.02387972 -0.16273016 -0.30029798 -1.1212605 0.21807665 1.3343204 0.092572466 -0.13023844 0.41184646 0.42439458 -0.8820439 0.504738 0.7942554 -0.30966115 -0.45349297 -0.279752 0.19379757 1.0575771 -0.018189073 -0.008160865 -0.8277711 -0.37199232 -0.6219063
tt__lee -0.34241295 0.4623407 0.26686502 0.20446424 -0.804847 0.45656908 0.27051508 -0.30331847 -0.5536285 -0.8465399 -0.6035856 0.18590643 0.47574928 0.5251497 -0.5551145 0.89078385 0.2582613 -1.4764241 0.24742371 0.6489462 -0.7951291 -0.05016745 -0.5545862 -0.41246888 0.5905126 -0.082576044 0.5042898 0.1544483 0.15932117 -0.7764446
tt__99508 -0.3644501 0.01821978 0.34697405 0.1683349 -0.42558637 -0.6535092 -0.3598623 -0.11995977 0.6731531 -0.3220016 0.2302359 -0.01858652 -0.2783273 -1.1017356 -0.7612641 0.4296978 -0.3642378 -0.42949668 0.30600423 0.4633749 0.6792647 -1.2756217 -1.2373539 -0.54504484 0.658961 -0.057458036 -0.1975171 -0.03449585 -0.728747 -0.8030436
tt__alabaster 0.21439956 -0.65148103 -0.08543607 -0.23892114 0.81059587 0.06289486 -0.14942819 0.16282898 -0.6891788 0.3307745 -0.30736253 0.036135487 0.4380201 -0.51025635 -0.70189756 0.0823613 -1.5775669 0.10568368 -0.4390687 -0.11323802 -0.17390001 -0.30614686 -0.78576696 -0.34066486 -1.0235391 -0.8327462 -0.9287075 0.8316254 -0.9130808 -0.5566396
tt__huntsville_hospital -0.21978201 -0.35137042 -0.45738006 -0.61432725 -0.025182767 -0.15605442 -0.3531288 0.40493172 0.13427621 -0.7983266 0.26842475 0.3863033 0.3738484 -0.015327133 -0.4864929 0.25901988 -1.2281679 -1.2966511 1.2650717 -0.43635917 -0.6925918 0.25815886 0.13308172 0.32747227 -0.4349817 -0.2822047 0.11589787 -0.77134055 -0.5455763 -0.9044637
tt__209_north_main_street -0.4098482 -0.058708575 -0.59942883 -0.12842022 -0.5671861 -0.25520685 0.36781552 0.44002312 -0.98598886 0.7398513 -0.55699915 0.43657872 0.7764456 -0.9155887 0.25226253 0.7153001 -0.42399168 -0.52096075 0.12591763 0.91902006 -0.09456896 0.46270323 -1.0374583 0.21928681 0.75405806 0.5828805 -0.18137957 -0.6403641 -0.65688187 0.052632757
tt__20017 -0.18508813 -0.13892804 0.61369413 0.4103997 -0.71322936 0.18970717 -0.7286746 -0.4847987 -0.2794025 -0.19524759 -0.66894406 0.6490524 0.005906331 -0.8886172 -0.66561925 0.593647 -0.12748644 -0.40134543 0.6950711 -0.8654082 0.6804108 -1.2082635 -1.1606245 -0.4634445 0.47781003 -0.43507192 -0.21243322 -0.03151954 -0.3384648 -0.1640725
tt__opelika -0.67708534 -0.7313759 0.0028470699 -0.17428523 -0.76355517 0.56772584 0.55335116 -0.110404626 -0.31419253 -0.5737708 -0.9537628 -0.27621943 0.8471541 0.14502436 -0.14670612 0.28719553 0.62787557 -1.2552413 0.5099036 0.51483923 -0.6930527 -0.63186204 -0.34669414 -0.44510072 0.4061844 -0.38708258 -0.40793377 0.43515137 -0.3215863 -1.2604499
tt__east_alabama_medical_center_and_snf -0.8470353 0.13177645 -0.35622972 0.037934348 -0.45916077 0.26413938 0.47423804 -0.31368625 -0.0057739806 -0.8379153 -0.699134 0.22768743 0.7016883 -0.29592326 -0.3752172 0.67203635 0.19650641 -1.372114 1.5711378 0.5432205 -0.7683421 -0.12604266 0.24466059 -0.23207662 0.38125336 -0.025247438 0.022609314 -0.3548008 0.23308517 -0.7351569
tt__2054877736 0.24516821 -0.19763796 -0.09873954 0.83659494 0.20665917 -0.11217001 0.083112314 -0.48511764 0.36941925 -0.21095958 -0.5988862 0.33514223 0.35895422 0.8293002 -0.1472365 -0.020984408 -0.22350752 -0.2944664 0.7372299 0.8405167 0.20782465 1.0760145 -1.00853 -0.61667734 -1.0293369 -0.17769805 -1.2248923 -0.49225405 0.1974188 -0.9409328
tt__36854 -1.1113553 0.8690272 0.16516016 -0.8258657 0.15065351 0.06398553 -0.5865101 0.16804256 0.46222168 -1.0326304 -0.6013812 -0.5289651 -0.13692518 -0.118083745 -0.57639694 0.11277979 -0.18694513 -0.11023997 0.050624106 0.8582735 0.47829214 -0.01884408 -0.8327003 -0.020757535 -0.14249964 0.8922335 -0.65311444 0.1936997 -0.675797 -0.45738474
tt__36801 -0.4857685 0.12114254 -0.58366525 0.1979147 -0.8127847 0.2684576 0.12444297 -0.28679004 0.60018927 -1.4228492 -0.40131494 -0.40509194 0.25270295 -0.20645703 -0.6243472 0.5595433 0.9027663 -0.93256134 0.36524585 1.2147537 -0.36614567 -0.4680568 -0.6598806 -0.19195716 0.65261346 0.04191748 -0.2671807 -0.13102904 -0.44540957 -0.7760987
tt__35058 -0.09294445 1.1819685 -0.2577724 -0.08867421 -0.09666887 -0.13044429 -0.16344512 -0.00073017954 0.45023033 -1.0286853 0.32005015 -0.024260378 0.3484857 -0.288156 -1.0615351 -0.38823876 0.017059868 -0.69305736 -0.03430073 0.5537433 0.3310466 0.13083607 -0.32160902 -1.4476614 -0.35299233 -0.6362699 -0.48417896 -0.48058778 -1.4328176 -0.654159
tt__3347493411 -0.19810079 -0.20750906 0.053542167 0.4785235 -0.41845083 0.07438012 0.05164623 -0.2709969 -0.275002 -0.7079737 -0.6685846 0.23997763 0.5715298 0.6326712 -0.4353729 0.12877049 1.0835677 -1.2280883 1.1314702 0.8131322 -0.67884964 -0.3077963 -0.5728478 -0.39624003 0.28935957 0.35518464 -0.5075458 -0.3352131 0.1656723 -0.5072193
tt__2564944000 0.71636444 0.28120208 -0.6623517 -0.097088434 0.3711881 -0.8073313 -0.22172986 -0.17687075 -0.80082035 -0.4697099 -0.1874592 0.54983234 0.35543168 0.79992634 0.094696864 0.0061689233 -0.15897664 -0.94680554 0.5686965 0.82691956 -0.28349638 -0.9399515 -0.36295426 -0.53079796 -0.10764542 0.5225722 -1.1843164 0.1296038 0.03989936 0.05133181
tt__10044 -0.6294093 0.31407052 -0.7529769 0.32159442 -0.6204868 -0.24178317 -0.12981676 -0.44708297 0.11996524 -0.8579768 -1.084424 0.5029304 0.44737747 0.025864955 0.7541138 0.504395 -0.19114548 -0.061302286 0.99397606 -0.74850005 0.60657996 0.34757832 -1.6408197 -0.62406784 -0.075322114 -0.18898964 -0.75935197 0.42916384 -0.51630414 0.18326744
tt__3346366221 0.8716013 0.37815458 0.7607416 0.2448519 0.7548902 0.2177638 0.6969322 -0.532413 -0.12154402 -0.32310644 -0.16317776 0.32907373 -0.30768403 0.5231691 -0.26908198 -0.58769923 0.06550151 -0.8849256 1.141421 0.06114997 -0.006669088 0.04738054 -1.3765883 0.09230009 0.56849194 0.36396974 -1.0403659 0.25765243 -0.3916339 -0.41616604
tt__36278 -0.83076525 -0.113582306 -0.800532 -0.6757383 -0.33465937 -0.60360116 -0.30660632 0.22331662 -0.018737907 -0.18127109 0.24893603 -0.319912 0.00473555 -1.0451897 -0.34436965 0.97014153 0.038126364 -0.48806372 -0.030487671 0.9764311 -0.20359024 0.20092349 -1.2992499 -0.41280252 0.5697979 0.9013311 -0.5712648 -0.07292028 -0.5836034 -0.19769637
tt__9072761131 -0.032768387 -0.38560408 0.9989851 0.48623934 0.13782118 -0.70473754 -0.36472717 -0.18862364 -0.33514646 0.31634492 -0.11020798 0.8594698 -0.03594082 -0.24120615 -0.4588627 -0.1869859 0.17677227 -0.84090835 1.1525174 0.14427605 0.44281682 -1.115292 -1.2056129 -0.5479391 0.26769412 -0.056662258 -0.3886136 -0.04095409 -0.19991273 -0.46661842
tt__gadsden 0.1695936 -0.26353237 -0.90334207 -0.84506905 0.19689827 -0.1397948 0.22413073 0.07877918 -1.141537 -0.60898304 -0.6066282 0.060512513 0.5933075 0.2402397 0.37365282 0.08781563 -0.7228261 -0.781899 -0.1570085 0.3583269 -0.03256792 -1.1729006 -0.14136146 -0.5370707 0.1894664 -0.48212567 -1.0246638 0.85420656 -0.3758651 -0.42030406
tt__1912_alabama_highway_157 -0.12594976 1.2061881 0.03122901 0.050843697 -0.083891146 0.17999063 0.08615905 0.15064773 -0.30205414 -0.10303574 -0.41038713 0.7747574 1.1412165 0.043321844 -0.39398307 -0.6077928 -0.36964744 -0.44726452 0.08565707 0.2931827 0.36778748 0.27604035 -0.18583289 -0.8175709 0.030874213 -0.84542763 -0.33766505 -1.055645 -1.4719466 -0.36804435
tt__35903 0.2651575 0.8054202 -1.5127335 -0.43601367 0.18076628 -0.7443773 -0.07063828 0.09194042 -0.07680549 -1.1442082 0.08550227 -0.1293194 0.16858268 -0.105590865 -0.19187032 0.4606682 -0.5377921 -0.74469495 -0.19788149 0.85474765 0.059944414 -0.97244394 -0.48361552 -0.41052803 0.35752335 0.3974971 -1.0352046 0.4550802 -0.36701867 -0.476758
tt__2801_debarr_road -0.25942105 0.18888079 0.82329714 0.67007136 -0.27104008 -0.51328087 0.13568178 0.046626396 -0.23175545 0.626195 -0.5702661 0.5481165 0.6832717 -0.80421215 -0.29208964 0.35603598 -0.57682943 -0.345356 0.46953934 0.19038013 0.7458374 -1.0466338 -1.1196184 0.16223955 0.8764971 -0.30158418 0.12647513 -0.5399253 -0.804342 -0.82649523
tt__chambers -0.97622263 1.0764772 0.87084395 -0.8026809 0.13563502 0.54166704 -0.4571653 -0.16179867 -0.7726735 -0.67295164 -0.80281913 0.06413277 -0.122007005 1.0279362 -0.24181952 0.6889226 -0.46517545 -0.5430087 -0.109530285 0.53514266 0.13396756 0.25885645 -0.79208696 -0.226628 -0.1986902 0.57187045 0.35469422 0.24506716 -0.34023538 -0.815324
tt__10019 -0.10171847 0.72151166 0.10035382 0.20877978 -1.2675809 0.07622102 -0.7278786 -0.95142925 -0.27092585 -0.5752169 -0.37755957 -0.59696996 0.75162053 -0.3942673 -0.4083105 0.17073156 -0.69120884 -1.0559525 0.30470917 -0.22161967 0.08811222 -0.13531145 -1.088698 0.19284055 -0.64372367 -1.0839379 -0.44481072 -0.16159825 0.32029173 0.78834975
tt__3347561400 -0.7324603 0.38037333 0.880104 -0.36886698 0.42584455 -0.016706195 -0.71689636 0.11490398 -0.3230624 -0.51137596 -1.0658166 0.08329031 0.14715765 0.9724049 -0.30717155 -0.48705682 0.21263619 -0.45096985 0.751796 0.74818933 0.23551999 0.16066943 -0.8491713 -0.23183514 -0.27748913 1.0324535 -0.93787336 0.14015417 -0.2120024 -0.19371755
tt__wedowee -0.7438649 -1.2282445 -0.48351365 -0.8918016 -0.19708605 0.06363465 0.14366798 0.5481679 -1.1607825 0.2740837 -0.41109887 -0.20848571 0.19918826 -0.85229915 0.28260446 0.57429206 -0.24533114 -0.75928473 -0.05281788 0.75553846 -0.17285685 0.37328514 -0.9488142 -0.58982474 0.22683232 0.20394297 -0.518771 0.3186838 -0.5494903 -0.4714408
tt__wedowee_hospital -0.9083818 -0.34926245 -0.7729384 -0.781836 -0.014037182 -0.35010043 0.015046545 0.10694279 -0.74935746 0.058077663 -0.16636893 0.17326638 0.2592976 -1.3323592 -0.17894815 1.1264393 -0.50560856 -0.81654066 1.2832942 0.6297071 -0.2071232 0.65058255 -0.3637219 -0.29551166 0.35013676 0.5295361 -0.004092881 -0.4783554 0.14632598 -0.12819812
tt__10035 0.058668796 0.9053519 -0.098159514 0.18226974 -0.585457 0.49772418 -0.59764445 -0.55761105 -0.29871053 -0.8545236 -0.47351065 0.5619848 0.53436476 -0.12683715 -0.61300576 -0.094549835 0.09665363 -0.6460429 0.38553873 -0.5037548 0.27749145 0.33781624 -0.14911546 -1.2469049 -0.64006996 -1.031518 -0.77266985 -0.5600473 -1.1401981 0.028177656
tt__alaska_regional_hospital -0.62521243 -0.1564318 0.55671924 -0.1802223 0.11054 -0.3305414 0.03523996 -0.30702838 0.014863671 0.07040738 -0.039214604 0.5351291 0.094658904 -1.222922 -0.6096384 0.5399325 -0.6938146 -0.51860017 1.7489074 -0.317375 0.35010085 -0.95632267 -0.37254322 -0.4526719 0.5155143 -0.3904454 0.23660079 -0.14071365 0.0015955153 -0.6723448
tt__35594 -0.24164349 0.34172696 -0.57438546 0.43249655 -0.08214205 -0.07044328 0.077568464 -0.21662158 1.12109 -0.6478311 -0.103316024 -0.30743712 0.25755155 -0.20316455 -0.23088586 0.5268949 -0.3627383 -0.038015738 5.9793936e-05 1.1768961 0.3648765 1.0672493 -1.0663962 -0.449949 -0.58176047 -0.22163694 -0.924464 -0.44049838 -0.29527128 -1.1601207
tt__1007_goodyear_avenue 0.58591515 0.7115529 -1.1851839 -0.042465482 0.0348546 -0.27380744 0.4796899 0.33810672 -0.6518825 -0.35158157 -0.68876487 0.50850385 1.0491861 0.28372023 0.40439135 0.3144273 -0.9527346 -0.633559 -0.16763528 1.0473275 0.19439794 -0.7004677 -0.024973862 0.36209303 0.53692776 0.09714697 -0.9501386 -0.35307503 -0.6039387 -0.3822407
tt__gadsden_regional_medical_center 0.04305708 0.628399 -1.3761333 -0.5344441 0.5000184 -0.32433483 0.4111636 0.0016306469 -0.5916579 -0.8006788 -0.4677984 0.3006065 0.30985913 -0.17543486 -0.036966864 0.34770674 -1.2329482 -1.0288923 1.0826287 0.40022042 -0.10221487 -0.677091 0.507623 -0.3350738 0.060300115 -0.0063767564 -0.63668317 0.104340285 0.29367277 -0.5383252
tt__2059325966 -0.52493644 -0.45123115 -0.19652663 0.33151767 0.9521226 -0.9223187 0.27310193 -0.30068678 -0.6560278 -0.6708516 -0.9850193 0.035529815 0.2455184 0.6215564 -0.8135855 0.13655531 0.19668373 -0.44373375 0.69468105 0.013501654 -0.09551996 -0.5405748 -1.2950895 -0.6565073 -0.8951682 0.024747044 -0.7241207 -1.0063862 -0.32307744 0.7130699
tt__4800_48th_st -0.91795415 1.0191207 0.44242397 -0.23037072 0.18534935 0.5318328 -0.09417739 0.51359653 -0.51010275 -0.01077093 -1.2502885 0.018302698 0.6732598 0.3450676 -0.19908924 0.042132657 -0.3723675 -0.11659977 0.16499735 0.6627367 0.6313052 0.14111954 -0.47908905 0.7176589 0.07114161 0.6319508 -0.45918903 -0.36286035 -1.0033332 -0.59505415
tt__2567372000 0.14218006 0.42526373 0.41389835 0.074396804 0.10818616 -0.13969761 -0.70587856 -0.031309117 -0.20682621 -0.46874925 0.031289108 0.910325 0.37322485 0.75160575 -0.6267075 -0.61085516 0.27266845 -0.967534 0.6359419 0.5102138 -0.1623693 0.4603493 -0.34355614 -1.5464064 -0.50820255 -0.5874908 -0.7030015 -0.8027939 -1.0398365 -0.039509285
tt__3342882100 0.17667063 -0.021604588 0.29032323 0.17321631 0.107746445 -0.57295424 -0.039186463 0.28554356 -0.21001911 0.81188214 -0.21151592 -0.22244418 0.9853484 0.87747335 -0.91036904 0.015791193 -0.63282824 -0.79197073 0.77778286 -0.43735912 0.03949942 0.25192454 -0.74238384 -1.3055239 0.1754908 0.74157643 -1.1530118 0.24235691 0.058699206 0.045502827
tt__36420 -0.07769036 0.12065684 -0.5669611 -0.19901422 -0.010156213 -0.77666986 -0.55523413 0.17726019 0.29870272 -1.0383952 -0.5165363 -0.28610212 -0.39842522 -0.2954665 -1.6395619 -0.18847668 -0.9092433 -0.28809798 0.17902468 0.90196836 0.41058648 0.53112876 -1.14562 -0.5930947 0.7140578 -0.372808 -0.0066994294 0.2791147 -0.646218 -0.60258645
tt__cullman_regional_medical_center -0.5152983 0.99262315 -0.17393665 -0.57724303 0.26878738 0.049745582 -0.005580687 -0.1250022 -0.19782694 -0.56737447 -0.2061665 0.57932687 0.59934294 -0.20671122 -0.70024097 -0.38705942 -0.4444191 -0.9196107 1.2320079 -0.08766874 -0.03559076 0.550549 0.4560582 -1.3150555 -0.47576293 -0.8808938 -0.11851089 -0.5710842 -1.0487837 -0.30502513
tt__anniston -0.4797811 -0.6680066 -0.05513173 -0.040773503 0.14185888 -0.803363 0.35986847 -0.06573632 -0.6727365 -0.10582591 -0.592815 -1.0377012 0.8198168 0.5935191 0.07132857 0.7056662 -0.38751513 -0.4564932 0.17749602 0.32521218 -0.18477331 0.4383195 -0.64916134 -0.1917653 0.5617159 -1.1238215 -0.45220828 0.7515895 -1.1916691 -0.4766376
tt__valley -1.132166 -0.20895636 0.3729211 -1.002845 0.34861585 0.6829254 -0.12279378 0.45994163 -0.6024397 -0.6421922 -1.2263391 -0.64680386 0.3705137 0.34873843 0.057587333 -0.2614818 -0.28241074 -0.23810883 0.10507684 0.3074025 0.512645 -0.14853893 -0.6570823 -0.108124994 -0.30231863 0.26644963 -0.7317881 0.62931055 -0.69835514 -0.7668093
tt__10025 -0.90459424 0.71270525 0.4121766 -0.32224438 -0.27220106 0.86856 -0.91849107 -0.32965004 -0.52724516 -0.7405868 -1.7196652 -0.13893948 0.12873338 0.16374813 -0.52373755 0.34511966 -0.20491993 -0.012038582 0.19476983 -0.27926093 0.5736095 0.12770087 -0.60103834 0.16616717 -0.28665456 0.6018988 -0.9241042 0.2714185 -0.4867836 -0.084218465
tt__33700_highway_43 0.9139683 0.675623 0.03269221 -0.013265089 0.5208771 0.63524795 0.9077364 -0.32752976 -0.52388346 -0.46471077 -0.6462331 0.69081247 0.78115046 -0.007693755 -0.5274909 -0.4187512 -0.17581788 -0.25707367 0.22657308 0.40558782 0.13856941 -0.07265628 -0.789009 0.73960894 0.6868578 -0.08828911 -0.46713534 -0.52447987 -0.81968147 -0.64273256
tt__etowah 0.43108904 0.96997476 -0.69151646 -0.41017017 0.18220507 -0.15343171 0.1444605 -0.15709661 -1.147746 -0.9987955 -0.37194267 0.6319595 0.2797323 0.6449899 0.3945653 0.80566174 -0.90024537 -1.0758227 -0.417014 0.8207447 -0.27605206 -0.45550042 -0.46262193 -0.69621354 0.040940344 -0.10309529 -0.08563926 0.29590157 0.126662 -0.37811348
tt__marion_regional_medical_center -0.76080203 0.5019336 -0.7283299 -0.19097944 0.003912608 -0.6021822 0.156111 0.03344978 0.48458442 -0.609857 -0.5956723 0.5087326 0.60287744 -0.21559833 0.7881934 0.15001987 -0.80114704 -0.35481024 1.829987 -0.29241484 0.21264258 0.3699664 -0.85872346 -0.7270355 -0.29823846 -0.032758255 -0.2609029 0.291942 -0.33757547 -0.45928642
tt__2059216200 -0.099864684 0.020205509 -0.2890721 0.35788482 0.067011304 -0.6063931 0.19660714 -0.012651999 0.14823018 -0.38106656 -0.40480325 0.7044656 0.41406685 0.8442744 0.79587966 -0.044672843 -0.049146052 -0.4248231 1.3415291 0.03831295 0.22427554 0.12434047 -1.6609975 -0.9368353 -0.28981408 0.2922424 -0.7497415 0.2970964 -0.45160702 -0.10216595
tt__301_east_18th_st 0.07990085 0.38187584 0.15637814 0.26235682 0.085404396 -0.49694642 0.45658073 -0.20692663 -0.40719464 0.019051801 -0.33334738 -0.5908316 1.2621707 0.45666996 0.12175422 0.40062055 -0.780618 0.008859333 0.52908903 0.44561315 -0.44640818 0.2327139 -0.6032561 0.6090592 0.9682657 -1.042168 -0.42647332 -0.4310365 -1.2838874 -0.70951295
tt__515_miranda_st -0.21942224 0.23394345 -0.37080902 0.110361524 -0.3140723 0.4703376 0.28667122 -0.7863074 -0.035059076 0.73297095 -0.59121984 0.050730903 0.692749 0.4630841 -0.20547263 -0.010679762 -0.8987656 0.2222031 0.39155242 0.9631656 -0.39247143 -0.2635803 -0.7940586 -0.027448988 0.25494993 -0.013706548 0.16406779 -1.1080595 -1.3425665 -0.21201286
tt__10040 0.3727281 0.6271671 -1.2346814 -0.060474202 -0.18701607 -0.0178008 -0.6105733 -0.78795606 -0.79076177 -1.0317352 -0.8260626 0.21307574 0.33377007 -0.034122974 0.16768907 0.73164994 -0.54013306 -0.53519213 -0.10601657 -0.036472186 -0.025642194 -0.67249334 -0.09568638 -0.5910705 0.37023336 -0.19210926 -1.363463 0.21933366 0.012557797 0.18852143
tt__g_h_lanier_memorial_hospital -1.2892576 0.8208818 0.29778638 -0.8515568 0.52177864 0.5445057 -0.14361031 0.042248067 -0.05630055 -0.53797615 -1.111523 0.0675537 0.14611673 -0.18308167 -0.477764 0.1803981 -0.66369766 -0.27211657 1.2677611 0.27610132 0.46160203 0.20479245 -0.05765371 0.07195788 -0.52433723 0.8356974 -0.23409578 0.021079171 -0.11960107 -0.698718
tt__400_northwood_dr 0.07718342 0.74110407 -0.061469954 -0.17800802 -0.06601847 0.53328 0.46114254 0.11092316 -0.07959679 0.80578876 0.1625921 0.4753688 1.3036048 -0.27240297 0.2153231 1.2461991 -0.15240885 -0.7738992 0.36272845 0.048900556 0.12835658 -0.27617806 -0.4147413 0.3295116 -0.2823922 0.1731204 -0.84612805 -0.4857942 -1.2366475 -0.5210416
tt__cherokee_medical_center -0.3076428 0.5880706 0.017137334 -0.6964223 0.21840787 0.28113487 0.3735196 -0.24502885 0.29301852 0.31580982 0.37919682 0.48784477 0.91063607 -0.42982852 -0.17010643 1.3015759 -0.5344094 -0.94373286 1.3317765 -0.28780913 -0.21576265 -0.22107078 0.26508293 -0.21653962 -0.7146039 -0.0706227 -0.6176989 0.013879514 -0.73401487 -0.46347973
tt__elba_general_hospital -0.6662881 0.6725436 -0.71380913 -0.29766327 0.62762976 0.3638145 -0.17371902 0.14786954 0.20209856 0.08003137 -0.5069961 0.30095068 0.28363842 -0.7451376 -0.67735624 0.19071956 -0.25078285 -0.6844723 1.6051956 0.2078037 -0.7618373 0.433552 -0.48423323 0.36536264 -0.68270767 -0.5660097 0.29440996 0.46721637 -0.5099014 -0.11613208
tt__35570 -0.58912677 0.3853266 -0.9832763 -0.06682332 -0.10898663 -0.51856524 0.40610728 0.049736723 1.0441281 -0.8629853 -0.2314736 0.280286 0.3932431 -0.17713945 0.55828494 0.46640837 -0.3110745 -0.12860224 0.58034974 0.27634537 0.50918996 -0.0073180264 -1.6603528 -1.0638659 0.09000954 0.40514696 -0.58514273 0.6591928 -0.9159403 -0.3780237
tt__1256_military_street_south -0.29707286 0.43422365 -0.7358676 0.49388883 -0.37247717 -0.35923633 0.5496085 0.34329507 0.0765271 0.030230481 -0.7672692 0.8342016 1.0072217 0.15447544 0.86543494 0.16418336 -0.74663466 0.04704234 0.7839624 0.12221355 0.5977474 -0.042802576 -1.4942774 -0.31341016 -0.09129859 0.09344949 -0.23526062 0.011552702 -1.0151228 -0.28459537
tt__hamilton -0.74956137 -0.49921265 -0.46156025 -0.42107603 -0.16647926 -0.103357956 0.5127286 0.15931171 0.05910819 -0.37259895 -0.7091349 0.024643531 0.48268953 0.24434882 1.0430701 -0.0041739293 -0.593027 -0.3907018 0.61983925 -0.3317644 0.3720989 -0.07760574 -1.4943017 -1.0451869 -0.1730163 -0.4250564 -0.48815984 0.83342826 -0.85393757 -0.6380663
tt__10022 0.16556503 0.45540747 0.031941924 -0.2500914 -0.49589157 0.61197084 -0.2968691 -0.6993381 -0.19524789 0.12758088 0.14232774 0.32523793 0.6783796 -0.2953158 -0.11570696 1.6742584 0.14764425 -0.7487436 0.41297978 -0.76347196 0.017431937 -0.15071532 -0.36540025 -0.25945428 -0.3228922 -0.13352273 -1.1626986 -0.09305913 -1.0908988 0.045038655
tt__1108_ross_clark_circle 0.43927783 0.3149105 -0.6245826 -0.17732486 -0.25422326 0.18406576 0.37636372 0.37229383 -0.37403247 0.23129447 -0.037608024 0.05343258 1.545013 0.49232513 -0.5488617 0.19713663 0.26634526 0.07188995 0.75017226 0.33015963 1.3462644 0.45832536 -0.8510089 0.24969593 0.45339277 -0.16190825 0.16006409 -0.48486745 -0.64734215 -0.20972022
tt__butler -0.49683756 0.34419453 0.09191663 -0.38199407 -0.59455633 0.606259 0.05231631 -0.990669 -0.53325164 0.2441873 0.010929094 0.05094554 -0.117424354 0.78592116 -0.48677492 0.63124096 -0.84041893 -0.22998254 0.015919894 0.85872716 -0.5958878 -0.22109082 -1.1184918 -0.9416936 -0.258018 -0.09410392 0.8953044 -0.4949274 -0.48257047 -0.35572693
tt__10008 -0.31810066 0.4759769 -0.060936283 0.4393298 -0.24779367 0.5657196 -1.2566348 0.47467676 0.105917975 -0.89126587 -0.9993352 0.12495966 0.87192446 0.38249645 -0.51291615 0.9542107 -0.38097453 0.29386863 0.497592 -0.5755207 -0.22198242 -0.8701745 -0.5687911 -0.3181325 0.013838286 -0.6707767 -0.61455005 0.21706133 0.028192163 0.40465942
tt__1530_u_s_highway_43 0.027450735 0.44746304 -0.5217862 0.8100631 0.09721252 0.27941632 0.563695 0.09266313 0.16643801 -0.08349579 -0.9070406 0.32633343 1.0028598 0.20465548 0.26803002 0.34864363 -0.9782111 -0.14120883 -0.019904412 1.0012963 0.24051134 1.0358307 -0.74449575 -0.08482206 -0.635993 -0.5068673 -0.7751882 -0.83291733 -0.24735098 -0.85828376
tt__3343353374 -0.017011667 0.34282643 0.58432317 0.304667 0.5623642 -0.07062474 -0.5103815 0.7233089 0.15298375 -0.280585 -0.39858416 0.52953637 0.9614773 1.1420693 -0.45075706 0.09241101 0.08531736 0.029276317 1.1540687 0.33367482 -0.32488352 -0.9373672 -0.8129115 -0.7075353 -0.08638731 -0.2929824 -0.6902062 0.12014426 0.18597814 0.15464759
tt__987_drayton_street 0.059936367 0.8849171 -0.77037543 0.19317383 0.025819793 0.53220147 -0.029972397 0.6327364 -0.23457335 0.57536197 -0.8398384 0.5845259 0.8470884 -0.48825628 -0.16443284 -0.06263202 -0.0776644 -0.44421676 0.69259036 0.6798308 -0.45826903 0.24047637 -1.1629628 0.91467834 -0.21324839 -0.2943757 0.12892157 0.18025754 -1.0311122 0.052892648
tt__autauga -0.032761104 0.4982025 0.049893416 -0.7870558 -0.17720631 -0.70228076 -0.15672043 -0.84547496 -0.40972087 -0.56387365 -0.12830491 1.167976 1.3165332 0.4257671 -0.47379583 0.7623783 0.0074777696 -0.61931795 -0.51303864 0.31082755 -0.3759344 0.07586799 -0.84977573 -0.3564562 -0.38459522 -0.13233078 1.0338252 0.6174378 -0.12934281 -0.73465455
tt__36078 -0.10610352 0.19501916 -0.5129018 0.12162897 0.23321322 -0.1832755 0.35712644 0.5415396 0.42926976 -0.75654215 0.048610814 0.14253877 -0.38532743 -0.11812664 -1.2133507 0.9155998 -0.024339158 0.13335963 0.067269616 0.08928461 -0.5762637 0.034341406 -0.65229034 -0.9836894 0.43866485 0.50778335 -0.6733028 0.15099756 -1.4699985 -0.76335347
tt__prattville -0.18811433 -1.1734645 -0.016124025 -1.0786352 0.11778014 -0.39676812 0.1470459 -0.4430765 -0.2056165 -0.47259068 -0.59676206 0.59247637 1.508284 -0.20565774 -0.39674246 -0.13264379 0.2545599 -0.14657202 -0.2764398 0.05641468 -0.44127247 -0.28319418 -0.6578953 -0.21492532 -0.26538634 -0.45434672 -0.060412925 0.8529259 -0.6343167 -0.88231504
tt__3348972257 0.0662513 0.26440775 -0.18111752 0.29686812 0.33516797 0.013858582 -0.5483643 0.35499638 -0.19180898 0.50670075 -0.447232 0.5744064 0.27865568 0.15577671 -0.64120704 -0.14537752 0.60096115 -0.8644151 1.1915326 0.46214038 -1.1219168 0.2447151 -1.4600334 0.12938479 -0.6778519 0.093994476 -0.30578128 0.76503646 -0.34323925 0.32033518
tt__10034 0.0922262 -0.074457034 -0.36575425 0.5856677 -0.31261912 0.67809623 0.017964775 0.08761381 -0.43783963 -0.6541244 -0.79550165 0.44590762 -0.25104436 -0.14592066 -1.0173119 1.4398175 0.18365808 0.2770547 0.43588278 -0.93359506 -0.4195748 0.19022246 -0.56387806 -0.7939033 0.31414467 0.09893914 -0.95099235 -0.17320658 -0.89909214 -0.16676643
tt__805_friendship_road 0.19654188 0.22508642 -0.2514476 0.73723906 0.09774798 0.412073 0.687726 0.83377016 -0.45620164 0.017720558 -0.74309826 0.69240254 0.55568653 -0.05176553 -0.8123262 0.727056 -0.21655251 0.34621236 0.35623437 -0.014771989 -0.24971211 0.25066775 -0.27050614 -0.4425549 0.7684111 0.28969595 -0.23207669 -0.4015063 -1.6223955 -0.73429847
tt__cherokee 0.18741205 0.7833607 0.39878547 -0.6933909 -0.33602008 0.46971932 0.36721343 -0.076199286 -0.47684616 0.19966133 0.7679949 0.59591776 0.63651735 0.31298146 -0.080973774 1.718214 -0.27490968 -1.0854517 0.06590002 -0.016906742 -0.21219805 -0.20677224 -0.6837064 -0.51453733 -0.49581024 -0.18141495 -0.09474651 0.33751848 -0.7972381 -0.23882198
tt__36302 0.23742794 0.52569205 -0.9190735 -0.8842938 0.016627898 -0.21457918 -0.003795742 0.043266077 0.3232687 -0.53946835 0.83390135 -0.618506 0.76372534 0.15116592 -0.98124963 0.27323297 0.46747485 -0.19527642 0.494255 0.4443849 1.2571763 0.41026372 -1.0816599 -0.50707334 0.17541403 -0.07700796 -0.1866383 0.18179692 -0.59721744 -0.22383994
tt__36323 -0.29126957 0.7318788 -1.074287 -0.07005604 0.2076086 0.16277163 -0.34838015 0.4476811 0.7097157 -0.407216 -0.19970098 -0.05560394 -0.06834618 -0.50571924 -0.93768555 0.11422848 0.43763658 -0.7408574 0.28772664 0.70424414 -0.6587399 0.12415565 -1.3624647 0.4301981 -0.605851 -0.08266969 -0.14555633 0.7547127 -1.0421779 -0.15031444
tt__southeast_alabama_medical_center -0.13739604 0.115104005 -0.93985814 -0.8381515 0.40573087 0.14486857 0.26699474 -0.058666762 -0.15329409 -0.22490832 0.16650148 -0.055015214 1.1470741 0.1520088 -0.66477543 0.33313975 0.059898023 -0.12062936 1.9082603 -0.012707176 0.93387234 0.6788631 -0.34403396 -0.3973168 -0.026665336 -0.2687815 0.30486163 -0.24685374 0.22346295 -0.23577167
tt__2053258100 0.5274665 -0.35009715 0.6662474 -0.1810142 -0.049305182 -0.18686703 -0.3341701 0.46092916 -0.24872108 -0.4210417 0.17414626 0.0077396194 0.6999108 0.021745924 -0.10935098 -0.53597647 -0.24795564 -0.040812314 1.447945 0.38431418 0.116357565 -0.09874672 -0.9617029 -0.41075805 -0.2477411 0.68906325 -1.032424 -0.4509015 -0.805949 1.0203232
tt__2569275531 0.5356241 0.23033981 0.3713896 -0.058568027 0.31727824 -0.058056675 -0.11698727 -0.24350837 -0.12331904 0.61309147 0.602974 0.61878985 0.6511085 0.5255667 0.016196731 1.0323234 0.4436536 -1.0802765 0.85258114 0.059033856 -0.1644101 -0.43582064 -0.6810625 -0.41430068 -0.74927783 0.35265428 -1.3225582 0.0695227 -0.9223626 -0.18233353
tt__36033 -0.45022273 0.07933312 -0.43508467 -0.010933608 -0.33538258 0.33851427 -0.123205446 -0.9724359 0.8975907 -0.038469512 0.1987161 -0.64160615 -0.2789927 0.05902952 -0.96347207 0.2753578 -0.58358866 0.18794426 0.23173438 1.2236589 -0.600383 -0.45707083 -1.1522121 -0.81373376 0.09866897 0.06797351 -0.2333228 -0.5456956 -0.9296968 -0.4151712
tt__georgiana -0.46212885 -1.1683134 -0.22216232 -0.4108121 -0.337686 0.7985547 0.4359085 -0.827892 -0.34320834 0.58901846 -0.5899821 -0.6236743 0.12177253 0.13387011 -0.30242074 -0.05888993 -0.6577964 0.17823929 0.3414003 0.7146451 -0.51742744 -0.572092 -0.94848615 -0.81768346 -0.115842104 -0.5845769 -0.042121064 -0.111696966 -0.8778785 -0.5486091
tt__3343762205 0.06927709 -0.44328007 0.02854087 0.1752005 -0.0656988 0.18217225 -0.08385711 -0.9164751 -0.2207978 0.40346193 -0.13990094 0.15681131 -0.12919313 0.9260701 -0.7578178 -0.24778229 -0.2745255 0.016683938 0.9509722 1.1032171 -0.8052276 -0.25714913 -0.97648257 -0.7719741 -0.22725545 0.2791742 -0.21713808 -0.7593992 -0.46382234 0.018718913
tt__10108 -0.21892722 -0.10795101 -0.22015642 -0.36315697 -0.54174376 -0.59009856 -0.72333616 -1.184735 0.1165891 -0.7233519 -0.8880923 0.9063408 1.4386771 -0.39668086 -0.53146344 0.6741858 0.57477134 0.06954407 -0.079925045 -0.5713629 -0.11429429 0.18373317 -0.53437275 -0.06011922 -0.38338438 -0.29474705 -0.3073958 0.36498657 -0.40946913 -0.21284503
tt__crenshaw_community_hospital -0.5704824 0.56817335 0.029263174 -0.034221023 0.43026274 0.18818647 -0.3427328 0.5903219 0.4187638 -0.52029395 -0.33727506 0.18151437 1.0505471 0.14850555 -0.73912007 0.627369 -0.95190126 0.1362568 1.6564276 0.05092716 -0.468759 -0.9200103 0.15177694 -0.4542467 -0.10568338 -0.62831354 -0.025435988 0.10859903 0.43196133 -0.12176697
tt__centre 0.07253105 -0.32491514 0.10136181 -0.69161695 -0.075793855 0.5268573 0.55655926 0.010902373 -0.25997993 0.42398432 0.3065885 -0.16853438 0.7610238 -0.13323304 0.2546583 1.0889384 -0.11716795 -0.9752832 0.30971178 -0.41360742 -0.013024534 -0.7273046 -0.4428156 -0.5048339 -0.68692076 -0.7675861 -0.94126683 0.6649971 -1.0664389 -0.69056726
tt__3342836541 0.27005196 -0.39345604 0.111076616 0.5394154 0.59842336 -0.108949386 0.27943483 0.45888406 -0.33636433 -0.09160357 -0.12338472 0.78433615 -0.14477085 0.6709862 -0.80786157 0.65995395 0.41356745 -0.07295736 1.0081568 -0.21142644 -0.827692 0.38423824 -0.71525574 -1.0845561 0.25479433 0.58508205 -0.90146935 -0.10501776 -1.0040308 -0.36755043
tt__community_hospital_inc -0.32561463 0.20706367 -0.38657814 0.080235094 0.669516 0.33281124 0.8055589 0.4329659 -0.24466884 -0.32552975 -0.21495028 0.41463092 -0.26399016 -0.2617611 -0.9345076 1.1177086 -0.6055812 0.11583606 1.6264942 -0.33319992 -0.74346644 0.35039568 0.018250346 -0.8395041 0.45963606 -0.003186682 -0.33835527 -0.03581368 -0.5800585 -0.66576475
tt__101_hospital_circle -0.04882687 0.85929656 0.0837808 0.7232605 0.19929646 0.37248147 -0.045164034 1.1210622 0.2451571 -0.011723331 -0.86946136 0.3185023 1.4472418 0.5525184 -0.4760602 0.1800711 -0.78294915 0.45245463 0.5904202 0.43587846 -0.09833557 -0.831741 -0.40388015 0.017247606 0.4579997 -0.59631073 -0.2856892 -0.3052384 -0.38092753 -0.038112063
tt__elba -0.3933912 -0.4285354 -0.6029555 -0.5639399 0.27853385 0.6464696 0.036137395 0.3579261 -0.43584704 0.35461572 -0.79685736 -0.10425987 0.45857674 -0.22790153 -0.33457467 -0.037165333 0.062110387 -0.6593692 0.47771356 0.36335889 -0.77200174 -0.068717025 -1.1874446 0.1940145 -0.5606856 -0.6811783 -0.033866342 1.3265468 -0.67037845 -0.28667942
tt__luverne -0.31757277 -0.4344872 0.13948005 -0.3393724 0.24897197 0.5150568 -0.3538641 1.1110748 -0.05891639 -0.4565538 -0.6810906 -0.30640155 1.2725714 0.5473588 -0.6412552 0.32399875 -0.5542576 0.1685555 0.28387854 0.14761724 -0.1112788 -1.1750699 -0.29546377 -0.7500941 -0.065721616 -1.0068629 -0.3430423 0.8125576 -0.12574802 -0.5566633
tt__10001 0.23283088 0.08914412 -0.75162935 -0.43462127 -0.4751343 0.5002334 -0.46460035 -0.66939825 -0.41377082 -0.32804957 -0.22930445 0.087149985 0.92146075 0.18389031 -0.7326529 0.63347024 0.6342698 0.24847454 0.85471475 -0.62131774 1.1050949 0.71166533 -0.99086976 -0.46247888 0.15666467 -0.2930498 -0.2413176 -0.1591611 -0.28895748 0.3559296
tt__124_s_memorial_dr -0.03512855 0.10872942 -0.22550388 -0.065987 -0.16032037 -0.6922149 0.33614352 -0.5710928 0.070511945 0.064836696 -0.668927 1.1306802 1.9281312 -0.32805157 -0.44542086 0.095015794 -0.027873205 0.13658908 -0.31866017 0.5355632 -0.2194745 0.17154801 -0.477069 0.299745 0.1644476 0.03383984 0.112650186 -0.13954635 -0.9588838 -0.5730843
tt__georgiana_hospital -0.6628771 -0.10604272 -0.4557257 -0.5161319 0.114832856 0.6692526 0.3076353 -1.005253 0.22941592 0.2703498 -0.0011016494 -0.13309069 0.25039285 -0.09834658 -0.4687013 0.10208221 -0.90574163 0.037907615 1.7379495 0.70266813 -0.7684832 -0.06500925 -0.17258418 -0.753986 -0.23387063 -0.1308138 0.4452989 -0.91717994 -0.6942856 -0.352883
tt__35960 0.14186898 0.72358006 -0.30292806 -0.6240867 -0.002744353 0.073930226 0.123589754 -0.2465678 0.78823394 0.009523832 1.0047166 -0.08537534 0.44437033 -0.28242168 -0.39967152 1.2749004 0.01859949 -0.759045 0.17330675 0.14221641 0.22278048 -0.5601848 -0.5701913 -0.43398708 -0.22082505 0.10685149 -1.0339149 0.12105501 -1.2816188 -0.49468434
tt__10027 -0.22292413 0.42379218 -0.41256505 0.15692598 -0.3996044 0.82370085 -0.76976955 -0.22876199 -0.13770354 -0.2799199 -0.93464243 0.3826086 0.26230764 -0.4722003 -0.52289534 0.5251131 0.4369396 -0.28295404 0.7873011 -0.30800462 -0.61343294 0.2461394 -1.3877033 0.37132862 -0.47095442 -0.64110535 -0.08383784 0.7000191 -0.5789137 0.5858568
tt__tallassee -0.07294941 -0.9772857 -0.13686225 0.006032874 0.48801512 0.59405106 0.58902586 0.7739818 -0.6508589 -0.19395228 -0.5791086 0.072142705 0.10840947 0.18013594 -0.75193805 0.7658094 -0.13571258 0.1207452 0.26481515 -0.2802388 -0.5693387 -0.043038726 -0.4097655 -1.1169747 0.37131172 -0.3842359 -0.7325595 0.67355746 -1.2862519 -1.0591857
tt__callahan_eye_foundation_hospital 0.016302945 -0.03735252 0.2584971 -0.6044336 0.16512401 0.50962245 0.15356909 0.4533755 0.005744088 -0.9207479 0.051062178 0.028981378 0.7425152 -0.91633904 -0.3643196 -0.042692497 -0.9179488 -0.04723504 1.9826268 0.30435917 -0.065382294 0.2065353 -0.15408696 -0.15760157 -0.23168439 0.14404294 -0.024918845 -0.42346296 -0.78782403 0.65794396
tt__1720_university_blvd 0.4738841 0.23715337 0.07121048 -0.04024104 -0.32592964 0.2678971 0.24312153 0.66253376 -0.25172988 -0.39420396 -0.22718109 -0.1399196 1.4675381 -0.44313338 0.10086204 -0.16297288 -0.53143626 0.27384886 0.6779988 0.87955076 0.07553048 0.079044916 -0.47260922 0.1558097 0.34455287 0.12462899 -0.36306864 -0.8087671 -1.4380914 0.46702713
tt__elmore -0.16116332 0.4740421 0.10902742 0.10350645 0.3256831 0.5579826 0.42028928 0.37166288 -0.9077801 -0.6329341 -0.07042858 0.5698021 -0.18232475 0.46854153 -0.67685103 1.396772 -0.24889022 0.050234906 -0.0019705002 -0.23330085 -0.7799966 0.36347327 -0.8174299 -1.322914 0.4241531 0.15034853 0.37571684 0.19741121 -0.6645761 -0.8671875
tt__36067 -0.30593526 0.056919757 -0.32478976 -0.5413399 -0.112712495 -1.0344609 -0.42345983 -0.7060227 0.95492196 -0.825952 0.005643418 0.45231536 1.1548686 -0.5767057 -0.9062571 0.3856046 0.35142353 -0.0009472957 -0.39781123 0.46645764 -0.39515084 -0.09426789 -0.7722329 -0.25526398 -0.17774986 0.45818973 -0.084914304 0.45099726 -0.7686776 -0.89108217
tt__36049 -0.5128345 0.7124366 -0.21493343 0.2900175 -0.07235997 -0.19691733 -0.71478343 1.0290385 1.0751127 -0.7676022 0.22399567 -0.19106951 0.85432607 0.23506773 -0.95475376 0.7078146 -0.3851078 0.3919377 0.38617808 0.72152466 -0.15122077 -1.0455147 -0.6088521 -0.73252416 0.13824818 -0.31207445 -0.46116686 0.4298974 -0.1335625 -0.19759464
tt__10047 -0.26306045 -0.006215942 -0.7667112 0.04100641 -0.7606429 0.995146 -0.4742956 -1.7844719 -0.18233375 0.14796023 -0.608274 -0.19580695 0.082819186 0.23898822 -0.5586985 0.42392287 -0.3514832 0.38783237 0.46176678 -0.05041574 -0.6877565 -0.07048331 -0.9760395 -0.71909916 0.10421565 -0.30441016 -0.3176198 -0.66324085 -0.7630703 0.30163625
tt__35233 0.31325322 0.14267544 0.025822533 -0.44345304 -0.41086662 -0.01920356 -0.2593668 0.67469007 0.5160848 -1.2384686 0.39741895 -0.6483174 0.45577484 -0.84929305 -0.4822282 -0.1313362 -0.17830363 0.21618162 0.6287699 0.75703543 0.032627415 -0.24761035 -1.0821955 -0.363725 0.07589024 0.4353903 -0.6126253 -0.27100247 -1.2858164 0.46301872
tt__3343614267 0.20802277 -0.6689356 0.21155442 -0.31564012 0.16474417 -1.2490675 -0.5460087 -0.56801593 -0.09251437 -0.27526012 -0.35256666 1.2231705 1.2400873 0.45521313 -0.80706143 0.062998794 0.63836586 -0.15785168 0.42343745 0.5009308 -0.493661 0.041789845 -0.74572843 -0.15770654 -0.6080395 0.3638368 -0.17651704 0.2962851 -0.45086813 -0.39065042
tt__prattville_baptist_hospital -0.70634633 -0.22047131 -0.23808055 -0.8567613 0.33903393 -0.8131636 0.02241726 -0.82855606 0.297291 -0.42633802 -0.42086506 0.9527839 1.5029922 -0.63754094 -0.781301 0.25700536 -0.13820069 -0.21976703 0.8020237 -0.075995 -0.44551805 0.3096654 0.044645526 -0.0809356 -0.31974417 -0.076459885 0.43733224 0.2700423 -0.183064 -0.60174257
