47 30
idx__0 -0.24597229 0.19394504 -0.47636086 -0.36758965 0.16337694 -1.0004301 0.2907037 -0.22913086 0.09682773 0.5280119 -0.25382414 -0.010842633 -0.056668557 0.44331464 0.069828406 -0.12637852 0.21909538 -0.3884056 -0.28922588 0.35087687 -0.09650085 -0.4803727 -0.33117965 -0.21462242 -0.11983736 -0.5110269 0.17301102 -0.36209545 -0.8155563 0.15748224
idx__3 -0.87969345 0.02583137 -0.55286807 -0.4138652 -0.3534028 -0.09112842 -0.4598124 -0.3242755 -0.21223757 0.23933956 -0.25547695 -0.5183339 -0.41028437 0.17263879 0.13738771 -0.58699685 -0.6540291 0.14177307 -0.5917891 0.09429175 -0.5546522 0.42031533 -0.53141356 0.030926228 -0.40028095 0.006641078 -0.35248682 -0.032375287 -0.039242815 -0.33997175
idx__1 -0.28273562 0.284654 -0.51216936 0.2121546 0.06140937 -0.24367574 0.4212481 -0.029264022 0.12592314 -0.009075003 0.401895 0.38508657 -0.31495342 -0.14075552 0.02767384 -0.41880727 -0.3781436 0.49594793 -0.17750293 0.015411689 0.14763081 -0.28977165 -0.4426793 0.45433798 -0.6004284 -0.5905464 -0.25670707 0.8585145 -0.25769982 -0.31061798
idx__2 -0.2212832 0.51360464 -0.26136187 -0.41172624 0.44494998 -0.27009964 0.48594058 -0.27360123 0.108145185 -0.11400157 0.3750481 0.47765446 0.12663643 -0.058924906 0.5562285 -0.26575395 -0.38216957 0.38215303 0.090407655 0.004577501 0.13952734 -0.45435426 -0.6148578 0.20532297 -0.5680424 -0.32524782 0.0055790003 0.80594325 -0.38529262 -0.13634421
hospital 0.06686186 0.044457454 -0.19326289 -0.06563228 -0.011599774 -0.46789902 0.8438394 0.1543046 0.2892398 -0.0022113882 0.5135574 0.22460233 0.0011466348 -0.2718836 1.1353909 0.61424494 -0.71430933 -0.007123312 -0.15763806 0.17793435 -0.20703152 -0.17374018 -0.006479188 0.28196225 -0.25095382 -0.14513706 -0.028790375 -0.26408613 -0.4556624 -0.35869867
cid__ProviderNumber -0.6401178 -0.8514252 -0.7477323 -0.59304976 0.32871866 -0.31383136 -0.09040017 0.0887651 0.2349839 0.1872516 0.105935365 0.3652632 0.3776925 0.48522314 0.47585118 -0.3617256 -0.69130653 0.15963976 0.070345335 0.6306181 0.14477639 -0.25711828 -0.17951593 0.2514274 -0.49567676 -0.19680007 -0.15878092 0.4572922 0.15551506 0.15161574
tt__jefferson -1.1791149 0.040335454 -0.50451 0.07679073 0.17297202 -0.1875016 0.4229207 -0.110269085 0.07427721 0.31175494 0.2556703 0.50937897 0.12117151 0.014219149 0.18787517 0.09393249 -0.17567329 -0.13382384 -0.009801258 -0.32408577 0.14002521 -0.3684447 -0.07925827 0.07666762 -0.09554366 -0.22084622 -0.2610773 0.048754327 -0.43941492 -0.6156396
cid__ZipCode -0.63400733 -0.086522795 -1.1860487 0.14001176 -0.7969566 -0.54868764 0.26345924 0.5122397 0.7633173 0.16101846 0.27012545 0.047031958 -0.7445028 0.030673835 -0.48379752 -0.32750782 -0.4465445 0.07848272 -0.6513816 0.20950793 -0.15959677 0.27246258 0.07535814 0.115142725 -0.13808759 -0.48342213 -0.25462627 -0.16684113 -0.39994073 0.19543478
cid__PhoneNumber -0.44009206 0.46357992 -0.48171693 -0.712593 -0.29320878 0.29207388 0.45682776 -0.45462564 0.05839626 0.2632749 -0.10726623 0.34566876 -0.6892954 0.4313679 0.45578107 -0.17753778 -0.94101864 -0.5026136 0.3611265 -0.16472481 -0.039422415 -0.42265013 -0.5715367 0.20295812 0.31338903 -0.11235314 0.3620234 -0.10616874 -0.008721487 0.21544333
cid__HospitalName -0.29533243 -0.24910758 0.09502762 -0.42202753 -0.632071 -0.4112854 0.5306458 0.54654044 0.40647173 0.15977068 0.29890406 -0.49202156 -0.39272156 -0.2534816 1.2975191 0.42299107 -0.29635793 0.22375013 0.15720348 0.25402978 -0.21905564 -0.16536586 -0.17868425 0.22126311 -0.2700559 -0.034448396 -0.4808636 -0.39659062 -0.6195248 -0.73353297
cid__Address1 -0.21345472 0.35018274 -0.5731198 -0.018890752 -0.046678618 -0.67454624 0.29334393 -0.6292996 0.78573716 -0.53824496 -0.24618737 -0.097139224 0.2811828 0.89315474 -0.025297336 -0.1643799 -0.64454955 -0.13732906 0.3042003 -0.39033037 -0.044722334 0.2768699 -0.21177398 -0.4698454 -1.0993445 0.5900259 -0.11030836 -0.107517704 -0.22744466 -0.3444178
tt__helen -0.112161726 0.18037328 -0.09632072 -0.16712531 -0.18408117 -0.75798655 0.5953522 0.0533432 -0.05076593 0.13951086 0.51310915 0.42810425 -0.42828688 -0.13339391 1.0778927 0.21514998 -0.33937362 0.7669035 -0.041411962 0.092113905 -0.20328474 -0.0757876 -0.021482151 0.32213262 -0.3443026 0.045552406 -0.18404852 0.48066753 -0.02223744 -0.59806085
keller -0.23096511 -0.09919661 0.20071156 -0.32988316 0.10338971 -0.30310494 0.9219291 0.17495188 0.47324896 0.07831422 0.22051412 0.27975416 -0.6384606 -0.46708122 0.9687718 0.12870334 -0.36121705 0.30245215 0.04757386 0.001695345 0.19045456 0.04704016 -0.42482227 0.38069132 -0.58656716 -0.35640118 -0.43531084 0.29202154 -0.21962212 -0.26295397
memorial -0.16122866 0.03803328 -0.09939414 -0.07607225 0.064530276 -0.4124293 0.57651985 -0.5082361 0.31155717 -0.1932252 0.7078779 -0.13259754 -0.6033535 -0.40406662 0.8715887 0.14083292 -0.31242764 0.6363763 0.09466887 0.59756976 0.06962644 -0.16277398 -0.32638982 0.24064983 -0.43790758 -0.33973885 -0.04023817 0.18840334 -0.14985856 -0.6132713
tt__1300 -0.07275672 0.25269157 -0.5251847 0.24436499 0.23188704 -0.77264285 0.33902633 -0.42991132 0.3814443 -0.23019205 -0.032138508 0.2990515 -0.30194026 0.11801397 0.14180821 -0.46072274 -0.67025924 0.21706718 0.48736477 -0.66620266 0.09806839 -0.00260246 -0.27701738 0.2537551 -0.6741195 0.026700528 0.13842101 0.27169326 -0.20357642 -0.48380584
south -0.08382019 0.5612765 -0.55968386 0.14429933 0.08417554 -0.5949584 0.3216606 -0.3546866 0.5105625 -0.42984152 -0.014990508 0.34672156 0.003152492 -0.034998275 -0.02341768 0.104513474 -0.8023938 -0.047745522 0.21882577 -0.20230128 0.35371345 -0.014120979 -0.5303504 -0.21607466 -0.62788403 0.08692909 0.051237542 0.6781441 -0.2428714 -0.63445
montgomery -0.007169258 0.41294548 -0.20735976 -0.053631917 0.040408418 -0.9092466 0.44740707 -0.22117107 0.28526822 0.13122873 0.27165163 0.45060882 0.20146714 0.16806746 -0.21057402 -0.18742356 -0.7101305 0.49191642 0.54203206 -0.3750195 0.3298655 0.21312462 -0.6106108 -0.07996371 -0.6939797 0.1275306 0.03614952 0.36834332 -0.092461415 -0.74593985
avenue -0.16731192 0.18430445 -0.45467833 -0.27593115 0.34465387 -0.9542368 0.4341814 -0.49717104 0.42145112 -0.4111605 0.102568574 0.21252042 -0.43214867 -0.031115258 -0.14933422 -0.13729358 -0.3662296 0.019154249 -0.0024861256 -0.48555532 0.18736343 -0.0644602 -0.2942948 -0.15482366 -0.7584804 0.2161769 0.17660101 0.6873399 0.046371464 -0.5287186
tn__2563864556 -0.5847152 0.33996832 -0.23630333 -0.3243628 -0.07749282 -0.35874492 0.64412385 -0.30550915 0.31746405 0.31976205 0.11639324 0.38055232 -0.46895206 -0.060417056 0.27899253 -0.21660508 -0.57473135 0.17749427 0.28317836 -0.0052863397 -0.030812657 -0.44988644 -0.51412153 0.04524646 -0.0947432 -0.21213582 0.46599755 0.37759468 0.44539303 -0.33099553
tt__sheffield -0.89373124 0.21519293 -0.08451188 0.13959733 0.08247521 -0.9500674 0.7236357 -0.3691387 0.05823066 -0.07106283 0.33456257 0.7678154 -0.2161006 -0.22685267 0.13708892 -0.058534432 -0.50278586 0.14310488 0.4354484 0.2161269 0.66479564 -0.37823862 -0.0029348382 -0.08657574 -0.5376176 -0.38502714 -0.07602778 0.2954691 -0.3803089 -0.14052212
tt__10001 -0.5230544 -0.47574714 -1.0190738 -0.6846186 -0.039859418 -0.04075622 -0.39278966 0.23463582 -0.33754987 0.1269653 -0.12600978 -0.10586338 -0.091201045 0.30565655 0.36923563 -0.21722971 -0.7503833 -0.1495246 -0.24046513 0.4599116 0.29552293 0.11878255 -0.38390434 0.27582955 -0.33610174 0.03391606 -0.18944073 0.41113785 0.02460502 -0.14357007
tn__36302 -0.78578764 -0.106508836 -0.8042687 -0.076419115 -0.8527708 -0.30173013 0.090724744 0.19717173 0.10169535 0.18909736 0.052937813 -0.25703862 -0.6050047 0.220522 -0.24449371 -0.34996578 -0.6131791 0.21580757 -0.6883211 0.21495342 -0.22842295 0.60806847 -0.029942822 0.19000219 -0.11531924 -0.41470772 -0.4126641 -0.21541949 -0.10255503 -0.15833555
tn__3347938701 -0.6849642 0.3070398 -0.4894552 -0.7171916 -0.68201166 0.11886349 0.32624757 -0.17246668 -0.07081508 0.58468527 -0.020244945 -0.30249384 -0.48536634 0.40217122 0.39233476 -0.47648945 -0.813337 -0.2805195 -0.14992203 0.23116817 -0.14553648 0.046936806 -0.5565127 -0.05343221 0.1421756 -0.0660121 0.251065 0.072091274 0.45195043 -0.32779998
tt__houston -1.2522911 -0.01597913 -0.9724139 -0.29778868 -0.32192978 0.12972543 0.24223636 -0.32426733 -0.61511964 0.35229048 0.16697499 -0.23631623 -0.04027269 0.29008958 0.32657298 -0.5383541 -0.20333888 -0.113893546 -0.41201448 -0.21113648 0.10728951 0.2925695 -0.11251865 -0.062819235 -0.07967881 -0.059778787 -0.6021926 0.039962724 -0.1360612 -0.5621823
tt__10018 -0.64659923 -0.4756376 -0.7434158 -0.60378844 0.3060309 -0.48071957 -0.23814602 0.27225825 0.0896171 0.37640694 -0.11009364 0.35451743 0.16222382 0.5380279 0.20279178 0.09463283 -0.41835496 -0.23903511 0.0847828 0.6579553 0.12542742 -0.5152827 -0.15063941 0.13224886 -0.4283102 -0.06960083 0.012727042 0.048600636 -0.50412905 0.031347305
tt__10019 -0.62832856 -0.42290094 -0.4390701 -0.31745115 0.60892236 -0.36532575 -0.23564106 0.0068099834 -0.10188473 0.15197378 0.09354401 0.4323646 0.05623469 0.16394706 0.5496878 -0.15542445 -0.83570427 0.13733096 0.45735252 0.29438454 0.3977015 -0.3654956 -0.37790406 0.38421595 -0.67986524 -0.16393179 0.22436656 0.5786726 -0.092805214 -0.30621296
tt__southeast -0.19298492 0.0016406046 -0.7068314 -0.56701255 -0.6101147 -0.16527307 0.4981715 0.08441281 -0.32198796 0.16248296 0.3063181 -0.73141986 -0.7310813 -0.0764799 1.0259414 -0.13998184 -0.3255099 0.08618916 -0.4378025 0.2461917 -0.28665185 0.48002556 -0.12116058 0.11023869 -0.20192258 0.4119976 -0.6452847 -0.083114296 -0.18378145 -0.39328286
alabama -0.3599157 -0.2362454 -0.15000033 -0.5753751 -0.74217373 -0.10775292 0.47603592 0.02959227 0.03774548 0.13623586 0.32126874 -0.6468149 -0.25175 0.07541767 1.1019554 -0.31547782 -0.50220346 -0.2337345 -0.59923583 0.35343647 -0.41386226 0.8125026 -0.21742795 -0.09845713 -0.22353138 -0.2961378 -0.40803596 -0.030500663 0.0009892852 -0.5796973
medical -0.32051957 0.2374946 -0.050261706 -0.5217867 -0.5156537 0.0130762085 0.118374825 -0.07779144 -0.21268992 0.1927237 0.1975783 -0.62355506 -0.63982725 0.1417623 0.9372246 0.100420415 -0.6071828 0.19242097 -0.6160724 0.52196103 0.09477367 0.6812535 -0.30901352 0.3014881 -0.23158543 -0.10547969 -0.5929213 -0.3652124 -0.4950736 -0.4633941
center -0.49258694 -0.23680376 -0.43233314 -0.29856184 -0.22119871 -0.1866427 0.42687607 0.0055035655 -0.09530101 0.15804216 0.19806518 -0.6840901 -0.7217248 0.06410656 1.1631843 -0.078847446 -0.58878696 0.15812978 -0.40724248 0.26072967 -0.53710663 0.3842103 -0.15974659 -0.06544398 -0.1905353 0.16704462 -0.5638419 -0.39945433 0.21273363 -0.20354608
tn__35233 -0.5146992 -0.17706324 -0.6218942 0.011507185 -0.5935797 -0.79331696 0.22841318 0.22218238 0.2939393 0.42476183 0.2766072 0.33076409 -0.6065887 0.6031098 -0.42326143 0.020923916 -0.2342076 -0.10532963 -0.6031818 0.28060874 -0.50137943 -0.1762151 0.120832436 0.020159857 -0.26433608 -0.5804982 -0.11222398 -0.4698189 -0.62593204 0.29852235
tn__35660 -0.42533594 -0.069136515 -0.760599 0.071476296 -0.5464105 -0.7586607 0.49573338 0.14128415 0.43936613 -0.02389497 0.18599138 0.44756407 -0.6396465 -0.10885123 -0.4292827 -0.024165485 -0.4789983 0.45893002 -0.50982124 0.005667755 -0.14148447 0.0048105503 -0.046760287 0.3985575 -0.19951291 -0.55609196 -0.0050300877 0.054634254 -0.09048953 -0.068270296
tt__callahan -0.03164514 -0.024421522 -0.0151416585 -0.51193786 -0.15929517 -0.4515375 0.65059614 0.27224806 0.08703287 0.50779134 0.32050058 -0.20321919 -0.42427778 0.30723724 0.74714434 0.53891945 0.020714873 -0.01797857 -0.0417908 0.55763495 -0.50426906 -0.12826167 -0.038372785 -0.06574175 -0.5903377 -0.05247193 -0.06934026 -0.6827747 -0.97600037 -0.18156643
eye 0.13260545 0.14581455 0.24685195 -0.19448765 -0.32181805 -0.5787713 0.09189308 0.22277473 0.33876833 0.18861777 0.32962775 -0.02080559 -0.3479206 0.4972831 1.1699827 0.07525842 -0.12050691 -0.30472362 -0.21243821 0.52580655 -0.4922249 -0.3565122 -0.23152055 -0.15498301 -0.28871563 -0.43202466 -0.5802585 -0.26891354 -0.96852124 -0.07313294
foundation -0.24914187 -0.32502478 0.048194375 -0.4112767 -0.008090084 -0.32706198 0.7222753 -0.20388253 0.38790324 0.49767783 0.56218237 -0.31892112 -0.622899 0.17658743 0.85275257 0.27899095 0.19398233 -0.13293429 -0.09260596 0.47636035 -0.41413143 -0.20193954 -0.065356225 -0.39818457 -0.55309916 -0.081639804 -0.20128314 -0.44551167 -0.93662405 0.084363826
tt__1720 -0.09263987 0.08252759 -0.4140074 -0.10925265 0.42904985 -0.64337826 0.11067059 -0.3731819 0.6483435 -0.23050039 -0.17085415 -0.08012309 -0.15037544 1.0101047 -0.2230049 -0.11818043 -0.28770655 -0.50892335 0.11176355 -0.069571875 -0.07813453 -0.10145277 -0.4856996 -0.5867981 -0.7506478 0.26160568 -0.0780344 -0.3768371 -0.6743062 -0.42814434
university 0.08910769 0.36576095 -0.46622977 -0.18276764 0.07212618 -1.0634302 0.00985954 -0.26932615 0.34234208 0.22054999 -0.058798518 -0.11844272 0.05003397 0.7985207 -0.04980155 -0.077805676 -0.23657371 -0.6417836 0.19389191 -0.21831293 -0.16425438 0.040257316 -0.4705943 -0.44580343 -0.47164452 0.38776127 -0.1950272 -0.049155947 -0.8308995 -0.21232058
blvd 0.111619696 -0.09817675 -0.58656114 -0.2577766 0.12544495 -0.79774064 -0.00017905637 -0.013263721 0.40628737 -0.06933232 -0.14196116 -0.06696237 0.06645079 0.65833145 -0.06196033 0.020924123 -0.4267411 -0.5982301 0.24107477 -0.37997034 -0.17968646 -0.34714115 -0.18121514 -0.6647192 -0.9104711 0.062098403 0.06196632 -0.2746167 -0.922079 -0.29283902
tt__1108 -0.24385577 0.33384717 -0.8331068 -0.2491662 -0.31971586 -0.27434927 -0.105143584 -0.061423656 0.12772673 -0.26079977 -0.25060025 -0.38048938 -0.25173005 0.56410235 0.027058512 -0.47289193 -0.7729712 -0.3270149 0.01540308 -0.2976591 -0.012214663 0.6577328 -0.75314844 -0.22117096 -0.4569145 0.45988035 -0.51088846 -0.27106366 -0.04733696 -0.6744068
ross -0.24368823 0.17234308 -0.7805002 -0.27418655 -0.37673977 -0.32095683 -0.030465517 -0.6351593 0.060371008 -0.100105695 -0.3362817 -0.6829282 -0.16505334 0.40972364 0.018710956 -0.44808635 -1.020197 -0.30053812 -0.21242385 -0.23749334 0.058057383 0.7546322 -0.1111918 -0.29065287 -0.6441885 0.4561109 -0.12012961 0.21746098 -0.24855986 -0.5758333
clark -0.18959941 -0.0032749926 -0.84264004 -0.28429446 -0.39345127 -0.59189993 -0.0331162 -0.12307516 0.046128154 -0.29845822 -0.07360397 -0.69887537 -0.056961525 0.5497331 0.2920443 -0.75514126 -0.50682044 -0.33134243 -0.288915 -0.6248945 0.06587981 0.6180629 -0.64806074 -0.37818694 -0.5666072 0.39061046 -0.15691237 0.0498817 -0.11967252 -0.41079026
circle -0.12867041 0.09488886 -0.9120173 -0.38069677 -0.22709352 -0.44757563 -0.011538208 -0.45322803 0.07134972 -0.23774555 -0.18919389 -0.46112147 -0.32525542 0.6718551 -0.13977113 -0.3005232 -0.72420347 -0.21830574 -0.11041147 -0.34746027 -0.11851151 0.5940861 -0.30964506 -0.34447274 -0.52592415 0.40802634 -0.59638214 -0.061310988 0.033519287 -0.74790937
tn__2053258100 -0.53099996 0.360538 -0.3334141 -0.3938763 -0.28343022 -0.0848162 0.38798648 -0.19003369 0.209909 0.67297643 0.22425999 0.28846526 -0.47948703 0.71321607 0.04320816 -0.15540314 -0.53880596 -0.61562705 0.14195746 0.2839005 -0.42310613 -0.6942843 -0.447094 -0.41620874 -0.06343192 -0.25308514 0.29250577 -0.15797274 -0.16938883 0.12018879
tt__1xx19 -0.6952615 -0.29808265 -0.9315885 -0.4869489 0.051790424 -0.38638043 0.11440802 0.20832837 0.16346227 0.02351587 0.068312146 0.48236454 0.1585515 -0.006278192 0.14616717 0.03057637 -0.46908787 0.43468213 -0.023281103 0.5255718 0.21822882 -0.46668163 -0.2253319 0.47796658 -0.4249956 -0.14631751 0.12694964 0.489457 -0.09994209 -0.2397553
tt__birmingham -0.65933317 0.14490426 -0.041647386 0.12165924 -0.050654296 -1.0027965 0.55707854 -0.31237942 -0.1601935 0.2543933 0.38285476 0.47214964 -0.11336715 0.4183971 0.084023185 0.060713958 -0.2726401 -0.49419007 0.22027627 0.65321887 0.17546189 -0.64918053 0.047431197 -0.5757258 -0.6125875 -0.27568263 -0.19525175 -0.18434939 -0.9089287 0.35297456
cid__CountyName -1.188453 0.05556927 -0.78317946 0.14542401 -0.26497158 -0.15065369 0.26145747 -0.42794645 -0.5987993 0.5268142 0.36672595 0.08866157 0.1456793 0.11936309 0.37401724 -0.29294595 0.007764123 -0.16956443 -0.36416325 -0.30054066 0.22655798 0.124563865 -0.17345686 -0.010234231 -0.06542507 -0.085925214 -0.35274997 0.18026058 -0.26966718 -0.6854986
cid__City -0.6146898 0.2775593 -0.10589691 0.042876646 0.11987104 -1.1550262 1.0629373 0.0023790502 -0.07365431 0.06310004 0.34093496 0.98030907 -0.047361966 0.43064076 0.40966058 -0.121268734 -0.46898952 -0.1303677 0.40824905 0.3446201 0.5486203 -0.44849527 0.22002038 -0.28836787 -0.5504224 -0.47877848 0.073576584 -0.013613261 -0.90681916 0.33531207
