182 30
tt__montgomery 0.046354998 -0.030590266 -0.022393383 -0.0071465555 -0.027983377 0.032913297 0.01311076 0.05383609 -0.024785176 0.026717989 -0.003777043 -0.02076763 0.0324297 -0.001368806 -0.05403906 0.0008315403 0.055537213 -0.055417173 -0.011278644 0.020206053 -0.042970546 0.020803554 0.06906405 -0.013732714 0.004850856 -0.003523481 -0.0026687935 -0.031043647 -0.02064284 -0.02931698
tt__fayette 0.045045994 -0.03356369 -0.04371511 -0.0069570434 -0.003484355 0.048237193 0.020667542 0.033994045 -0.02727788 -0.004633221 -0.013416657 -0.030701792 0.014324067 0.012246478 -0.04991941 0.031114113 0.0640989 -0.07002561 0.008088815 0.04590118 -0.03635595 0.054034177 0.07253633 -0.041100588 0.02585349 -0.0052571665 -0.0034070974 -0.036179475 -0.0086885365 -0.043611154
tt__jefferson 0.0064081326 -0.01516898 -0.014761979 0.010607868 -0.02189434 0.012113347 -0.0031279703 0.01995869 0.009092919 -0.0011977358 0.009679424 0.00024585947 7.036116e-05 0.008351703 -0.028563466 -0.00638853 0.038415536 -0.007634287 -0.01185542 0.009008987 -0.023098089 -0.0025882856 0.017711913 -0.015914088 -0.0015268617 -0.01982843 0.006555923 -0.021382224 0.0011604907 0.0041043083
tt__marion 0.03856874 -0.0036816893 -0.040170416 -0.0035270876 0.00075956155 0.015533571 0.0063825697 0.04702648 -0.008340958 -0.004233258 -0.016781855 -0.038529616 0.0025978144 0.023352789 -0.026408497 0.026652927 0.074713275 -0.053296894 0.0061492985 0.044083957 -0.05161157 0.04116994 0.056552164 -0.023553444 0.019151485 -0.0029134338 0.010285808 -0.03943605 0.017104058 -0.036533598
tt__cullman 0.043017205 -0.021840759 -0.037410527 0.0024703746 -0.03927822 0.046344504 0.012053455 0.035420194 -0.043968078 -0.0012868474 0.00021072745 -0.01720895 -0.00093136536 0.023363056 -0.07143737 0.028008554 0.08029248 -0.05382853 0.0054064053 0.05803181 -0.041914415 0.061040845 0.06328324 -0.038956635 0.029881602 -0.0056127403 0.017626079 -0.019822506 0.0069127157 -0.024612892
tt__helen_keller_memorial_hospital 0.019898392 -0.007090227 -0.0029614016 0.0043364535 0.00071343454 0.0017034714 0.016015647 0.018670939 0.0089149205 -0.0121842725 -0.0087413825 -0.015215749 -0.003625525 0.014233271 -0.031514816 0.020411143 0.017420745 -0.022954749 0.0031247523 0.029390614 -0.012726461 0.027742423 0.017699786 -0.008817541 -0.008206076 -0.004512237 0.0127970185 -0.015010699 0.010962175 -0.022819273
tt__1300_south_montgomery_avenue 0.017903509 -0.016528694 -0.0317289 -0.0022023146 0.00049428194 0.015002315 0.0035988723 0.028151246 -0.0006435468 -0.010124373 0.006036794 -0.025951777 0.004792708 -0.002027088 -0.038764328 0.0113022495 0.022946334 -0.020291805 -0.01730279 0.00459202 -0.028761543 0.019179503 0.030413251 -0.022509212 0.019758338 -0.018832304 -0.007550452 -0.012570135 0.001270203 -0.02107036
tt__sheffield 0.0201189 -0.019973064 -0.017611045 0.0026336529 -0.012260845 0.02137753 0.016245518 0.033358652 -0.023923747 0.007622094 -0.00085275184 -0.012962066 0.007632128 0.0057490813 -0.03136385 0.01680697 0.027485736 -0.029959459 -0.008934281 0.016138196 -0.018613711 0.014535385 0.008415551 -0.004373488 0.016574187 0.0055672247 -0.00021164231 -0.005764211 0.01751264 0.001240806
tt__35660 0.020430742 0.0049504098 -0.023285817 0.0042537847 0.0023549171 0.002575018 0.008220785 0.029820796 -0.0178389 0.021683823 -0.0076399026 0.0033606496 0.0036276872 0.0036427546 -0.037240498 -0.008248236 0.0411753 -0.024913384 -0.011887703 0.019736396 -0.015223585 0.005230307 0.027033927 -0.008714604 0.025272483 0.009892091 0.023534745 -0.00041713583 0.0061623077 -0.025702912
tt__2563864556 0.0037067118 -0.0061214836 0.00059915025 -0.0057244725 0.007036256 0.0084252525 0.01029748 0.016942628 -0.01867877 -0.007925443 0.0014882997 -0.00072084577 -0.010572599 -0.0057207546 -0.023170533 0.015087179 0.02631494 -0.006437536 -0.016287243 0.024665458 -0.029197315 -0.00553509 0.011341935 0.004326526 0.0010190979 0.0010359815 0.015130923 -0.011421628 0.0008214588 -0.00038958975
tt__marshall -0.006123188 -0.018317645 -0.001416683 -0.00080198416 -0.0015847813 0.0071602263 0.016776921 0.005323899 -0.011791854 -0.015506081 0.00083227747 -0.007878678 0.0025146035 0.01673566 -0.015206226 0.011207538 0.021204239 -0.011666889 -0.0045455815 0.0055855517 0.012437011 0.011845332 0.0009883329 -0.016300784 0.007112332 -0.01154785 0.008283058 -0.014734042 -0.009067523 -0.000176864
tt__10012 -0.000573192 -0.013122936 -0.01396847 0.007970233 -0.0074080722 0.013234311 -0.0045136777 -0.00018179556 -0.005629013 0.012400476 0.00045895218 -0.00211954 0.017615834 0.0008475629 -0.02203696 -0.0024850983 0.025587073 -0.019567745 0.01457306 0.019694565 0.0019217997 0.014413332 0.010629261 0.0076077417 0.009502998 0.0125251515 -0.0029728822 -0.003265873 0.015171022 -0.016079506
tt__dekalb_regional_medical_center 0.0026001262 -0.01994245 -0.011920456 0.009166653 -0.00504636 -0.007964361 -0.013190781 0.009080507 -0.0072552375 -0.008115826 -0.007836735 -0.019612968 0.00031858403 -0.0016945396 -0.016590077 -0.0122856805 0.022039097 -0.014112745 0.0066910507 0.008416879 -0.018068679 0.024400305 0.0059586894 -0.019935092 0.014963987 0.004827564 -0.012576719 -0.016751233 0.0049269637 -2.2751221e-05
tt__200_med_center_drive -0.00027773334 -0.018085858 -0.004769525 -0.011393437 -0.0070739565 0.023744028 0.011359443 0.0039318088 0.0029884377 0.0045411107 -0.013590182 -0.010651117 0.01854436 0.015371051 -0.020539755 0.006618091 0.013078104 -0.030729104 0.011530708 0.020477142 -0.030039817 0.029016705 0.013687624 0.006125933 -0.005241606 0.0031889363 0.014026207 -0.0017272294 -0.0022167824 -0.0026878705
tt__35968 -0.0036970957 0.0074138 0.006785306 0.006249707 -0.011988621 0.02210176 -0.0031157224 0.004015973 0.0035379287 0.010481589 -0.005888122 -0.021906788 -0.006371128 0.013099846 -0.01878993 0.0023060166 0.02914212 -0.013015403 0.010913738 -0.0031076022 -0.0038363317 0.0155448355 0.0016333637 0.00769114 0.0024106945 -0.0040755174 -0.009990601 0.0075368234 -0.0057586804 -0.012459856
tt__anchorage 0.03200323 -0.01652484 -0.010972862 -0.017231759 -0.017353619 0.03232058 0.013375747 0.04553212 -0.02036 0.02669093 0.012811296 -0.037846174 0.0011445978 0.0027450675 -0.05031292 0.029335974 0.06535202 -0.031034565 -0.0071500484 0.026392322 -0.04119503 0.020047303 0.05806331 -0.0031456174 0.0074248672 -0.0026040555 -0.0026735712 -0.01876933 0.006288336 -0.012082756
tt__10023 0.023611356 -0.02179439 0.004775915 -0.00041366584 -0.005239257 0.0057910024 0.017484162 0.002425032 -0.023172395 0.00032302627 0.015284735 0.003601689 0.018451747 0.015326194 -0.026402459 -0.010258105 0.03222888 -0.008938156 -0.003552052 0.009915242 -0.009219448 0.02159717 0.01704245 0.0003276633 0.003139355 -0.005861017 0.00076401647 -0.007086316 0.0054291813 -0.01537667
tt__baptist_medical_center_south 0.030267995 -0.01476933 -0.014457477 -0.014022676 -0.008236547 0.023263348 0.0012220528 0.01785792 -0.023901712 0.008538391 0.0072127483 0.0053077266 0.0026915495 0.023843147 -0.008637855 0.008652034 0.039128352 -0.027141172 -0.0007973577 0.025261272 -0.015243162 -0.002631165 0.018221997 0.0060539558 0.011329482 -0.0020162915 -0.0033050613 -0.02373104 -0.017829612 -0.028853191
tt__2105_east_south_boulevard 0.003798836 -0.00911281 -0.00825812 -0.0030818093 -0.004349126 0.009392543 -0.011288999 0.01765953 -0.006500191 0.006986725 0.014270121 -0.0016625 0.0121137025 0.004304841 -0.0080026155 0.020564584 0.029391143 -0.03729752 -0.018060487 0.030045036 -0.025088638 0.004172423 0.040680707 -0.010390471 0.015148839 0.013817881 0.023228336 -0.019153588 0.00312836 -0.0039438764
tt__36116 0.017674027 -0.011449061 -0.0011385896 0.0028715825 -0.004255575 0.026049001 -0.0019439358 0.017316587 -0.017363684 -4.8165857e-06 0.016300019 -0.011455214 0.017817145 0.024676686 -0.03416561 -0.009940115 0.04004909 -0.029048573 -0.022403305 0.012598072 -0.021115307 0.016594315 0.039369058 -0.025089815 -0.0031912911 0.0155042885 -0.0037262198 0.003632325 -0.015716888 -0.00662397
tt__10036 0.038837634 -0.0068917857 -0.014670496 0.012630951 -0.031944502 0.018292643 -0.002723912 0.0360662 -0.023022046 0.015454346 -0.008415262 -0.030846935 0.003975715 -0.0038035482 -0.030969515 0.015401118 0.04560533 -0.050799884 0.010950832 0.02693182 -0.042566888 0.016319407 0.03297828 -0.008173405 0.012305012 0.008771704 0.025846824 -0.027308526 -0.0026964117 -0.019499538
tt__andalusia_regional_hospital 0.028112112 -0.03502409 -0.034585148 -0.020999301 -0.025793778 0.031015376 0.005679163 0.059418794 -0.012483426 -0.0022009236 0.006493927 -0.047049817 0.0024742745 -0.00917095 -0.038203087 0.022163976 0.08465776 -0.04582912 0.008428189 0.026069453 -0.03951373 0.05383422 0.06048952 -0.014135207 0.034678444 0.010623982 0.008129373 -0.031642944 -0.010541193 -0.05184216
tt__849_south_three_notch_street 0.031183595 -0.024768911 -0.035792 -0.01390398 -0.04404016 0.028936798 0.0053140963 0.045977745 -0.015669612 0.0011319964 0.0051845885 -0.03823523 0.021970319 0.0012691049 -0.065028116 0.010019125 0.05805365 -0.03327812 0.0051224795 0.05506678 -0.04359585 0.04926197 0.06648963 -0.0059809675 0.012381084 -0.011546419 -0.0016843869 -0.023166351 -0.0071311304 -0.04724249
tt__andalusia 0.043155298 -0.008839558 -0.041810956 0.004820938 -0.033338293 0.024562612 0.0074793375 0.027922355 -0.0006280773 -0.0083960015 0.015730757 -0.03465618 0.020763984 -0.0105603365 -0.04170576 0.027603608 0.038924668 -0.035455942 -0.0033973802 0.044889707 -0.04717974 0.018991405 0.05024412 -0.0051679634 0.027323928 -0.008386498 0.015950281 -0.005550611 -0.009608682 -0.035327423
tt__covington 0.043797165 -0.035487704 -0.045288924 -0.017888274 -0.03073084 0.014100187 0.01738406 0.058113597 -0.005163454 0.015814537 -0.0056441296 -0.0428709 0.014617823 -0.0070870714 -0.05008407 0.008917753 0.060635556 -0.048224162 0.002432147 0.053928092 -0.059844177 0.046380576 0.07087335 -0.010428743 0.00804422 0.010656121 0.023725897 -0.016955182 -0.010960707 -0.034351673
tt__3342228466 0.0438957 -0.022331364 -0.037283894 0.0077397088 -0.032050263 0.03005262 0.008991816 0.032958616 -0.011686265 0.0033839084 0.00439456 -0.023921596 0.015906354 -0.0029173705 -0.05353888 0.014473049 0.05213137 -0.037995055 0.012329476 0.018370107 -0.027069716 0.04363145 0.03665364 -0.0062493603 0.018694839 -0.017342279 0.006091096 -0.013270034 0.01232167 -0.02577233
tt__fayette_medical_center 0.030189091 -0.036854856 -0.015832255 -0.0062203724 -0.027238058 0.04493178 0.010033169 0.015072891 -0.005249565 0.0025061287 -0.019537747 -0.029234607 0.01049178 -0.008548331 -0.024168337 0.0027570808 0.061576117 -0.05351759 0.009208533 0.034343902 -0.037881784 0.05449292 0.06614263 -0.029458184 0.032228928 -0.021380812 0.01062322 -0.031238357 0.0037782954 -0.030601962
tt__1653_temple_avenue_north 0.028118558 -0.0115968725 -0.010724746 -0.0017690476 -0.03367516 0.028791398 0.016200976 0.0523426 -0.019939927 0.020722235 -0.021282868 -0.02392395 0.022022149 0.0050475607 -0.059965722 0.003953539 0.08415223 -0.06573049 -0.00097167154 0.03590976 -0.032519374 0.059741024 0.08437082 -0.017012333 0.03295718 -0.021783944 0.027889479 -0.030677345 0.021989737 -0.048178885
tt__35555 0.040330976 -0.01672269 -0.02024625 0.015731705 -0.013881598 0.044070058 0.016391624 0.014227489 -0.010114317 0.0043805293 0.0071541746 -0.016941905 -0.004182436 0.021494882 -0.032013338 0.0004237215 0.07417184 -0.029693065 -0.0002990944 0.04554128 -0.04233376 0.037101362 0.07208554 -0.037172522 0.0126498975 -0.011175019 -0.0044043334 -0.009298447 -0.0025584071 -0.023393337
tt__10050 0.04170204 -0.01821101 -0.017207922 0.006714134 -0.03132273 0.032287408 0.011408677 0.040693536 -0.018958855 0.029011995 -0.0040849913 -0.012121854 0.031484786 0.022005443 -0.039877698 0.029490313 0.06494639 -0.009458104 -0.002945666 0.0262429 -0.04020475 0.032842975 0.034184024 -0.03917577 0.021475015 0.0038765639 0.0078065507 -0.018813293 -0.017163802 -0.027549017
tt__150_gilbreath_drive 0.04567012 -0.019187197 -0.040006656 -0.0149806915 -0.04730667 0.01846334 -0.0022019476 0.05170673 -0.030170461 0.033785563 -0.004043405 -0.03840396 0.0056699165 0.04158081 -0.06240349 0.039381295 0.112585455 -0.022118336 -0.019247996 0.04885288 -0.059091996 0.04761473 0.061676126 -0.044720177 0.03408373 -0.021330385 0.03987669 -0.05452275 -0.011932262 -0.050958637
tt__oneonta 0.023667289 -0.04047513 -0.028836546 -0.017797312 -0.014223736 0.01574038 -0.0036378806 0.05768235 -0.022251736 0.0023651193 -0.011859846 -0.009108228 0.01936603 0.015915977 -0.055171352 0.024233028 0.057241574 -0.0288948 -0.012930579 0.019675272 -0.046629243 0.057115644 0.068093225 -0.04039176 0.014506856 0.0077403835 0.023712922 -0.013135619 -0.013183179 -0.044750206
tt__35121 0.048579108 -0.043090627 -0.04044456 -0.018318348 -0.040981002 0.013242408 0.0259979 0.060488455 -0.005969365 0.037458953 0.009804332 -0.011364957 0.023856062 0.041930202 -0.05777281 0.0359849 0.10018274 -0.014019345 -0.015228676 0.033704646 -0.066668846 0.073198535 0.059208993 -0.033496037 0.030230954 0.007594021 0.029582173 -0.035041943 -0.00080182176 -0.054317452
tt__blount 0.05060599 -0.041830122 -0.045888104 -0.012711536 -0.026293337 0.03386415 0.017289864 0.04665349 -0.033378012 0.037497696 0.013386915 -0.022475006 0.022818228 0.039454915 -0.055631835 0.038125195 0.071055904 -0.0172233 -0.028057536 0.02497375 -0.05564926 0.06632562 0.064462565 -0.04839876 0.035937767 -0.017652174 0.024126666 -0.046131324 0.0039712638 -0.049710322
tt__2052743000 0.03807206 -0.040273722 -0.03521122 -0.0057330485 -0.03754159 0.008821479 0.025794111 0.033371396 -0.023215069 0.007558749 -0.015310157 -0.002248345 0.029926376 0.02274727 -0.05486526 0.017086288 0.085444406 -0.009182641 -0.0019729228 0.016844142 -0.049579702 0.059253387 0.057079386 -0.024094447 0.03608276 0.007115237 0.039607584 -0.024370495 0.0039939852 -0.035888605
tt__10019 0.008394661 0.0010079839 -0.005110714 0.005613034 0.0077988585 0.009514314 -0.00467852 0.024698196 0.005562633 0.0022631388 -0.01620623 -0.006126303 0.016085904 0.0074032606 -0.005443421 -0.009927288 0.042382553 -0.007499188 0.006801267 0.006409086 -0.030390626 0.0103001045 0.012818808 -0.023434015 0.017270705 -0.0010848051 0.014035858 -0.01410516 0.004376987 -0.011159909
tt__10005 -0.0065469844 -0.0104552945 -0.012665629 0.002479425 -0.009931866 -0.0011913821 0.008196675 0.0018917993 -0.0019077101 0.013092392 -0.011435533 -0.020326631 -0.0075165248 -0.014564787 -0.011042045 -0.0035835358 0.0013051147 -0.011389328 -0.016191933 -0.008429101 -0.0050784005 0.022133578 -0.0029237275 0.005387959 0.008831402 -0.009122453 -0.00086907163 -0.0023155382 -0.003781238 0.0070204283
tt__marshall_medical_center_south 0.018574817 -0.00844816 0.00728712 -0.004034617 -0.017156206 0.004038021 -0.0050430056 0.01745218 -0.018432548 0.016089087 0.008533102 -0.011890203 0.0041580168 -0.0049533052 -0.009516923 0.018080521 0.018711574 -0.0034598303 -0.0076522552 0.012655544 -0.009757573 0.00427961 -0.0065363254 -0.018709023 0.013911458 -0.0140563715 0.008909938 -0.017288528 0.0063577825 0.004121077
tt__2505_u_s_highway_431_north 0.004930913 -0.020118438 -0.017191684 0.0023720462 0.0006892241 0.020904154 -0.001685869 0.01614489 0.009304046 0.0019161418 -0.010058114 -0.009409072 0.017692868 0.00839396 -0.018404353 -0.010267606 0.011201784 0.0017334465 -0.016364142 0.022489697 -0.011956678 -0.0022311462 0.023474593 0.0072446405 0.018533316 -0.008949173 0.0037329877 -0.0066109593 -0.008731571 0.008000466
tt__boaz 0.018122938 -0.0032159952 -0.0039228178 0.012652455 -0.011089492 0.011046955 0.013182764 -0.006683454 -0.008457812 0.00455421 -0.0051688123 -0.02084522 -0.0023970758 -0.010719277 -0.007807992 0.0067706504 0.028964778 -0.01230101 0.014251194 0.022213483 -0.009189358 -0.0057950905 0.015961481 -0.0048362142 0.010178225 0.012625664 0.017894868 0.005923224 0.014950758 -0.00011004362
tt__35957 -0.00415443 -0.01806617 -0.014467528 -0.018177418 0.0012264422 0.006146601 0.013075003 0.010756205 0.011107133 0.012863837 -0.014444429 -0.0022461512 -0.013532584 0.017281283 -0.014490939 0.0008136106 0.017078092 -0.008016162 0.013729487 0.003810971 0.0093253525 0.017864127 0.02018236 -0.004904512 0.016867569 -0.012386518 -0.0043388535 -0.0112901665 -0.013397897 -0.0014260081
tt__fort_payne 0.010911747 -0.0068184887 -0.015849406 0.008407758 0.0063382145 0.018978147 -0.004708913 0.0034573264 -0.01770744 0.008614545 -0.0058815 -0.0013203186 0.0026380164 0.016911265 -0.018823331 0.007619177 0.030164355 -0.020715216 -0.0073104026 0.020910336 -0.015038822 -0.0030093226 0.012229329 -0.0013554501 0.005753375 -0.015751146 0.022709453 -0.022295166 0.0030824314 -0.024879454
tt__de_kalb -0.002425374 -0.008830604 -0.000807483 0.00557125 -0.005107838 0.01220617 0.012733605 0.0051009683 -0.0036087246 0.0007351638 0.008659258 -0.0007843849 0.01780805 0.00023654223 -0.02025594 -0.005686004 0.0024622465 -0.011853173 -0.001298188 0.019250067 -0.021094853 0.0027902375 0.016611919 -0.009609847 -0.0020428554 -0.0072234976 0.0074173464 0.0019031028 -0.012259731 -0.0018918411
tt__2568453150 0.009314277 -0.0008591026 -0.004624542 -0.018232329 -0.0075372714 0.012929388 -0.0124235 0.016139505 -0.015009353 -0.0070240297 -0.01635015 -0.006832892 -0.011082277 0.013137003 -0.0011994164 -0.0021287806 0.020324722 -0.0063351924 -0.0047659376 0.013860281 -0.0072855484 -6.824295e-05 0.021240622 0.0064541954 -0.0016359092 -0.016743794 0.012386792 -0.0063073174 0.005107943 -0.010203924
tt__10015 -0.0014725311 -0.017545592 0.00013786487 0.0056983377 -0.0012104015 -0.0054563517 -0.014855842 0.013113172 -0.013750623 -0.0009933112 0.0070906286 -0.012714277 0.017101668 0.00792118 -0.01716138 0.012148683 0.0038182477 -0.020751987 0.0077882595 -0.008512411 -0.014425144 0.002949368 0.007248133 0.00043408672 0.0017772596 -0.012600551 0.0008997031 -0.001722335 0.0069541964 -0.017724752
tt__southwest_alabama_medical_center -0.0011550472 -0.012033777 -0.008485339 -0.0003037495 -0.005970964 -0.007973395 0.014260713 0.024674082 0.002782662 0.002166505 0.006196619 -0.012902325 0.013451146 0.0023221406 -0.019425675 0.011446277 0.011984999 -0.023028279 -0.01880956 0.0168327 0.0032274418 0.023223886 0.023460886 0.0054323925 -0.01149588 0.0065169446 0.004295019 -0.02151711 0.014492713 -0.0031145927
tt__thomasville 0.026478264 -0.007736247 -0.024906266 -0.015336476 -0.012333464 -0.00710711 0.0077674356 0.022200145 0.005178936 0.01157998 0.009128531 -0.008520939 0.00555655 0.009435298 -0.019152222 0.008149546 0.019209646 -0.024250934 -0.01889602 0.022213032 0.00055242155 0.014524182 0.028732717 -0.014601126 -0.0047762385 0.004138896 0.014099767 -0.007669389 -0.004703308 -0.019379696
tt__36784 0.009851645 -0.000844063 -0.009414097 0.006282675 0.0038032967 0.009829691 0.0011618589 0.023593036 -0.0012446217 0.017829645 0.011035215 -0.020809988 0.005225749 0.015401509 -0.022222161 0.01642865 0.0047022477 -0.027170325 -0.009593372 -0.00044385542 -0.02744056 0.0045026722 0.030844236 -0.005575542 0.0170125 0.013056255 0.010840602 0.00035656145 0.0029656517 -0.006627115
tt__clarke 0.025102906 0.00010606386 -0.0023291877 0.0014287743 -0.022459231 0.021371357 0.014578485 0.010503876 0.010401869 0.016509192 0.01423646 0.0012156628 0.007843297 0.009278675 0.0036670167 0.021257756 0.010694025 0.0039789593 -0.004063392 0.012950251 0.0012696853 0.017300772 0.01839335 0.0069698193 0.012514608 -0.0023895728 0.006868708 -0.016804382 -0.0009794512 -0.0033408834
tt__10016 0.0040930444 -0.0013980952 -0.026336096 0.0051426813 -0.0032368726 -0.0031847288 0.014620739 0.027666012 -0.0012878592 0.00055650296 -0.01812504 -0.0058056302 -0.004041497 -0.0012648744 -0.027324924 0.008597129 0.026460199 -0.0038459145 -0.0021310053 0.01899989 -0.035634134 0.024870927 0.018399883 -0.017785575 -0.0078367 -0.011789599 -0.00064040715 -0.02674769 -0.0046576224 -0.02516666
tt__shelby_baptist_medical_center 0.020300345 0.0033735626 -0.025756413 -0.01601505 0.0004614591 0.0059176683 -0.00032948036 0.013028219 -0.0012127365 0.004406687 -0.016866518 -0.026483785 -0.011237748 0.021396765 -0.037117526 0.015763056 0.02441308 -0.035550576 -0.018829187 0.020310549 -0.03580003 0.015650041 0.02853435 -0.018772516 0.019471303 -0.0035094782 0.008107275 -0.02178356 -0.013065115 -0.022668036
tt__1000_first_street_north 0.02351817 -0.020490263 -0.015815519 0.007627323 -0.015053868 0.015172657 0.016191484 0.012989843 0.0017842429 -0.0046557123 0.00018970769 -0.002006242 -0.011011702 0.015315678 -0.021288171 0.004562347 0.04722713 -0.038143203 0.00850363 0.03186314 -0.03958587 0.012600884 0.014575419 -0.0008033942 0.024356442 -0.019620065 -0.007214687 -0.007048419 0.0060408404 -0.014149491
tt__alabaster 0.019443436 -0.02399897 0.000758855 -0.0036154052 0.00795626 -0.004256932 -0.0053500733 0.036122482 -0.0020496624 -0.0061661545 -0.015195977 -0.009098238 -0.010883463 0.00060602295 -0.025612153 0.0029787105 0.042348802 -0.03544449 -0.02062316 0.028357444 -0.025832528 0.026657451 0.02595937 0.003650413 0.013115785 -0.0045937086 -0.003046204 0.00034380693 0.016023112 -0.01192725
tt__35007 -0.0012105416 -0.0034062488 -0.012917672 0.013003151 -0.019242432 0.013972659 -0.0019448065 0.031098427 0.008657714 -0.0027641617 -0.009774062 -0.01563139 0.017103259 -0.008025452 -0.0067741424 0.010159952 0.04276732 -0.036283746 0.0023315519 0.022985976 -0.034745775 0.014803236 0.01415659 -0.014830687 0.004636892 0.00016675892 0.014295568 -0.0071300254 0.0051340163 -0.026746972
tt__shelby 0.027351556 -0.024215661 -0.0027253672 -0.008175957 -0.010067651 0.01658543 0.002243859 0.030465905 -0.007349516 0.0061294986 -0.009081818 0.0039012153 -0.003235135 -0.0025316793 -0.0046493555 -0.0025635876 0.031298086 -0.02836941 -0.017327426 0.026101535 -0.018069297 0.023532419 0.020037644 -0.025218042 -0.0025895543 0.0067136073 0.0063907388 0.003521263 0.012139832 -0.021013359
tt__2056208100 0.011637622 -0.0026827247 0.00039142638 0.0018076849 -0.01782354 0.0014043452 0.015720826 0.02277243 0.008958249 -0.0016475872 0.0004777233 0.00091866404 -0.009407883 0.004155176 -0.007884378 0.017685084 0.022780638 -0.009253579 -0.015988376 0.011739911 0.0025768392 0.02238478 0.017327147 0.0037197834 1.9914049e-05 0.011796782 -0.00863508 -0.017804343 0.014749793 -0.00496539
tt__10038 0.020076608 -0.029468106 -0.025694918 0.006401388 -0.022851544 0.02501038 0.006852545 0.023302646 -0.0005881272 -0.010437946 -0.0028711108 -0.025550712 0.021481272 0.023068534 -0.008824544 0.008663512 0.032035932 -0.015458668 -0.01804513 0.026174603 -0.04176249 0.032161705 0.021153593 -0.00903067 -0.002483329 0.0015312089 0.0014202496 -0.018220467 0.0045911404 -0.019954588
tt__stringfellow_memorial_hospital 0.042968333 -0.0021459316 -0.010169342 -0.015087229 -0.028395971 0.031927325 0.024489904 0.03517747 -0.035736218 0.008315757 0.007052827 -0.024120744 0.0024797826 0.004918493 -0.030917164 -0.004587321 0.0572721 -0.047163576 0.00037583665 0.028425222 -0.05109375 0.03824142 0.057521965 -0.01653187 0.0146681275 -0.024318943 -0.004960266 -0.021612369 -0.0043888628 -0.021080287
tt__36201 0.040087048 -0.021902816 -0.030028857 0.0076831826 -0.0110499635 0.017611671 0.010565552 0.029825278 -0.016833132 -0.004821706 -0.014363241 -0.021025807 -0.00091467437 0.0294769 -0.029166572 0.015213247 0.08588401 -0.056196988 -0.011114087 0.05182683 -0.04860031 0.025530193 0.05280254 -0.03925 0.012931086 -0.017961876 -0.0020632877 -0.03810584 -0.013522279 -0.044877473
tt__calhoun 0.022392107 -0.01799333 -0.031868022 -0.015391768 -0.0063403663 0.004955165 0.00039647924 0.01101405 -0.016583126 0.0048646117 -0.0037816886 -0.036366627 -0.006966662 0.00406615 -0.021897594 -0.005011824 0.053061955 -0.022309177 0.010614875 0.015277682 -0.050283786 0.035679273 0.03511949 -0.02110151 -0.0035679815 -0.0029458548 -0.0035990975 -0.02874669 0.006029691 -0.018204615
tt__2562358900 0.01077203 -0.030711189 -0.030390058 -0.019359717 -0.022003429 0.012022382 0.020489914 0.044853795 -0.023408761 -0.0074733095 -0.005522911 -0.027500072 0.0061481236 0.011648789 -0.042159803 0.021680022 0.05251151 -0.036176547 0.011099391 0.021851541 -0.046021525 0.023061147 0.028977651 -0.03496983 0.017004881 -0.020434335 0.013790037 -0.035814073 0.0017492392 -0.030563967
tt__10086 0.015452564 0.010000604 -0.010946509 -0.013027378 0.006676658 0.01953585 -0.010177621 -0.00037701547 -0.022645786 0.014776282 0.010677524 -0.0024420922 0.010101834 0.0054243417 -0.0031801313 0.0014431203 0.010439643 -0.019729117 0.009922466 0.02311358 -0.0067918883 -0.0023350762 0.028342657 0.007256264 0.021524116 -0.005581165 0.0056969966 -0.0033519224 0.017808236 -0.004992554
tt__northwest_medical_center 0.026986938 -0.0039371774 -0.024070524 -0.01600201 -0.0032189838 0.023211243 0.012855182 0.03416835 -0.007523367 0.007390312 -0.01693708 -0.020640662 0.023023374 0.020897673 -0.028165888 0.016575592 0.035744004 -0.022818664 0.012236164 0.030597093 -0.019851169 0.025845975 0.026766034 -0.019046374 0.0045216796 -0.00039375777 -0.005885366 0.0012325031 0.017956464 -0.019387845
tt__winfield 0.012642474 -0.0085154185 -0.017598493 0.011844949 -0.026117684 0.014093944 -0.010289778 0.00773395 -0.015604331 0.019288309 -0.00012555002 -0.0041056834 0.009346088 0.011606346 -0.02936756 0.027829198 0.04856834 -0.0303808 -0.009554964 0.015276703 -0.03040416 0.016685247 0.03597683 -0.0010704313 0.024839647 -0.008596742 0.001712886 -0.020506555 -0.011478177 -0.024158778
tt__35594 0.031235369 0.00538491 -0.017474703 -0.011277376 0.0023805734 0.02282374 -0.009606507 0.017720168 -0.02667583 0.013886742 0.0047018128 -0.015691917 -0.0024176878 -0.009230558 -0.026728176 0.025184792 0.033750888 -0.014688486 -0.0049676043 0.033592917 -0.023941796 0.034198705 0.022586154 -0.013187162 0.021955738 -0.009111947 0.015215226 -0.025903592 -0.004952073 -0.010695797
tt__2054877736 0.020837417 0.0021074747 -0.0191399 0.005817027 0.005279669 0.0079100635 0.016477868 0.02379731 -0.02418583 -0.0014068765 -0.01299451 0.005120645 -0.0035969194 0.0031635712 -0.011367919 -0.003273591 0.036345158 -0.013575786 -0.016173905 0.026275367 -0.031738278 0.022314547 0.016430553 -0.0062729395 0.004770139 0.0021953392 -0.002997464 -0.018821178 0.017367512 0.0016252303
tt__3342882100 0.021740125 -0.012285678 -0.019673428 0.005995485 0.003446084 0.02887054 0.013475637 0.017902799 0.0060492638 0.019898558 -0.004363116 -0.022934424 0.020046039 0.0135189565 -0.0027767022 -0.007478631 0.036435716 -0.028422855 -0.022997294 0.020032488 -0.014387347 0.0008840373 0.02087277 -0.018325208 0.006367962 -0.010174046 0.02122886 0.005526212 -0.00963246 -0.02849606
tt__10032 0.02651437 -0.026036773 -0.010937015 0.0050278166 -0.00400929 0.021149032 0.009391941 0.038187556 -0.0062397197 0.008019923 -0.007700572 -0.008568263 0.019990088 0.024171315 -0.019258263 -0.0034061768 0.066799626 -0.028830297 -0.0009937984 0.035789836 -0.04615731 0.036640465 0.033059753 -0.015524663 0.024346968 -0.024636192 0.00507415 -0.026083684 -0.005667252 -0.016283186
tt__wedowee_hospital 0.021771785 -0.00049759436 -0.017900651 -0.0053845174 -0.005639807 0.019716641 0.011063772 0.01258032 -0.016441867 -0.00013532865 -0.020184781 0.0009706828 0.021551503 -0.0010651597 -0.030025428 0.004120284 0.051516086 -0.022577362 -0.020905655 0.00958714 -0.04015623 0.01733797 0.04985463 -0.024725463 0.002736266 -0.0093358 0.0020255414 -0.030825995 0.010638713 -0.029671993
tt__209_north_main_street 0.025280125 0.002572515 -0.038923033 -0.021751463 0.0032572164 0.034767766 -0.0051423702 0.043777414 -0.011274014 -0.0017611928 -0.019152515 -0.023791814 0.023000002 0.002764809 -0.030354366 0.007885972 0.0479407 -0.027744845 0.005483457 0.026207102 -0.030249244 0.02186909 0.043249063 0.0003436306 0.032834616 -0.014249881 0.022162039 -0.04022923 0.004343471 -0.023961047
tt__wedowee 0.01646284 -0.016640818 -0.03213295 0.0076443483 -0.015030136 0.013372946 -0.007133064 0.039647773 -0.031914964 0.016520435 -0.020419227 -0.006045211 0.014838337 0.018478999 -0.04626901 0.029071288 0.083990455 -0.026285388 -0.011603082 0.024919124 -0.03665166 0.049488287 0.037658826 -0.0022202034 0.027786834 -0.012713187 0.029501129 -0.024324875 -0.0031461255 -0.03028658
tt__36278 0.0218182 -0.017405022 -0.023656452 -0.021898456 -0.0017294051 0.0074833715 0.0247128 0.029564546 -0.017812211 -0.0082765985 -0.011820672 -0.014643246 0.023756236 0.0011914397 -0.036519207 0.019573485 0.044142745 -0.025337338 -0.002719704 0.027501874 -0.022158373 0.036812685 0.047151484 -0.0070097046 0.022743437 0.0076512345 0.01578802 -0.016019559 0.0013915193 -0.0334064
tt__randolph 0.01198372 -0.02842772 -0.0075960094 -0.016484903 -0.0028867167 0.005238839 0.014637999 0.01850764 -0.011976875 -0.0025979804 -0.011502695 -0.028276682 0.0063786805 0.020470146 -0.0347229 0.010305819 0.06821059 -0.042452004 0.006378303 0.010200425 -0.038263764 0.04728461 0.046633262 -0.019572018 0.0071179285 -0.02639886 0.023596624 -0.008610472 -0.013196327 -0.022668121
tt__2563572111 0.013788125 -0.007979219 -0.007963071 -0.021770004 -0.003961362 0.019139137 0.017125977 0.04229728 -0.007846822 -0.010082599 -0.023956703 0.0010034129 0.0010858186 0.024185983 -0.023754755 0.030296322 0.06241922 -0.045964018 -0.014124121 0.026942302 -0.051369376 0.040830553 0.03216758 -0.0012496198 0.012699411 -0.010845904 0.02951643 -0.033787098 -0.015481047 -0.042645343
tt__36420 0.01867041 -0.029020077 -0.045497045 -0.0090877935 -0.040790487 0.013164925 -0.005643722 0.03805255 -0.02645139 -0.00948203 0.003305452 -0.040786088 0.023273148 -0.0061685042 -0.05923151 0.011715669 0.057489786 -0.02292241 -0.015469534 0.048325226 -0.04776208 0.018524503 0.055189207 -0.009993347 -0.0010097853 -0.014283902 -0.005970905 -0.039003257 0.0147881005 -0.018931696
tt__10039 0.012107844 -0.011918195 -0.022284467 -0.005219761 -0.01868198 0.010735955 -0.0006341792 0.034403168 -0.031947833 0.015044606 0.004952029 -0.0075653894 0.0018396495 -0.01472025 -0.018873787 0.0020917177 0.07839261 -0.039531764 -0.01650582 0.035913993 -0.042998854 0.047479924 0.04221398 -0.035267793 0.01975857 -0.008970708 0.030046454 -0.038061306 -0.013878653 -0.024746517
tt__huntsville_hospital 0.02107937 -0.040434685 -0.032182198 -0.022485979 -0.01448921 0.010921344 -0.00070128485 0.05033438 -0.024828123 0.016303675 0.017918918 -0.020017825 0.030047609 -0.010352891 -0.054828357 0.03214086 0.09939586 -0.049895257 -0.014901654 0.034185484 -0.050210178 0.048250895 0.055327825 -0.04556559 0.01623862 -0.027996406 0.018100003 -0.030171756 0.00048425642 -0.020208286
tt__101_sivley_rd 0.032684837 -0.03634287 -0.04791863 0.0014940773 -0.007972556 0.038437657 0.015816778 0.04116127 -0.027331088 0.015874105 0.0018649782 -0.04150329 0.030271092 -0.007893207 -0.043410506 0.013242077 0.10541503 -0.0677613 -0.02533185 0.039584726 -0.034468513 0.056913145 0.046397857 -0.043441873 0.0117531 -0.01611526 0.031926405 -0.04517577 0.0067425026 -0.02514593
tt__huntsville 0.04399095 -0.032617003 -0.020828653 -0.02720338 -0.02292263 0.02988481 0.011747932 0.063563034 -0.02784361 0.033355013 0.018644772 -0.027051438 0.008568442 -0.001082015 -0.061260384 0.018294306 0.110047184 -0.051157963 -0.010770039 0.022831129 -0.05647255 0.07090282 0.06536781 -0.029351592 0.007995864 -0.019613635 0.023736494 -0.04630635 0.008206741 -0.050229535
tt__35801 0.052748553 -0.039774463 -0.022819566 -0.013426723 -0.016925355 0.04697431 -0.0016579406 0.06200594 -0.042332895 0.02858996 -0.011298743 -0.04081162 0.036546316 -0.0134843355 -0.06058562 0.026267802 0.10322948 -0.056034338 0.00020655504 0.055394094 -0.039738838 0.07016875 0.07422715 -0.041471045 0.006160021 -0.013324168 0.0053110314 -0.0362043 0.0018336023 -0.048293255
tt__madison 0.037595794 -0.034488045 -0.041485704 -0.0006709676 -0.022916658 0.026005771 0.026223237 0.046646398 -0.04480773 0.01981972 0.0070342217 -0.033264697 0.033464234 -0.012166702 -0.042667337 0.023733065 0.08838071 -0.06072036 -0.017667517 0.039738756 -0.040059675 0.05539628 0.05581202 -0.041954976 0.02783836 -0.013902992 0.028881408 -0.044008676 0.014469546 -0.046175756
tt__2562651000 0.01915175 -0.025543824 -0.027811494 -0.003088735 0.004518332 0.020993108 0.024236964 0.02234751 -0.023775155 0.017010313 0.01815321 -0.029488217 0.0009419625 -0.008225489 -0.036620643 -0.00035473582 0.08175456 -0.05551465 -0.016710287 0.014650392 -0.023711415 0.042360336 0.057657797 -0.029363494 -0.0041063894 -0.000706652 0.030339535 -0.02992571 0.013771709 -0.030862518
tt__10045 0.017903214 -0.030067345 -0.0365621 0.00599515 -0.0068732365 0.03844914 0.019578416 0.045709886 -0.019723393 -0.0015320485 -0.01959616 -0.023254871 -0.006044461 0.00039404456 -0.04089222 0.012876192 0.044712033 -0.058166414 -0.0018438634 0.021633323 -0.048214126 0.0520795 0.06734765 -0.026723372 0.008323094 0.006023379 0.0084518 -0.013775557 0.009126093 -0.013653316
tt__2059325966 0.032209028 -0.0296553 -0.009859687 0.015220989 -0.024955466 0.033733595 -0.002943211 0.0038623654 -0.009323284 0.015663235 -0.016296053 -0.023345169 0.007442796 0.0033810425 -0.032176003 0.016198019 0.04806835 -0.041938152 -0.016448313 0.03155129 -0.0293616 0.016314372 0.047546834 -0.007525295 0.0034338287 -0.006493352 -0.008978402 -0.02484547 0.018422443 -0.011787883
tt__st_vincents_blount 0.047130674 -0.02087696 -0.029079247 0.00096686085 -0.030065008 0.038318384 0.024154725 0.050599493 -0.0138795 0.01925768 0.008411283 -0.011751517 0.008821128 0.033050705 -0.040760197 0.0425389 0.0979226 -0.024479244 -0.014173051 0.0488526 -0.041495416 0.06867148 0.049474094 -0.04759092 0.018475475 0.003223566 0.043465097 -0.043952137 -0.018005118 -0.055820286
tt__birmingham 0.012704316 0.007024613 4.1150342e-05 -0.006223545 0.007063534 0.008225007 0.00033297308 0.022127153 -0.022577947 0.008943239 -0.0007935999 -0.007432982 0.012016504 0.021835716 -0.031618934 0.016196046 0.042076405 -0.016039584 -0.001985949 0.0270055 -0.033590827 0.01184435 0.033444446 -0.0015782596 0.017550988 0.00022266674 -0.004525338 -0.007303067 -0.003896257 -0.020341309
tt__dothan 0.01347375 0.001940032 -0.0057344786 -0.004530018 -0.010261053 0.006574643 0.0050665727 0.006190739 -0.01455695 -0.0049615223 -0.01638207 -0.008834422 0.008330356 0.00318934 -0.013003394 0.012058983 0.029891308 -0.005141247 -0.01417614 0.021130519 -0.027070738 0.012326705 0.017885284 0.0005483979 0.011870491 -0.011077723 -0.0035914322 0.008511812 -0.0055754487 -0.019680046
tt__houston 0.0016060207 -0.0131245125 -0.017439777 0.013613683 -0.0035266723 0.0140475985 -0.0094631035 0.01826566 -0.017593585 -0.0013314361 -0.0074306857 -0.017924357 0.0002541382 0.0144066 0.0020223304 0.01497821 0.012814112 -0.019371932 0.009924208 0.00731784 -0.008969043 -0.0048445673 0.0037329912 -0.015391488 -0.0038485548 0.002947542 -0.008259738 0.012749215 0.00074440794 -0.018611534
tt__33700_highway_43 -0.0061154617 0.0035399492 -0.016484018 -0.016937213 0.004529671 0.006694244 0.0014026696 0.01850785 0.010116182 0.001209418 0.012061111 0.00728767 2.4552632e-05 6.783215e-06 0.004203696 -0.006489555 0.012740436 0.0036721418 -0.006552554 0.0042936495 -0.017115146 0.014052167 0.0014959024 -0.008852942 0.016630458 -0.008193713 0.009049461 -0.0176139 0.0041968348 -0.009301742
tt__3346366221 0.016190818 0.0027203187 -0.0062626614 -0.015574098 -0.012901607 0.0020904348 0.01749342 0.004081964 -0.0017051162 -0.009291055 -0.0011455182 -0.020480415 -0.0060313283 0.007154904 -0.014128774 0.006802386 0.027042529 -0.0049333773 0.010215411 0.0008054766 -0.010109531 0.00012021986 0.025930727 0.011516918 0.019331308 -0.01114018 -0.007289428 -0.015452007 0.010214882 -0.014061384
tt__anniston 0.02836998 -0.0010761835 -0.032791488 0.0071853464 -0.016833175 0.014307083 -0.0067859893 0.029646883 -0.01348061 0.006861078 -0.012077705 -0.022476636 -0.010098835 0.010418988 -0.030654153 0.00909361 0.05894002 -0.042107545 0.0007679622 0.020427331 -0.014263739 0.017369341 0.040834982 -0.031171571 0.004489545 0.002824988 0.0071763205 -0.014880704 -0.015868617 -0.026523557
tt__301_east_18th_st 0.016879538 -0.027777597 -0.008922547 -0.0022409211 -0.02848171 0.0047393604 -0.003853516 0.015850415 -0.032912098 0.012359867 -0.011895632 -0.03653118 0.016687555 0.0278855 -0.036192097 0.028306529 0.048491355 -0.05292788 0.007381599 0.015555092 -0.05117288 0.026946327 0.04162652 -0.016697844 0.012331847 0.0026457466 0.0054509817 -0.033888023 -0.014283962 -0.033395313
tt__1530_u_s_highway_43 0.023442842 -0.011011401 -0.014087228 -0.011639569 -0.017578734 0.018383937 0.015569005 0.0095421355 0.00016389105 0.00824802 -0.0084489975 0.00459558 0.016510785 0.011483746 -0.0063385465 0.016302299 0.038390692 -0.0036288302 0.001913945 0.0024057848 -0.019890023 0.004386522 0.039692435 0.0014929825 0.02353253 0.0094292965 0.016728234 -0.014796006 0.008003046 -0.021428006
tt__20017 0.027617397 0.0017329471 -0.014243827 -0.007161952 -0.022368183 0.004058935 -0.011947165 0.015880901 -0.014953045 0.016905088 -0.01663843 -0.0065064617 0.0052390066 -0.006124713 -0.030506855 0.0020643687 0.03455638 -0.009406225 -0.014877203 0.02409732 -0.0102321645 0.027719619 0.018361235 -0.0058346796 -0.004138222 -0.01045529 0.007937283 0.005472554 -0.009753537 0.0027395962
tt__alaska_regional_hospital 0.013464756 -0.007938503 -0.016119242 -0.020293545 -0.0035245337 0.025689498 0.016193978 0.015013908 -0.0038016324 -0.006081913 -0.0007814533 -0.011964986 0.009796386 -0.0023801166 -0.028894266 -7.1129514e-05 0.05254383 -0.02747788 -0.007779531 0.009355066 -0.0093936045 0.004707965 0.022262655 -0.00993071 0.010471598 -0.0046248217 0.012626843 -0.0032410861 0.0034313893 -0.018106693
tt__2801_debarr_road 0.032312218 0.0060692765 -0.026308535 0.010611672 -0.018111365 0.015839042 0.0106149595 0.018162673 -0.0024773292 0.010134438 -0.005296921 -0.019940462 0.01472821 0.0070562097 -0.025742631 -0.0040494846 0.04373549 -0.0080277715 -0.0063192844 0.011674866 -0.0048116967 0.035619806 0.016696414 -0.003198075 0.0077657043 -0.012191534 -0.0026037837 -0.025249116 -0.01066707 -0.0017032642
tt__99508 0.03196333 0.005499593 -0.0054930146 0.002944334 -0.029054642 0.008642602 0.02042689 0.016868845 -0.023242053 -0.004516587 -0.014611508 -0.022102382 0.013397125 0.0002614764 -0.041420754 -0.0014691121 0.062163483 -0.009384135 0.00331458 0.016410299 -0.042826705 0.033826694 0.02629349 0.004342442 0.029757239 -0.0034658387 0.013453624 -0.013272396 0.012694905 -0.022671474
tt__9072761131 0.02930595 -0.0036430638 -0.011697201 0.0034422567 -0.016569922 0.009953712 -0.0031021175 0.012911482 -0.011067739 -0.0069315787 -0.012333017 -0.0129567 0.0019087531 -0.013985854 -0.00872963 0.017141959 0.021003159 -0.012304208 -0.013843918 0.012596238 -0.011205908 0.014601119 0.018939927 0.00983197 0.01671762 -0.0076599205 0.0065414007 0.004190642 -0.014349956 0.0049237786
tt__10025 0.033104118 -0.007376276 -0.019451136 -0.016025743 -0.003113844 0.0275451 0.00901816 0.027533092 -0.0014379605 0.012340211 -0.0014427467 -0.024424402 0.024697343 -0.0016462959 -0.020431947 0.012421802 0.023852527 -0.04332544 -0.010208152 0.011008046 -0.012645914 0.011263467 0.03331353 -0.013972145 0.007149134 -0.006565333 0.0033440427 -0.014852011 0.01740808 -0.035957076
tt__g_h_lanier_memorial_hospital 0.032813903 -0.031037541 -0.032930642 -0.017508904 -0.013870575 0.026905138 0.0033060142 0.01835298 -0.023488725 0.008913009 0.01388758 -0.004078672 0.0003327513 0.003967814 -0.043384418 0.014037471 0.04705191 -0.050190434 -0.018693054 0.016454624 -0.021862824 0.022999302 0.048723068 -0.02491476 0.008990781 -0.013934543 0.003930647 -0.010205121 -0.009505988 -0.013244368
tt__4800_48th_st 0.041280676 -0.011994956 -0.035169054 -0.020794641 -0.008201762 0.037916258 0.011679932 0.04267439 -0.01391046 0.009367469 -0.015037675 -0.013045952 3.563502e-05 0.018381517 -0.048612952 0.009973332 0.054439157 -0.055085436 0.0078937765 0.050334435 -0.027195029 0.024818297 0.035841312 -0.03029369 0.024668023 -0.0005589131 -0.007566946 -0.03753164 0.002130225 -0.018841289
tt__valley 0.05050581 -0.008704575 -0.02876369 -0.0004886361 -0.016901774 0.012219988 0.0032384028 0.045399338 -0.030383931 0.0016126777 -0.015631849 -0.031189412 0.03290234 0.013413102 -0.050982926 0.0012021601 0.05498485 -0.048702855 -0.018035486 0.046292562 -0.037764754 0.044391345 0.06857421 -0.040368833 0.008269223 -0.021832576 0.0030959079 -0.038764287 -0.0056461673 -0.036749784
tt__36854 0.025443777 -0.01920664 -0.015956327 -0.03016818 -0.011281335 0.029489005 0.015029417 0.036582064 -0.019273093 -0.0010530874 -0.0074319807 -0.016249314 0.013319941 0.013612372 -0.065443516 0.0015309532 0.05927371 -0.057422392 -0.022534328 0.05559502 -0.025158167 0.042758547 0.039659593 -0.045519274 0.028333254 -0.01123712 0.0074779456 -0.019463215 0.009860308 -0.045034178
tt__chambers 0.009708521 -0.020174328 -0.037320413 -0.021140922 0.001919481 0.024752298 0.011725942 0.024018992 -0.017972464 -0.0014314702 0.0060685226 -0.015477818 0.02569881 0.0087734405 -0.044066444 0.027011823 0.048755616 -0.04243792 0.011598481 0.03623804 -0.029850032 0.02579122 0.019373711 -0.012100219 0.002543153 -0.017509986 -0.007072143 -0.03444867 0.009109753 -0.018322956
tt__3347561400 0.029921586 -0.024775043 -0.032568697 -0.023030497 -0.00819212 0.03498681 -0.004992536 0.011331341 -0.020846045 -0.007410518 -0.005992686 -0.020175528 0.028363852 0.010282485 -0.03411915 0.0059673553 0.029327037 -0.041736577 0.010111274 0.038893946 -0.023993554 0.026589045 0.035424612 -0.031402066 0.0001587825 -0.025321774 -0.0030319733 -0.03799751 0.0026105274 -0.026118873
tt__coffee 0.022939567 -0.018431906 0.0010499348 -0.0031778163 -0.013498934 0.021263512 -0.0016369667 0.013574129 -0.0043919566 -0.008629242 0.0185685 0.0012760663 -0.011164868 0.009438397 -0.026199372 0.010633254 0.021439517 -0.017213343 0.0054523614 0.018956268 -0.030800568 0.03394879 0.038655348 0.0038156975 0.016160766 0.0010326293 0.020892669 -0.021026561 -0.015969701 -0.022052906
tt__east_alabama_medical_center_and_snf 0.021173296 -0.010174214 -0.019500654 -0.02539142 -0.022560991 0.024200205 0.020802533 0.028669443 -0.012578318 0.016676279 0.0005891525 -0.022694658 0.009834065 0.019992085 -0.0434841 0.00876782 0.050796065 -0.03680567 -0.0013959506 0.030157927 -0.033772603 0.022864165 0.047258858 -0.02600614 0.023261538 -2.7531205e-06 -0.0033211857 -0.012232161 -0.01611645 -0.03330393
tt__2000_pepperell_parkway 0.041093145 -0.02566228 -0.011987628 -0.018509272 -0.021740206 0.0285968 0.008962643 0.03700031 -0.03281722 0.011367469 -0.0021111616 -0.0143037215 0.0011528408 0.0022913802 -0.06198126 0.0044484152 0.06317987 -0.05585733 -0.0056109144 0.04217502 -0.052903287 0.031465333 0.06378683 -0.026699245 0.022556758 -0.019313673 -0.0017843882 -0.026560185 0.00986452 -0.049685333
tt__opelika 0.02832548 -0.022912089 -0.039918244 0.00080434827 -0.00949338 0.015446545 0.0110896295 0.04224523 -0.030798715 0.009792752 -0.02059166 -0.0046883333 0.0033560968 -0.0018019215 -0.029316474 -0.0044263205 0.07180921 -0.056767434 -0.0026066045 0.04175568 -0.027180633 0.02717385 0.05341493 -0.01853908 0.005317166 0.0060387608 0.018722245 -0.03433063 0.007462459 -0.025672121
tt__36801 0.014964225 -0.0007945031 -0.012312056 -0.009591808 -0.0315178 0.013974331 0.019033067 0.038247745 -0.015167285 0.019595621 -0.0051198187 -0.022573844 0.0038211015 0.008753131 -0.04889999 0.004699316 0.06551486 -0.029541189 -0.009606919 0.025601376 -0.0290794 0.03672193 0.050955184 -0.022082776 0.02991749 -0.023647986 0.013137111 -0.031612303 -0.0053864755 -0.030543217
tt__lee 0.034605145 -0.0027478863 -0.016449783 -0.003999117 -0.01885506 0.009819012 0.013676903 0.043073606 -0.023101354 -0.0025727344 -0.0048410473 -0.003225933 0.0009846753 0.00016565192 -0.053460453 0.0017133771 0.055981077 -0.050247587 0.005396386 0.03870211 -0.043997828 0.029476473 0.05018146 -0.018011434 0.03238218 -0.005380344 -0.0073146913 -0.010042121 0.0035841768 -0.042019855
tt__3347493411 0.02179789 -0.006571543 -0.023836115 -0.0020523898 -0.0060253744 0.009717755 -0.0029599445 0.020915955 -0.03064103 -0.00016543752 -0.007064539 -0.013641878 -0.0035392025 -0.007197738 -0.029757662 -0.0037806372 0.05444056 -0.03312041 -0.0040765298 0.03156717 -0.016492378 0.03891283 0.0447338 -0.029361624 0.002019076 -0.02124982 -0.0002931704 -0.014487958 0.0132725015 -0.028203351
tt__10035 0.03186672 -0.009708582 -0.017578743 0.01158905 -0.015652746 0.018489776 -0.0015153671 0.03707662 -0.026277369 0.023452496 0.009419468 -0.030024853 0.010533591 0.017726388 -0.034003027 0.010348488 0.052650206 -0.044420168 0.011052272 0.01121745 -0.022144474 0.040235214 0.034600534 -0.013674897 0.020627717 -0.017159473 0.0040047877 -0.030303031 -0.008314009 -0.03632025
tt__cullman_regional_medical_center 0.0348056 -0.008837311 -0.03809573 -0.0012155697 -0.029571692 0.043116238 -0.0049727377 0.035363402 -0.042595003 0.0022399728 0.010993635 -0.036027003 -0.00901416 0.0016528346 -0.04463779 0.0344564 0.08460639 -0.058837626 -0.012899502 0.039070297 -0.03404664 0.03412926 0.06305178 -0.007290087 0.013658813 -0.009034369 0.017939586 -0.014412373 0.023591943 -0.042762756
tt__1912_alabama_highway_157 0.037529342 -0.021562526 -0.022877797 -0.02023822 -0.016044205 0.014930813 0.0038648748 0.051011886 -0.039102286 0.016113145 0.015761541 -0.01254971 -0.0009920719 0.010421943 -0.053575523 0.02568196 0.0792838 -0.05850721 -0.018103939 0.04650859 -0.029826114 0.05857623 0.06603089 -0.039843883 0.028974624 -0.0025708398 0.0026374848 -0.019741915 0.013423058 -0.011650941
tt__35058 0.02051249 -0.014970393 -0.01616902 0.0123846745 -0.03485433 0.03420379 0.004223733 0.04503175 -0.02816477 0.013533093 0.006966551 -0.028343014 0.013458671 -0.0055909134 -0.058925204 0.020262832 0.07666519 -0.054409396 -0.02163706 0.046622332 -0.04048903 0.045085087 0.03543667 -0.038881946 0.02889785 -0.0125680575 -0.0029254765 -0.017210584 0.007920149 -0.016361129
tt__2567372000 0.025751257 -0.02505791 -0.019954696 0.0046255426 -0.015462665 0.013011297 -0.005744911 0.021979595 -0.03247898 0.014080774 -0.007607853 0.00041600276 0.0065356265 0.0218771 -0.023515048 0.029836029 0.03744018 -0.035348747 -0.013087999 0.026998492 -0.043617923 0.044024184 0.044030547 -0.008518128 0.008167752 -0.013317156 0.02257628 -0.017519923 0.017355436 -0.016643405
tt__10040 0.021570366 -0.026575813 -0.009578415 -0.02144587 -0.032373987 0.009799697 -0.0060934103 0.030049643 -0.027493723 0.0006571008 -0.008731624 -0.008683864 -0.008973024 -0.0019266752 -0.05574302 0.018752513 0.060110744 -0.033141606 -0.00555651 0.040618297 -0.054275706 0.04860269 0.03150054 -0.026106732 0.012340054 7.404889e-05 0.0004361094 -0.020482402 -0.007974542 -0.011487139
tt__gadsden_regional_medical_center 0.04148275 -0.02009233 -0.014065151 -0.005445921 -0.034871884 0.023024298 0.007184579 0.044287298 -0.013173338 0.013390568 -0.014767618 -0.038389668 -0.0015838 -0.0035676498 -0.07687187 0.020351913 0.09897216 -0.03944701 -0.021165052 0.04965412 -0.06593616 0.026243832 0.053809337 -0.03454755 0.016783005 -0.0006747255 0.0014337122 -0.028528431 0.009174904 -0.051332917
tt__1007_goodyear_avenue 0.038227554 -0.010276279 -0.045644663 -0.0033007842 -0.042215146 0.03096165 0.014468481 0.044900596 -0.043770585 0.023246337 -0.004284146 -0.051087983 0.02162369 -0.0072105415 -0.0930134 0.046072125 0.1255541 -0.052992992 -0.0120463995 0.05169649 -0.054751616 0.07200222 0.058403663 -0.024235168 0.03014386 -0.029605608 0.036106262 -0.060848292 0.022926273 -0.04778454
tt__gadsden 0.06430713 -0.02192774 -0.015069811 -0.008716825 -0.041365884 0.03062483 0.004427629 0.047352515 -0.03333588 0.026813777 0.0006713796 -0.02446478 0.0050258427 -0.0073588714 -0.07842359 0.014069334 0.10994145 -0.04533749 -0.028858313 0.0661861 -0.06441458 0.037696123 0.07674956 -0.038555715 0.041452866 -0.010437504 0.031076904 -0.061926268 0.014725944 -0.038251113
tt__35903 0.05889461 -0.025489585 -0.042709436 -0.0070624305 -0.026210492 0.040102713 0.011443831 0.06537757 -0.045845106 0.007423109 0.004407357 -0.046345733 0.018836794 -0.011436744 -0.08570253 0.03972109 0.08598497 -0.067900695 -0.023488197 0.037468705 -0.040872443 0.046943575 0.0712665 -0.048817065 0.0398412 -0.016783567 0.010942561 -0.060809966 0.024645645 -0.031278428
tt__etowah 0.03249239 -0.01570423 -0.014402065 -0.02236664 -0.021523999 0.030448202 0.015833234 0.053761072 -0.038259592 0.024190353 -0.013263014 -0.033269074 0.015301113 0.017167194 -0.07297473 0.03466777 0.090132155 -0.047665503 -0.01125211 0.054248914 -0.055538125 0.05842545 0.07694831 -0.033889886 0.03529499 -0.022123601 0.013523881 -0.054276023 0.013624387 -0.040549923
tt__2564944000 0.022253573 -0.024249593 -0.017771455 -0.02450493 -0.03608896 0.0057792175 0.014403298 0.048626885 -0.03375464 0.0002293798 -0.019501712 -0.03162552 0.0187404 0.004565848 -0.057405654 0.015495114 0.08500223 -0.04083029 -0.01256114 0.05174863 -0.022767153 0.02505377 0.050051164 -0.014252172 0.016347969 0.004831777 -0.002311776 -0.041605808 0.00208384 -0.040413696
tt__10044 0.0111987265 -0.020348825 -0.030574344 0.0029189596 0.001249117 0.02838688 0.010729563 0.043883342 -0.0045963316 0.020613281 0.014750877 -0.010781139 0.021606414 0.01754913 -0.022028966 0.006482739 0.057416983 -0.044201016 0.003401587 0.03371398 -0.030122912 0.009063764 0.03350481 -0.023125181 0.02759076 -0.0023656946 -0.0048015006 -0.014477193 0.013326025 -0.0033296158
tt__marion_regional_medical_center 0.030868784 -0.037560567 -0.044570725 -0.005687872 -0.008191636 0.018435307 0.013128702 0.035941 -0.010164074 0.009063927 -0.007096981 -0.035901986 0.031338405 0.0025956726 -0.068443514 0.010871379 0.07847945 -0.06424289 0.009850976 0.024450915 -0.054977294 0.049766164 0.061580725 -0.027294839 0.031919755 -0.007109736 0.009493518 -0.031334113 0.013511204 -0.0161404
tt__1256_military_street_south 0.03749768 -0.02429863 -0.05404604 -0.02033112 -0.03117087 0.02881057 0.016025467 0.054948535 -0.03624892 0.022051055 -0.013448926 -0.039875977 0.027065855 -0.0020679436 -0.047158983 0.011603926 0.07155075 -0.05232349 0.00975293 0.0369438 -0.056570478 0.04892033 0.06532559 -0.025513085 0.023698533 0.005127342 0.03720344 -0.022027107 0.024160337 -0.027957011
tt__hamilton 0.051714286 -0.04059963 -0.05681376 -0.008834297 -0.0040494967 0.015706005 0.024486907 0.07170682 -0.03509189 0.023691507 0.010058067 -0.042474564 0.033516753 0.009928915 -0.047190677 0.012950599 0.100115746 -0.06140528 -0.0016782557 0.04216759 -0.061740063 0.047954723 0.07736951 -0.028614823 0.041781485 -0.0019695824 0.022814194 -0.04372204 0.0144709125 -0.017259648
tt__35570 0.05600899 -0.022793133 -0.03813873 0.0077262954 -0.0042710556 0.037987277 0.0074714865 0.066125855 -0.021219082 0.033163764 -0.01282543 -0.03499882 0.0030636145 0.01859957 -0.065708295 0.012011329 0.08181648 -0.049579125 0.015199328 0.030716963 -0.07440751 0.06890867 0.08944101 -0.029712168 0.02643662 -0.02092403 0.029214311 -0.05206107 0.019886918 -0.0498396
tt__2059216200 0.05059506 -0.013848874 -0.01976843 0.005600001 -0.025710126 0.0077692126 0.0050704274 0.044042706 -0.025013074 0.028519385 -0.0047247107 -0.024185965 -0.0041844184 0.0067819566 -0.05502584 0.015326598 0.07284045 -0.04150239 0.008305724 0.03615413 -0.0292879 0.03043604 0.061428454 -0.019404564 0.03354553 0.011457051 -0.0014315369 -0.0306675 0.0035427925 -0.0344924
tt__10018 -0.0062796054 -0.002441737 -0.021389656 0.012988294 -0.01307159 0.0004333279 -0.0036824232 0.022815108 -0.0046818866 -0.0130867455 0.010457179 -0.01237944 0.018028457 0.0050155986 -0.005784459 0.014288822 0.03276695 -0.011761308 -0.004292796 0.021977518 -0.023597267 0.0059627523 0.021980407 -0.011982774 0.0023867069 -0.018563682 -0.0019172825 0.00791559 -0.008367637 -0.010778094
tt__callahan_eye_foundation_hospital 0.015511151 -0.015677236 0.0068832394 0.01246533 -0.018665943 -0.004459001 0.0015777497 0.030215729 -0.009160753 0.019214388 -0.010065706 0.004448915 -0.009783968 -0.008196463 -0.00073221646 0.014101535 0.034957714 -0.010790147 0.0030720306 0.0032365066 -0.013899437 0.008831329 0.012995481 -0.013371151 0.012401569 -0.015421532 0.005228542 -0.018224368 -0.00017493055 -0.0031592625
tt__1720_university_blvd 0.005460503 0.009659988 -0.0030240638 -0.001273822 -0.0046317135 0.008424641 0.008452351 0.00034142594 -0.0018275018 -0.004644905 0.008928363 -0.024610685 0.012305588 0.010649582 -0.008080532 0.0070137354 0.028291516 -0.00640958 0.008744042 0.01337821 -0.00088046025 0.017140865 0.032293826 -0.020064563 -0.003247688 -0.012669183 -0.008677865 -0.017737076 0.015114326 -0.008401053
tt__35233 -0.0036758683 -0.0017767505 -0.011719555 -0.0050340905 -0.0030602703 0.0076047787 -0.0048229494 0.011974031 -0.022516875 0.014227594 0.008903523 -0.0036487554 0.0051048156 -0.013437867 -0.02291017 0.01714921 0.020790411 -0.0056391973 0.00017723389 0.016846713 -0.0159983 -0.0023941621 0.030424038 -0.008071175 0.02067932 -0.009953595 -0.01139862 -0.017252583 0.0031685724 -0.02076369
tt__2053258100 0.022320336 0.0048535084 -0.017490208 -0.011685367 -0.010784993 -0.0010794748 0.018233107 0.0028610702 -0.0106270695 0.013427958 -0.017510792 -0.02023326 0.019010788 0.009934485 -0.00848355 -0.0035566643 0.016744217 -0.008504462 0.0015623024 0.0071365214 0.0042741667 0.012134962 0.004891532 0.0010989304 0.00054038863 -0.0022933132 0.008869823 -0.00948358 0.015579158 0.003489635
tt__10001 0.00388875 -0.016687108 -0.012990813 0.015350538 0.0033965865 0.015181842 -0.0041253376 0.0043127406 -0.012854654 -0.009348241 -0.006680313 0.01214896 0.0006018801 0.0013830665 0.0005606004 0.010310311 0.0019435678 -0.0038778284 -0.012078281 0.0023062273 -0.019112775 -0.009375788 0.010393856 0.014153476 0.0058117807 0.007919443 0.016188553 0.01211802 -0.013036784 0.0016611513
tt__southeast_alabama_medical_center 0.0011460491 -0.007957361 0.008763914 0.013374555 -0.008054244 0.015901513 -0.00416114 0.0068861595 -0.0036204015 0.009797465 -0.012610653 -0.009594746 0.016139762 -0.0108879125 -0.011005765 -0.0026506025 0.01037517 -0.01262737 -0.0020076656 0.013544542 0.0036561454 0.01090975 -0.0014685123 -0.0009007736 0.000808476 0.01111592 0.018478515 0.0063804905 0.012914078 -0.008019405
tt__1108_ross_clark_circle -0.0032789407 -0.00249745 0.006827705 0.0031703166 -0.006538174 0.020094063 -0.005808848 0.01778473 0.0034233541 0.0061602364 0.0065945275 -0.020517824 -6.7886445e-05 -0.004051946 0.0014827896 0.016077911 0.0015612745 -0.014126701 0.012470831 0.016696349 -0.0018190192 0.014190373 0.02245564 0.012064006 0.01405899 -0.0053388868 0.014786432 -0.0026602056 -0.013812349 -0.0145756565
tt__36302 0.009784449 0.0014793463 -0.019155443 -0.01237007 -0.011464438 0.0123852845 0.017208794 -0.008068209 -0.009927259 -0.01007624 0.002601181 -0.005648104 -0.0058142804 0.015829 -0.020373004 -0.011761012 0.0030273127 -0.012611116 -0.012985535 0.008235614 -0.0016577276 0.002206159 0.019409176 -0.006664972 0.0060828896 0.008648924 0.0097886175 -0.0024048532 -0.014022781 -0.0035207768
tt__2565938310 0.0014146108 0.004382779 0.01077899 -0.007754142 -0.011478267 0.0015784538 -0.011880921 -0.008762282 -0.015437382 -0.0029627185 -0.015320928 0.012755545 0.006097223 0.01593085 0.0053632017 0.009650915 -0.01037777 -0.005882953 -0.017066082 -0.009228283 -0.001841371 0.006769474 0.020534491 -0.001965577 -0.01048103 -0.01419027 -0.0074187485 -0.011310568 -0.006456344 0.013709865
tt__10008 0.0013358656 0.012866132 -0.0076905834 -0.0007348354 0.0025635022 -0.0026070615 -0.0073078186 0.017755404 -0.014834591 -0.0072018853 0.0025157775 -0.0054852916 -0.010494584 -0.010426418 -0.011300571 -0.006374122 0.013526693 0.0038095901 0.0063828058 0.01065336 0.0057158843 -0.008661229 0.008087943 0.0124372495 -0.010241915 -0.0049452875 0.010856366 -0.0042126267 0.0023167648 -0.010796695
tt__crenshaw_community_hospital 0.005219816 0.0063451193 0.0014230092 -0.012451077 0.006014677 0.020744301 0.0046852217 0.013062004 -0.019072512 -0.012481421 0.010553101 2.815164e-05 0.0047135814 0.013573703 -0.012817453 0.0065267584 0.013088106 -0.017094946 -0.010284567 -0.008900959 0.0045614094 0.015699875 0.016664762 -0.020092618 0.004300554 -0.010702387 0.012222024 0.009621907 -0.007118636 -0.0063347304
tt__101_hospital_circle -1.6278063e-05 0.001913878 -0.00685594 0.0004783898 -0.017559832 0.003722039 -0.015040552 0.018956568 -0.01567292 -0.0033782455 0.010747454 -0.006133344 -0.007250704 -0.005521908 -0.0051101376 -0.0078619905 0.012964636 0.004068661 -0.0060634734 -0.0019052352 -0.007925469 0.010020493 0.022541326 -0.004675055 -0.007758408 0.0019781361 0.01872211 0.008950783 0.010011375 -9.3683106e-05
tt__luverne -9.99209e-05 0.0057602213 -0.004266719 -0.010508894 -0.008371988 0.0026278363 0.015978903 0.008042679 -0.013290541 -0.0046071727 -0.00047937996 -0.018192662 0.0009652541 -0.0025536327 -0.0007225789 0.008258238 0.0032814464 -0.013393749 0.010521726 0.01880404 -0.004873511 -0.007198201 0.007399438 -0.007912136 -0.005952145 -0.011405282 0.019548703 -0.001591553 -0.0028582546 0.0022748294
tt__36049 0.017033556 -0.017514039 -0.0009863052 0.012686722 0.0047030216 0.016465921 0.008843005 0.021669831 0.010495121 0.0038672136 0.0023667114 0.0023892776 0.0036895913 0.0071617058 -0.009292971 0.00083269307 0.025866916 -0.011503944 0.010213998 0.02132981 -0.006964719 0.021963723 0.017859934 -0.019906752 0.0023289116 -0.016394202 0.012160788 -0.0034141138 -0.004613807 -0.0145544745
tt__crenshaw 0.0162379 -0.007827317 -0.008780078 -0.0015005344 -0.007464637 -0.003904742 0.018256608 0.023177912 0.004197119 0.0122935595 0.011360573 -0.0119478265 0.008409816 -0.0015691746 -0.024830367 0.01944028 -0.0019665011 -0.0063854037 0.003283675 -0.005990229 0.0023518046 -0.0051243366 1.33141875e-05 -0.013264518 0.007993906 0.0030156476 0.0017740984 -0.019950897 0.008739396 -0.0012907798
tt__3343353374 -0.0037119624 -0.012824403 -0.00039408286 -0.016574452 0.0074013765 -0.011345568 -0.0016912641 0.019182373 -0.019854778 0.0118104 0.009709275 -0.017177561 -0.0055044917 0.012654345 -0.004652908 0.010331843 0.02494243 -0.020277228 0.0025226085 0.017210336 -0.022680264 0.005974415 0.0142900245 -0.011170798 0.0037583995 0.003572651 -0.0034474258 -0.0060374327 -0.0067210104 -0.005813059
tt__10108 0.0024016863 -0.008964245 -0.0003517156 0.0133778285 -0.0010194443 0.008020231 -0.012648603 0.0058883694 -0.016865246 -0.003332218 -0.008234637 -0.018103007 0.010000907 0.016837882 -0.020233115 -0.0047459244 0.016889019 0.0022712206 0.007898885 -0.00404473 -0.02970398 0.0028477476 0.020119911 -0.02000307 0.013106257 0.013458615 -0.0005858857 -0.02446766 -0.0049414267 -0.024375634
tt__prattville_baptist_hospital 0.032302767 0.0019034118 -0.018035915 -0.00036563395 0.0037619558 0.015170241 -0.007080476 0.015012178 -0.017484857 0.014161553 -0.008750244 -0.0011434313 0.0060815257 0.023101026 -0.033793285 -0.0015810225 0.049102556 -0.038648833 0.0069075855 0.017304 -0.03881413 0.022665668 0.019108543 -0.0004860541 0.007891792 -0.003398819 0.014324084 -0.011664249 -0.0063664457 -0.0047370624
tt__124_s_memorial_dr 0.005606942 -0.015969193 -0.007035325 0.010925266 0.0063676457 0.02228637 0.014988986 0.0054084924 0.003564014 0.008276948 0.008240542 -0.011770625 0.014497155 0.017834473 -0.022639645 0.003849761 0.05245912 -0.035041925 0.0010579819 0.03400028 -0.024728645 0.032893647 0.022911178 -0.0021491507 0.02306838 0.0012094476 0.009084904 -0.0067670722 -0.0066490704 -0.016225915
tt__prattville 0.022732995 -0.014475181 -0.015902096 0.002279985 -0.009686182 -0.00028462222 0.020005416 0.040284056 -0.029054563 0.021566445 0.0014758575 -0.01780644 0.015437607 0.016433297 -0.042226017 0.027547924 0.047281124 -0.04444213 0.0030467417 0.021929927 -0.037852738 0.0091753425 0.02441774 -0.015256109 0.031669218 -0.014829823 0.02418736 -0.019910822 0.011233725 -0.014300095
tt__36067 0.0031080835 -0.008125421 0.00085998006 -0.0050411783 0.006442223 0.010785254 0.0022717582 0.03423581 -0.013661358 0.0025348067 -0.014049953 -0.020625949 0.021423629 0.007817308 -0.009977863 0.022951348 0.05216067 -0.041525207 -0.00857701 0.0106091555 -0.030499084 0.022736225 0.04385562 -0.016014973 0.028684244 -0.0010299028 0.023967799 -0.02860192 -0.0014440499 -0.025151785
tt__autauga 0.015847892 -0.0035672146 -0.01780931 -0.012370945 0.007879884 0.0064047338 0.00853048 0.02436278 -0.006217374 0.011072336 -0.0094998535 -0.011333964 0.0131198345 0.0036130769 -0.007326057 0.026715029 0.04980049 -0.038023617 -0.0029653327 0.0019247178 -0.037642606 0.030318163 0.025754288 -0.0009134838 0.022800257 -0.0063790255 0.0057185558 -0.014386893 -0.009213926 -0.02606726
tt__3343614267 0.021906096 -0.0049244333 0.00019570597 -0.009242129 -0.021562535 0.018676205 0.019945716 0.008902213 0.007933507 0.013527411 -0.0032381732 0.005076485 0.020761082 0.01806266 -0.017166246 0.020164466 0.01708475 -0.0058677117 -0.014235756 -0.0018190572 -0.0158611 -0.0020020562 0.02400976 0.0025187233 0.024572589 -0.017115647 0.013386819 -0.020505665 0.001401192 -0.01508298
tt__10022 0.024004076 0.00018703 -0.014935512 -0.0071099256 -0.025501974 0.012527576 0.012094502 0.02692798 -0.007804858 -0.0015888306 8.147166e-05 0.0062465486 -0.008370472 -0.0056173443 -0.012310343 0.003355459 0.046418075 -0.020108052 -0.018621007 0.029698113 -0.007346945 0.015823454 0.013066739 -0.011080202 0.0023205746 -0.000121214835 0.0010161477 -0.010068369 -0.0077349627 -0.01873025
tt__cherokee_medical_center 0.015858918 -0.016161643 -0.009036009 -0.013909806 -0.017218847 0.0064526307 0.017691463 0.011504057 -0.018340506 0.006710838 -0.019564146 -0.010955293 0.013168513 0.0100265285 -0.04908785 -0.0030211892 0.044615272 -0.031484295 -0.016722005 0.00937469 -0.046657715 0.023267196 0.04916657 -0.013481646 0.024642607 -0.0029413998 0.016003449 -0.008458934 0.00031980252 -0.029125018
tt__400_northwood_dr 0.014035043 -0.030586563 -0.026944084 -0.016863765 -0.017415214 0.036333103 0.017648933 0.040164027 -0.0042417147 0.015473934 -0.011250724 -0.020481477 0.025956012 0.021872433 -0.05710746 0.0034970278 0.067460716 -0.022478005 0.0041007046 0.029504115 -0.0286795 0.015523631 0.060220417 -0.012588524 0.0021911906 -0.013707389 0.015908474 -0.012257745 -0.0024852548 -0.020262951
tt__centre 0.015140453 -0.025826963 -0.014163746 0.007278161 -0.031457625 0.013713694 0.022187158 0.033146974 -0.011627295 0.011251586 -0.0023380432 0.001797287 0.026511384 0.020057624 -0.028438922 0.012368536 0.0572869 -0.031516373 -0.0156128565 0.030592436 -0.026799204 0.010798319 0.03664955 -0.008978406 0.0063079265 0.004836403 0.009248031 -0.022017187 -0.0014295685 -0.033916958
tt__35960 0.03641961 -0.024472049 -0.02067766 -0.0063027916 -0.004039934 0.010593578 0.00524359 0.029030591 -0.017531177 0.001438005 -0.013382262 -0.02417291 0.013573068 0.0010148021 -0.029816477 0.004253408 0.039098386 -0.0233467 0.009341603 0.043995157 -0.034055926 0.027596695 0.041073952 -0.0019459605 0.0013835096 0.011642238 0.028023101 -0.038282797 0.012017199 -0.032017875
tt__cherokee 0.006575335 -0.020299228 -0.023873186 -0.0076363166 -0.018044105 0.012385962 0.008031076 0.038720667 0.0017605656 -0.003413105 -0.012473461 -0.020815313 0.008551806 0.025775053 -0.037706327 -0.0030855637 0.030390104 -0.029137019 -0.0066579515 0.041406065 -0.044295028 0.009527517 0.020167727 -0.02734888 -0.0008495777 0.0059932466 0.0018799297 -0.031379372 -0.0015345549 -0.007974101
tt__2569275531 0.003949029 0.0048760865 -0.022426875 -0.0001448537 0.0041276175 0.021392642 0.0037140234 0.028996373 -0.0010984698 0.002143788 -0.014073547 0.007023532 0.0136603555 0.01581562 -0.017173864 -0.010585696 0.01002633 -0.027779944 0.007111749 0.028113166 -0.011974899 0.026924776 0.027956499 -0.0160758 -7.025899e-05 -0.0021679087 0.012290302 -0.012993826 -0.013801748 -0.0031906725
tt__10027 0.019862773 -0.012240692 -0.026794322 -0.0046547856 -0.014949695 -0.0013997232 0.01955715 0.03775908 -0.01727071 -0.0042471164 0.000562719 0.00044654578 0.02234813 0.011166794 -0.01759386 0.02002963 0.046272147 -0.039232332 -0.011560582 0.04168074 -0.031153107 0.027205471 0.030004662 -0.031751733 -0.0015712009 -0.0070880656 0.015286766 -0.028183175 -0.0007335494 -0.013814256
tt__elba_general_hospital 0.031934604 -0.009000312 -0.014638481 0.0058513745 -0.025066556 0.020952921 -0.0054332847 0.051492237 -0.019930985 0.025052786 0.0144801885 -0.010418206 -0.0083397515 -0.008786633 -0.04720764 0.019481858 0.07671824 -0.04770917 -0.015258371 0.05078448 -0.046968624 0.044200987 0.05805441 -0.032380797 0.01970094 -0.012405437 0.017054336 -0.037236776 0.0065656635 -0.03004531
tt__987_drayton_street 0.027023705 -0.033513207 -0.04648323 -0.020368 -0.01031945 0.026935546 -0.00022118674 0.028940395 -0.023341598 0.017278988 0.007864273 -0.036761917 -0.0065223714 0.0044242004 -0.033499844 0.021595156 0.05715853 -0.029147604 0.009373765 0.0500532 -0.04343083 0.043999862 0.06182913 -0.026877811 0.033678 -0.01161308 0.028560035 -0.026613677 -0.002971712 -0.02005075
tt__elba 0.042723577 -0.021686247 -0.038791016 -0.019460585 -0.010013008 0.024170617 0.021590266 0.040546197 -0.017717637 0.016529525 0.018530501 -0.027411956 0.011307133 -0.0075348783 -0.051078852 0.03622125 0.09083347 -0.050285008 -0.026129562 0.058164027 -0.03243127 0.030650297 0.062384363 -0.026961727 0.029993702 -0.0005612292 0.03148905 -0.039087065 0.010484467 -0.03365039
tt__36323 0.029632425 -0.00048192492 -0.039421137 -0.0072510885 -0.035329748 0.028959103 -0.00422489 0.01986962 -0.010685319 -0.0073712226 0.008812189 -0.023456557 0.0012961237 0.018064525 -0.022439329 0.015687972 0.063501835 -0.023201937 -0.016601922 0.021873178 -0.05158808 0.02351884 0.04494805 -0.006181967 0.03508264 -0.007909426 0.032452736 -0.025145555 -4.166961e-05 -0.04329772
tt__3348972257 0.03145726 0.0056580626 -0.013781186 0.0036041103 -0.028823555 0.007857183 0.00048798777 0.038855623 -0.028808737 -0.004338213 0.007500594 -0.0072034737 -0.008115576 -0.0012620062 -0.020468315 0.011728026 0.042863596 -0.02245971 -0.010001853 0.025311051 -0.03569293 0.036818143 0.031670477 -0.026927104 0.02270798 -0.015854398 0.026923504 -0.03418762 -0.0060732067 -0.02077108
tt__10029 0.00024552437 0.0065745506 0.0024695136 -0.020440113 -0.012188036 0.0012739198 -0.007981853 0.02787952 -0.019992469 -0.00049720966 -0.014899434 -0.018160027 0.01645395 0.018353311 -0.03185638 -0.007086616 0.040141348 -0.032011077 -0.015763009 0.008609126 -0.0067445682 0.012157549 0.039325897 0.000148896 0.005707359 -0.021627765 0.02089132 -0.029168032 -0.009909785 -0.029067783
tt__10034 0.044707596 -0.029053144 -0.023028225 -0.023705535 -0.004962674 0.011297282 0.0037984543 0.036402646 -0.028773688 0.022003416 -0.0016748405 -0.0130627435 0.02223237 0.029790726 -0.04446811 0.006561103 0.04492013 -0.02448165 -0.012349325 0.03864192 -0.03418661 0.043480072 0.04778411 -0.0024610786 -0.0026490248 -7.54508e-05 0.031922724 -0.027209295 -0.0012875543 -0.01439081
tt__community_hospital_inc 0.05208287 -0.021369433 -0.022880938 0.0071753305 -0.027164357 0.03342851 0.0066411737 0.024829293 -0.012968063 0.013421791 -0.01207175 -0.030292032 0.012969535 0.018930858 -0.049414545 -0.0016242887 0.054552194 -0.01682745 -0.009555498 0.053518955 -0.036218736 0.053328585 0.07284956 -0.0136922775 0.024389587 -0.0006321544 0.019062247 -0.007823205 0.0035935047 -0.018592877
tt__805_friendship_road 0.055966675 -0.027545292 -0.05011254 -0.0046923747 -0.0038997359 0.011397898 0.006953609 0.039122067 -0.02525628 0.029953063 -0.009245954 -0.03623884 0.012095231 0.036448535 -0.043322977 0.0313994 0.09408143 -0.023973221 -0.022662755 0.06065216 -0.041303687 0.06004655 0.066518165 -0.01577006 0.011711773 -0.022953738 0.031774625 -0.015546981 0.007520857 -0.03404141
tt__tallassee 0.05655444 -0.029349793 -0.028888784 -0.025218667 -0.010352206 0.019125575 0.020411959 0.04477181 -0.007306949 0.0097796 0.004911138 -0.0120848855 0.0061888867 0.028727852 -0.051880706 0.00871708 0.09803862 -0.029783724 -0.009112436 0.044880822 -0.06618329 0.04960114 0.07954843 -0.011077999 0.025828043 -0.029404957 0.026486691 -0.039810196 0.0018514122 -0.04522398
tt__36078 0.030074842 -0.039879944 -0.04900092 -0.018863933 -0.008970184 0.03596351 -0.0059785135 0.027277878 -0.031415667 0.006723996 -0.0148910275 -0.013257459 0.030475331 0.035549212 -0.06930012 0.035220366 0.09018474 -0.042928282 -0.017793424 0.06625888 -0.04639123 0.06580306 0.06499459 -0.023507161 0.022592902 -0.02045296 0.0377469 -0.027770909 0.0078948345 -0.041603956
tt__elmore 0.05669514 -0.03708585 -0.048247594 0.0053664246 -0.02121625 0.023333061 0.026951741 0.044587083 -0.008527809 0.031246584 -0.0087995995 -0.0077710142 0.005987964 0.015470438 -0.06618989 0.018581841 0.059413012 -0.029638883 0.0076472317 0.06257717 -0.056468755 0.03729906 0.052770305 -0.026870182 0.0156233525 -0.01657771 0.040041853 -0.0090747215 0.009203959 -0.03618901
tt__3342836541 0.008691356 -0.010023188 -0.014529562 -0.011994185 -0.017962348 0.024986116 0.00094228395 0.004907892 -0.0036658314 0.011796757 0.014333552 -0.017182492 0.02005142 0.009803567 -0.043118183 0.021619707 0.05302591 -0.023154812 0.0060893185 0.036905546 -0.026266703 0.020981336 0.047034543 -0.022976061 -0.006135683 -0.013807663 0.027154142 0.0030552363 -0.012826315 -0.029328493
tt__10047 0.024067985 -0.025364835 -0.037228547 0.0055033313 -0.021286858 0.014342498 0.004543093 0.06450077 -0.013240638 0.019309305 0.012032122 -0.034004644 0.0047754794 0.017537095 -0.040044814 0.018118639 0.06335119 -0.064122275 -0.0036865077 0.030480402 -0.05993636 0.034237996 0.056844678 -0.04357237 0.010675244 0.0052089677 0.031719502 -0.039585225 0.016108785 -0.04387528
tt__georgiana_hospital 0.070068896 -0.026917156 -0.025413163 0.0070095463 -0.051183052 0.03942184 0.029512605 0.06335504 -0.015970308 0.028896756 0.023727793 -0.05803114 -0.0063584265 0.01589983 -0.07533591 0.009589423 0.09265976 -0.08587003 -0.022405095 0.037022147 -0.08689829 0.03537068 0.08846818 -0.052440964 0.003827143 -0.021233572 0.04723274 -0.049291413 0.0045655416 -0.069919735
tt__515_miranda_st 0.057906862 -0.038242802 -0.044953667 -0.005997554 -0.03845118 0.046400025 0.021173768 0.10018157 -0.028328966 0.029513558 0.019313902 -0.06266375 0.006383505 0.024419324 -0.096080706 0.029112518 0.13177122 -0.088966005 -0.032420494 0.05274099 -0.09930651 0.07071444 0.113217264 -0.040221483 0.011814566 0.006987645 0.040149037 -0.0466133 -0.0048515084 -0.07598942
tt__georgiana 0.088081785 -0.022716392 -0.056924686 0.012019729 -0.05317829 0.036011912 0.0015487535 0.10240923 -0.051434647 0.04023261 0.0071415994 -0.044884644 0.01730582 0.041715126 -0.07290844 0.042875797 0.146613 -0.09773506 -0.0273493 0.043086704 -0.114463165 0.05368516 0.12244558 -0.053302422 0.0101603605 -0.00970704 0.0540843 -0.043428186 0.025140086 -0.06723492
tt__36033 0.05555539 -0.032104976 -0.045178656 -0.020437911 -0.04578066 0.056737285 0.008334652 0.07034559 -0.022608701 0.0075964546 0.013457765 -0.03804649 0.026028885 0.039026015 -0.07738502 0.011251123 0.13005027 -0.06004383 -0.0046100686 0.06900293 -0.08816175 0.052166447 0.10814296 -0.04645644 0.025307791 -0.011521133 0.025726452 -0.06125249 0.0010128344 -0.07168068
tt__butler 0.046627276 -0.031862248 -0.03652641 -0.0010073795 -0.050914526 0.015476763 -0.0027358292 0.087006934 -0.031903017 0.0072743413 -0.004271818 -0.032901872 0.0060173837 0.039498366 -0.07203653 0.022406576 0.08764866 -0.07930856 -0.02149833 0.033163957 -0.07559053 0.040461812 0.084976435 -0.034022678 0.026006036 0.0050765085 0.045549426 -0.02284244 0.023770604 -0.06958669
tt__3343762205 0.048014525 -0.00881355 -0.038617346 -0.00317359 -0.041273676 0.030270958 0.025023924 0.051877547 -0.0033235848 -0.005224228 0.019314736 -0.024624154 -0.003285819 0.002413879 -0.06673005 0.029523356 0.07966974 -0.049308714 -0.023620546 0.039443973 -0.06551736 0.013966803 0.065042764 -0.010794124 0.028775893 0.009723032 0.021965452 -0.013377171 0.022258926 -0.022077898
