6 30
tt__jefferson -0.003398931 -0.0026946214 -0.0037737046 0.013161441 0.009241152 -0.0017299164 -0.0006783809 0.005585728 -0.004220941 0.0064893183 -0.007446347 0.0044304654 0.007743835 -0.015088483 -0.009456226 0.0019937179 0.0057880497 0.0043319184 -0.015259488 0.003288581 -0.0018507796 -0.012082797 0.010576544 0.01462561 -0.001860095 -0.015060737 0.011831621 0.0035428007 0.0031905773 -0.012557584
tt__helen_keller_memorial_hospital -0.00029483828 0.0028368477 0.005658839 -0.003350452 0.006801868 -0.015887128 -0.015096579 0.012744584 -0.012068216 0.013164925 -0.005717054 -0.0007251828 0.009556918 0.014750096 0.008356233 -0.01416609 -0.014777231 -0.004066349 -0.003013499 0.008847275 -0.011617155 7.066989e-05 0.013913129 -0.001271106 -0.0004039828 0.008493995 0.0032313806 0.008152409 -0.0039459732 -0.0044634887
tt__1300_south_montgomery_avenue -0.0067799906 -0.014638456 0.0036096587 -0.010816195 -0.008903562 0.0011434816 0.001402485 -0.0009301411 0.0020698835 0.0074300105 -0.0001665123 -0.004111027 0.0027917512 -0.015073554 -0.009280502 0.009924867 0.016227087 0.008197233 0.0044268407 -0.002919101 -0.012945847 0.006476541 -0.011111237 0.01569593 -0.004966243 0.0019193669 0.003452534 -0.0068760496 0.0065437076 -0.016422128
tt__sheffield -0.012650971 0.0033998152 0.002876625 0.011426215 0.01644652 0.0055755745 0.008959943 0.0018654852 -0.015479767 0.0017205431 0.01472699 0.013322076 0.00029987076 -0.007512378 -0.0006426172 -0.012943913 -0.012833216 -0.012686289 -0.0018616576 0.00428165 -0.014545999 0.0014604394 0.009588841 -0.010947386 0.013274478 -0.00613134 0.011161567 0.009356111 -0.0017504396 -0.014720649
tt__35660 0.0059077013 -0.008037226 -0.007921535 0.0027702188 0.010596877 -0.015614919 -0.0020729431 0.0039806217 -0.007444407 -0.00917987 0.0006255447 -0.0019546447 -0.0032931238 0.0015404057 -0.010184859 0.0025021958 0.0018704614 -0.008840344 0.008527863 0.012344933 -0.0041637835 0.008470746 -0.00404236 0.006767001 0.015090682 0.012933751 0.00033899126 0.005121411 0.014498257 -0.0051783733
tt__2563864556 0.012667827 0.0152144 0.013105648 -8.321918e-06 0.009748109 0.013758818 0.010383742 0.007820261 -0.0036381835 -0.00806373 -0.007863658 0.01307334 0.009920535 0.014188696 0.014785339 0.0011803667 -0.0013610868 -0.007813806 0.0010118149 -0.009989648 0.007939613 0.0020179925 -0.011508734 0.0009714313 0.007824872 -0.0043712235 0.008838242 0.0049054422 -0.015427717 0.0027387908
