4 30
idx__3 0.26196182 0.028789071 -0.6389148 0.43641 0.49061805 -0.37825233 0.27199042 0.12093447 -0.3628481 -0.34257516 0.618073 -0.38006434 -0.09761084 0.104797125 -0.08259128 -0.3131942 0.3045288 -0.0030779378 0.2562224 -0.24584606 -0.3230908 0.56746477 -0.06815482 -0.67388386 -0.30345425 0.25111565 -0.61443317 0.17055073 0.28424156 -0.21757807
idx__0 0.68389195 -0.05215014 -0.4463848 -0.14875597 -0.1827593 -0.12495357 0.31771952 0.27946937 -0.12242624 0.6666519 0.319599 -0.32458013 -0.0154648125 -0.1277352 -0.263339 0.30950296 -0.21534276 -0.27413574 0.8109706 0.2622494 -0.2935135 0.7321641 -0.21750073 -0.11817714 0.34920493 0.33119503 0.28528315 0.21127933 -0.16518112 -0.43904442
idx__1 0.3209035 -0.2225805 0.3691772 0.0068660052 -0.5427972 0.26551276 0.75608593 -0.47984764 -0.20780717 -0.11823428 0.47318178 -0.3603462 0.08649261 -0.6563869 0.12294983 0.006628581 0.18388021 -0.5542441 0.13021211 -0.461744 0.15518776 0.30200002 -0.15670523 0.20928496 0.13535446 0.3848227 -0.18321139 0.4741042 0.15870099 -0.32233533
idx__2 0.16450478 -0.06017283 0.29734617 0.02089303 -0.6568128 0.28515714 0.49243152 -0.45983207 -0.20662928 0.043688204 0.53903323 -0.54985166 -0.15080155 -0.49998742 -0.01492052 0.17901252 0.10789108 -0.4922566 0.15891258 -0.35491085 0.10650041 0.073410645 -0.33993486 -0.08843617 -0.029964289 0.34954908 -0.27300805 0.48718047 0.15023877 -0.24972995
