100 30
idx__43 -0.4210012 0.12499282 0.13756223 0.18668291 0.60002434 0.9066824 -0.21470256 -0.4666295 0.17095916 -0.4584091 0.42146784 -0.22130357 1.493269 -0.34225512 -0.10856076 -0.14824249 -0.50080496 -0.58660865 0.17542906 -0.21564189 -0.52294725 -0.04670941 -1.2515745 -0.39753672 0.17469306 0.55229956 -0.13650607 -0.19312894 0.07921934 -0.197687
idx__9 -0.7634864 0.6615116 0.13189669 0.5225155 0.6305092 0.47582474 0.5483197 -0.60646486 -0.7447477 -0.039380923 -0.23401488 -0.07542019 0.8393715 -0.64249414 -0.7068573 0.3698672 0.08915068 0.016010126 0.38306284 1.1702049 0.42470685 -0.062442582 -0.6311726 -0.82024467 0.06097751 -0.22516705 -0.7365123 0.87617236 -0.16332223 0.2080943
idx__83 0.095327586 -0.18920681 0.24948734 0.89670306 0.32846624 0.38235602 0.3849269 0.21577467 -0.45683065 -0.67499095 -0.26310447 -0.18671328 1.0540668 -0.47381678 -0.8124634 0.48363647 -0.21752283 -1.0832185 0.102454826 0.26560733 0.65543544 0.2001272 -0.5274515 -0.3790207 -1.0191506 0.6892911 0.17090985 0.41903752 -0.12339947 -0.34119573
idx__12 -0.74409163 0.22860914 0.23744136 0.5780255 0.29116303 0.09178687 0.21191847 0.88551223 -0.46397695 -0.6149909 0.7132329 0.41522568 0.8500138 -0.8082995 -0.45079154 0.097672604 0.31373847 -0.39467257 0.20027843 -0.11310885 -0.30753538 0.40567237 -1.1710393 0.023898294 0.17901026 -0.59649515 -1.083293 0.07160337 0.38559565 -0.6440361
idx__94 -0.222224 -0.3074854 -0.7300078 0.52716935 0.9917998 0.9967554 -0.7926678 -0.12100872 0.5861183 0.22050145 -0.08054368 0.31856126 0.6810638 -0.0038457017 -0.3452016 0.4966695 0.0037438257 -1.197541 0.34537637 0.7414012 0.36527294 0.20076136 -0.5778185 -0.18780394 0.34236017 -0.5006819 -0.5007519 0.46510512 -0.23919381 0.07708369
idx__30 0.06244146 0.24109803 -0.9011764 0.54322034 -0.19090481 0.15925771 0.18447228 -0.43253264 -0.46681213 -0.30765465 0.336901 -0.33888057 0.63613933 0.5051952 -1.3038894 0.14505504 -0.21688679 -0.13610996 1.1413397 -0.10650521 0.6032749 -0.61226153 -0.7756053 0.05878072 -0.45392355 0.21077214 -0.21233904 -0.072256565 -0.25213438 -0.5822724
idx__13 -0.71307385 0.114729196 -0.09084013 0.25303745 -1.1524245 0.030305361 0.48199075 -0.101311125 -0.462701 -0.43186465 0.13385035 0.09001698 0.78125024 -0.26454914 -0.9152145 -0.6529366 -0.5344338 0.031787314 0.70988995 0.47396916 -0.5440812 -0.16951098 -0.11143278 -0.018648185 -0.41089863 0.08241428 -1.2638795 0.7947486 -0.51597077 0.22429831
idx__63 -0.0033856288 -0.29501235 0.45985216 0.4757788 -0.3426873 -0.34278226 -0.062408835 0.21041547 -0.18456407 -0.35136575 -0.20277901 -0.3578993 0.499614 -0.89954203 -0.8515541 0.117444046 -0.33982763 -0.9666191 1.128716 0.50103754 0.43820983 -0.028776001 0.33905312 0.40390825 -0.12042758 0.082940124 -1.283302 0.1605944 -1.2551522 0.5412057
idx__55 -0.7224134 0.44583574 -0.7452574 0.48720902 0.35683835 0.8060879 -0.59412277 0.29382822 -0.16708893 0.20896754 -0.20114096 0.54157805 0.39787355 -0.6541391 -0.6399196 -0.024584595 0.35399416 -0.8704016 0.9146245 0.5572487 -0.3841128 0.025413293 -1.2809359 0.47461715 -0.60298157 -0.3529621 0.09599512 1.103084 -0.92881364 0.07260403
idx__4 -0.15704298 0.06782796 -0.77576214 -0.13766816 0.003173686 0.16120575 -0.14972389 -0.5085721 -0.4826229 -0.34494022 0.5908202 -0.041446418 1.1788352 0.82087153 -0.76085055 0.082933694 0.6831475 -0.21201122 1.2269193 0.053465385 1.4961038 0.14231199 -0.9650291 -0.23050244 0.27722344 -0.14538774 -0.030544383 0.073899396 -0.28248036 -0.28244042
idx__3 -0.04081038 0.04758444 -0.6119751 -0.05958075 0.0097992 0.40324828 0.23754752 0.25211784 -0.45200583 -0.32916155 0.7936714 -0.12102164 1.1830307 0.6698386 -1.0559263 0.18482305 0.56387985 -0.24652182 1.2333585 -0.21979347 1.2218927 0.41810203 -1.1447818 -0.15348731 -0.024384536 -0.2130577 0.072760604 0.33212548 -0.36018258 -0.04443971
idx__64 -0.38618308 -0.15979467 -0.19490637 0.887779 0.5015913 0.81581485 0.49986517 0.52576447 -0.6609396 -0.5144957 0.030663433 0.59095025 0.018976424 0.16817713 -1.0815271 0.94992507 -0.055544607 0.056106236 0.52188224 -0.3106388 -0.45610383 0.3500887 -0.3837233 -1.0007684 0.46617246 0.33044615 -0.44766635 0.22798164 -1.391401 -0.50791204
idx__45 -0.4926268 0.46590853 0.13068669 -0.13668013 0.20877962 0.71458405 0.22932978 -0.32635134 -0.11774361 0.23566683 0.7860654 0.4034124 1.1977099 -0.0074494826 -0.06835644 1.2724258 0.11520011 -1.0833759 0.49734595 -0.29468483 0.1740038 -0.3529642 -0.34281695 -0.11080477 -0.5060052 0.25025314 -0.9320445 0.30755553 -1.2659677 -0.4253833
idx__44 -0.3979633 0.47156024 0.24567275 0.01447393 0.076189674 0.82446134 0.11695433 -0.3329256 -0.11250821 0.32813552 0.78566164 0.5151464 0.89560366 -0.056888893 0.011630413 1.4101809 -0.113182224 -1.2011014 0.6500189 -0.31588703 0.20055284 -0.50114775 -0.27585676 0.047611732 -0.516965 0.10874201 -1.0532157 0.3534339 -1.3081615 -0.3775489
idx__93 -0.9890713 -0.30253446 -0.15745197 0.52298206 -0.34065586 1.0165226 0.1084657 -1.3931551 0.060736094 0.40089193 0.1708508 -0.3112368 0.23537594 0.4179404 -0.79599166 0.063104756 -0.6728581 0.04588083 0.74867445 0.68356705 -0.7543998 -0.091933 -0.87851673 -0.529841 -0.1063338 -0.043186683 0.19387296 -0.38922518 -1.166731 -0.077157095
idx__10 -0.95882624 0.30958256 0.10654994 0.81572217 0.30334988 0.44155395 -0.65880895 0.7809905 0.11641295 -0.54055375 -0.063240625 0.12809774 1.3420123 0.62384516 -0.82872885 0.5260412 -0.5855151 0.22567089 0.6421517 0.2924433 -0.3233846 -1.1420798 -0.23829088 -0.64426726 -0.049936563 -0.54037976 -0.34861392 0.4501893 -0.07272866 -0.050639026
idx__92 -0.9862397 -0.26042232 -0.37195638 0.3539609 -0.15511835 0.9861671 0.007252437 -1.4798983 -0.14159785 0.5111582 0.078585505 -0.22068892 0.16306958 0.5408799 -0.65046376 0.0521036 -0.69543415 -0.077570215 0.67163616 0.7790302 -0.48470992 -0.34201732 -0.86781436 -0.3363049 -0.17504753 0.1020115 0.15120527 -0.3497115 -1.0114211 0.01854558
idx__36 -0.5191811 -0.36267185 -0.19218336 -0.036854614 0.09402225 -0.5037506 -0.21479142 -1.0464909 0.036763497 -0.45886844 -0.048686862 1.1256142 1.7432817 -0.11333986 -0.8272075 0.20033272 0.32200983 -0.2775686 -0.119612984 0.117568895 -0.089721635 0.05244972 -0.47086143 0.14932759 -0.49869093 0.07217412 0.13995655 0.7346678 -0.48647857 -0.7089734
idx__11 -0.67362154 0.38807613 0.107413046 0.9677075 0.26104546 0.4513791 -0.5726596 0.89505464 0.24920952 -0.8437993 -0.10365394 0.29579288 1.4461783 0.6405272 -0.65027624 0.51463604 -0.41524777 0.08657449 0.78862125 0.19409026 -0.01648175 -1.0728832 -0.3901503 -0.42845583 -0.05991913 -0.48665065 -0.20111446 0.624524 -0.044864997 -0.019247035
idx__65 -0.4681031 -0.14577457 -0.2555962 1.041706 0.4992772 0.6820528 0.55553 0.43501365 -0.4057865 -0.42074636 0.07726739 0.6241955 0.011639764 0.19843335 -0.8981558 0.97027475 -0.046023563 -0.051401425 0.55857044 -0.42759493 -0.7014108 0.22536874 -0.5555601 -0.8896381 0.37892988 0.32724184 -0.49604627 0.3212095 -1.3467681 -0.5719164
idx__54 -0.74437284 0.34747612 -0.6836975 0.5130857 0.5433518 0.8315782 -0.51033854 0.19420302 -0.04170617 0.26520962 -0.34116125 0.5855994 0.4799608 -0.551674 -0.49005648 0.01882074 0.2243203 -0.97716254 0.77402484 0.37492323 -0.6920868 -0.035081375 -1.2446997 0.36124966 -0.6702185 -0.33680522 0.13663344 0.95623213 -0.8894185 0.09370462
idx__35 -0.7789912 -0.34179136 -0.0027338034 -0.08624253 0.122571915 -0.4974421 -0.37584007 -1.0511396 -0.06540476 -0.3419952 -0.09426594 1.1192819 1.8819829 -0.11476703 -0.7587044 0.19218789 0.33015013 -0.37146208 -0.08714008 0.27376077 -0.14758804 0.12998062 -0.47515762 0.23443446 -0.30983317 0.21620955 0.02664643 0.89844126 -0.5463917 -0.7724513
idx__27 -0.13601449 -0.34695342 0.683306 -0.10857134 -0.5695354 0.46399215 -0.17610171 0.05207358 -0.09184072 -1.069536 0.37852183 -0.05347546 1.4246725 -0.8986848 -0.3375155 -0.40898257 -0.31768632 -0.049403492 1.1093023 0.495618 0.2749554 -0.14453785 -0.76357406 0.041046355 -0.56867796 0.25617102 -0.24026729 -0.105624855 -1.2240943 0.8842821
idx__58 -0.5006026 -0.24714915 -0.05475914 0.6381878 -0.65868473 0.64960027 -0.0240561 -0.5928039 -0.67418146 -1.3633229 -0.19419648 0.095210634 1.1231594 -0.090451196 -0.89798385 0.5700694 0.814111 -1.291108 0.68146205 0.90662944 -0.8774109 -0.5523661 -0.115486346 -0.053808395 0.5375837 -0.18994822 -0.10439398 -0.3390205 -0.18894732 -0.6919987
idx__0 0.014802918 -0.41018784 0.46344963 -0.119124666 -0.40210503 0.38123283 -0.18132456 0.04931229 -0.24700265 -1.1326679 0.32106474 -0.24434249 1.3055183 -0.81153476 -0.39897808 -0.38463455 -0.46411115 -0.16240193 1.1927587 0.584164 0.11575455 -0.3097392 -0.4349148 0.0030608787 -0.1529868 0.44343838 -0.37284186 -0.26960215 -1.4437573 0.84732604
idx__38 -0.7604442 -0.6824661 0.88043505 0.63337195 0.045840345 -0.016328705 -0.18881664 -0.4142572 -0.28718764 -0.06648859 0.08432734 0.31580457 0.382652 -0.73688823 -0.43283227 0.21892771 -0.27641016 -0.7285206 0.66049486 -0.2646655 0.69694424 -1.296557 -0.9968925 -0.46281505 0.58461434 -0.5141507 -0.09292313 0.17923841 -0.52149 -0.8643391
idx__81 -0.09793335 0.6727358 -1.0570129 0.3095486 0.40130544 -0.11294136 0.10006598 -0.21857004 -1.0126253 -0.9029193 -0.19163236 0.4417477 0.5723615 0.1743581 0.3596945 0.54386353 -0.73590255 -1.0452749 0.029427176 0.7920317 -0.24389586 -1.1034774 0.10549752 -0.3141032 0.12974702 0.17985357 -1.2932451 0.55958104 -0.30022702 -0.28611338
idx__56 -0.92924446 -0.081879914 -0.23650746 1.1147097 -0.57128745 0.3974486 0.22305334 -0.6003357 -0.3355127 -1.0332074 -0.68280613 0.08770076 0.80982524 -0.019619163 -0.50680244 0.56248164 0.5056065 -1.4513664 0.6391134 0.84818494 -0.85077673 -0.49152923 -0.49123406 0.032184646 0.5049398 0.13892977 -0.16541305 0.08389515 -0.085107885 -0.9557683
idx__57 -0.9627029 -0.21907578 -0.3119798 0.97559506 -0.615852 0.4694308 0.32093498 -0.48237625 -0.29055378 -1.207605 -0.6042889 0.19617909 0.6524159 0.28863537 -0.4027146 0.44123998 0.47660598 -1.165346 0.82249403 0.7344266 -0.68232346 -0.4968143 -0.55307496 0.0061160447 0.6709344 0.17482027 -0.12756725 0.09748462 -0.0704266 -1.0012248
idx__15 0.06183055 -1.0874584 0.83655447 0.09454485 0.21148725 0.66542965 -0.06723016 -0.9698575 -0.051860083 -1.1272244 -0.014347176 0.7446535 0.9739342 0.76989895 -0.34348676 0.48526895 -1.1016281 0.04228882 0.32823962 0.92152375 0.34592783 -0.3967768 -0.27527657 -0.2387589 0.09381921 -0.013964061 -0.9319715 0.22161382 -0.36542773 -0.29598868
idx__28 -0.7380105 0.24698271 -0.0107281925 1.0773792 0.13187413 -0.8567987 -0.061836027 -0.40701675 -0.56596696 -0.29690823 -0.027136108 -1.155365 1.2885895 0.6848472 -0.12247998 0.7478169 -0.5809891 -0.2524722 0.55059826 0.6335248 -0.15733972 0.6085852 -0.52734625 0.072591074 0.5613336 -0.55451083 -0.35857403 0.5431522 -0.83507425 -0.5416903
idx__21 0.6289672 0.11561097 -0.311096 0.05969462 1.0259291 1.1495607 0.71700275 -0.9656313 -0.7542424 -0.890217 0.045097377 0.6695039 0.24267013 -0.0077059665 -0.9547924 -0.61005074 -0.050040346 -0.8522384 0.5062912 0.22946617 -0.30992457 -0.16852266 -1.0254823 0.71949536 0.3919554 0.2516153 -0.57281613 0.3588524 -0.58414966 -0.2553547
idx__22 0.3242089 0.6043187 0.031848364 0.568215 0.4931713 0.47222844 1.1234804 -0.7878192 -0.81040883 -0.8103523 -0.15793416 0.37339818 0.35491064 -0.31338054 -0.091148704 -0.6205187 -0.28582054 -0.64143157 0.41500995 -0.3350875 -0.063192286 0.10343692 -1.3920575 0.506726 0.666661 0.35328087 -0.47180125 0.37285522 -0.9065097 -0.5282176
idx__6 -1.070201 -0.13559406 0.008371784 -0.18575527 0.23245573 -0.024643345 0.037012625 -0.22792894 -0.5848548 -0.45788747 0.57711655 0.9259603 0.80895513 0.45605618 -1.2411796 0.027621187 0.017179232 -0.350865 0.14599445 -0.009136934 -0.014249271 -0.4173955 -0.8293879 0.48680967 0.0944934 -0.18140033 -1.6051065 -0.39704958 0.3620794 -0.8903286
idx__53 -1.5811614 0.68347764 0.48787385 -0.026080457 0.3542409 0.7328681 -0.46093658 -0.026948478 -0.52868783 -0.6185299 -0.80158293 -0.2012663 0.31981146 0.49039754 -0.59716254 -0.09668082 -0.32311603 -0.5490378 0.47473377 0.4217161 0.8723542 -0.016481232 -0.52813786 0.31439957 -0.33148262 0.8484851 -0.6123466 0.5139311 -0.703195 -0.44591588
idx__51 -1.6525022 0.5830215 0.74680454 -0.06439847 0.3520695 0.94361717 -0.60197824 -0.037042245 -0.4856838 -0.62720805 -0.7502162 -0.267649 0.29444486 0.5016368 -0.5583174 0.14246443 -0.32955775 -0.60651064 0.23854738 0.58668125 0.6902704 -0.036168203 -0.49592546 0.39856347 -0.23068334 0.8907703 -0.747402 0.50935763 -0.58833456 -0.5578254
idx__52 -1.5926358 0.7712695 0.5254258 0.040332682 0.4601608 0.9216741 -0.4539511 0.12729636 -0.64288515 -0.58582115 -0.7348267 -0.33119786 0.22798987 0.46851406 -0.21269104 -0.19726576 -0.4517547 -0.5149159 0.40528536 0.6230117 0.6965637 0.118725985 -0.57925147 0.13311255 -0.2962869 0.8420021 -0.8278892 0.4020813 -0.64350575 -0.47679284
idx__82 0.0356344 0.5838633 -1.1075641 0.33734402 0.46610484 -0.23749094 0.019701986 -0.31374454 -0.94702405 -1.0014688 -0.12052648 0.37342712 0.6672387 0.12413768 0.32350114 0.34239936 -0.82212347 -1.2485237 -0.07881398 0.5865138 0.077198185 -0.90171945 0.06774271 -0.3905797 0.018498112 0.30375358 -1.1004072 0.46551234 -0.15290816 -0.41215813
idx__75 -0.7287765 0.20267278 0.517007 0.66786045 0.6358983 -0.12361726 0.1681861 -0.62625664 -0.4818063 -0.46333936 0.33367407 -1.1287258 1.1371971 0.4613273 -0.13686055 0.3615165 -0.5824103 -0.5475179 0.6293662 0.045335297 -0.7496997 0.44197854 -0.752698 0.4174695 0.5374163 -1.0667545 -0.70232886 0.6532153 -1.1705774 -0.6947197
idx__80 0.054381818 0.46343943 -1.1088347 0.2998462 0.39268902 -0.21291587 -0.19618703 -0.35480213 -0.9354427 -1.0511358 -0.12199336 0.3424924 0.52106 0.18930468 0.41055208 0.4318855 -0.9064082 -1.0157475 0.017158287 0.64186126 0.15603088 -1.0538148 -0.069962904 -0.39067242 0.013313208 0.26608354 -1.1816578 0.57128835 -0.14746305 -0.30964607
idx__85 -1.063561 0.12901464 -0.8126414 0.6592052 -0.114738904 -0.39491653 0.107251965 -0.1814739 -0.0047689085 -0.6176582 -0.27077135 0.40774152 1.0083022 0.13630405 1.0191793 0.091530696 -0.5978388 0.18422121 0.9877139 -0.21516591 0.43313864 0.17171417 -1.5044147 -0.8194317 -0.5842759 0.4611834 -0.5205624 0.44397628 -0.78386456 -0.6456195
idx__18 -0.2615816 -0.94304407 0.4028619 0.2935764 -0.021172548 0.44081524 0.33511055 -0.27809086 -0.18877394 -1.0118091 0.28896686 0.8185152 0.36747795 0.43250346 -0.39716372 1.635156 -1.3092848 -0.21577892 0.5792729 0.63938254 0.2692548 -0.0055666375 -1.2670842 0.7664054 0.10892135 0.038010933 -0.3120941 0.77864087 0.06275929 0.097460724
idx__19 0.44569132 0.423252 0.2971303 0.25749364 0.6475147 0.907002 0.8805531 -1.147536 -0.41106713 -0.9135809 -0.09692324 0.60769516 0.2309265 -0.069214426 -0.6313797 -0.6986884 -0.1601191 -0.7299379 0.3810473 -0.07486891 0.011029784 -0.079720266 -1.000875 0.36329404 0.24065344 0.17900343 -0.6539602 0.43509817 -1.0461104 -0.72828037
idx__20 0.4032566 0.4099867 0.1811782 0.34371218 0.7026767 1.0571569 0.8281386 -1.0276387 -0.35793588 -0.8228895 -0.08159593 0.76963586 0.10902756 -0.1796513 -0.6819972 -0.68713397 -0.06277736 -0.64267695 0.5658844 -0.26159745 -0.05863465 -0.033565737 -1.0874879 0.4074094 0.47604716 0.04325953 -0.63345385 0.61702526 -0.8152609 -0.8881552
idx__86 -0.89272296 0.17995667 -0.7564348 0.42892802 -0.1690631 -0.31175902 0.17933999 -0.32708254 0.066572875 -0.70345426 -0.094037175 0.6050648 0.7950188 0.2075047 1.0814749 0.11314698 -0.6401815 -0.05264677 0.79081887 -0.2255894 0.36093274 0.10287809 -1.5281105 -0.7040722 -0.771218 0.30517444 -0.6979622 0.25880185 -0.81298757 -0.51341575
idx__8 -1.4197339 0.10802983 0.10269627 0.07815762 0.44375783 0.14854094 0.34890658 -0.5128155 -0.2745408 -0.103304915 0.271522 0.8994822 0.52979213 0.4143419 -1.2698702 0.08174165 0.080439195 -0.4806986 -0.010793016 0.11663854 -0.1428415 -0.035006616 -1.3374029 0.19586653 -0.23931105 -0.4186693 -1.4455501 -0.38218933 0.5899672 -0.393826
idx__7 -1.5113053 0.0142462 0.053691834 -0.38536778 0.12878299 0.26875073 0.46548563 -0.48137358 -0.71978784 -0.15907435 0.6074146 0.41438055 0.5819511 0.2533882 -1.2878017 0.29194397 0.33123988 -0.60330284 -0.014583889 0.18275927 0.0018997232 0.29397848 -0.98441136 0.33438694 0.12574655 -0.45348272 -1.4139808 -1.0357227 0.13009869 -0.6007578
idx__31 -0.64345276 0.003541538 -0.19054238 1.1791747 -0.1970989 0.15853518 0.08169866 -0.8434434 0.46035752 -0.1163101 -0.20322819 0.6046158 0.6958223 0.07754442 0.21540608 0.32082593 -0.7791189 -0.21482834 0.388446 0.6957979 0.93164635 0.9032092 -1.0384418 -0.20161977 -0.5980987 -0.5132845 -0.9126545 -0.2543017 -0.03843245 -1.4699552
idx__95 0.1379498 0.03706922 0.17111799 0.08949132 0.16637455 0.82729685 -1.2357662 -0.76362944 -1.3154609 -0.05088685 0.504877 -0.21008924 0.6450016 -0.6125557 -0.44864944 0.16729566 -0.65916365 -0.4497921 1.1434002 0.45913592 -0.05823893 0.49886674 -0.30452934 -0.39104098 0.40128157 0.2532613 -0.56777936 -0.00050733064 -0.39568862 -1.905338
idx__74 -0.62869996 -0.054147273 0.27186933 0.86306643 0.4050663 -0.8053909 0.15631935 -0.5799955 -0.47421747 -0.4508532 0.20697641 -0.9869956 1.1042842 0.601581 -0.31893337 0.7726925 -0.5679593 -0.37969297 0.6404508 0.017619379 -0.4014387 0.4956669 -0.8397061 0.31479734 0.6483531 -0.8827221 -0.28292167 0.60037446 -1.0274417 -0.43729904
idx__84 -0.93100125 0.015687607 -0.72556514 0.75298107 -0.10356961 -0.24708956 0.33585757 -0.16902816 0.05590719 -0.5390201 -0.24962202 0.6309944 0.8042111 0.111830145 0.881398 0.12888257 -0.78428745 0.12107135 0.8487461 -0.107130095 0.31435063 0.10978186 -1.5060763 -0.89197826 -0.80383897 0.31103265 -0.58125144 0.5274862 -0.8318829 -0.49792182
idx__5 -1.367294 0.09230421 0.22523943 -0.33851624 0.13432254 0.17183463 0.47997922 -0.48179415 -0.7430067 -0.113006674 0.8137628 0.48401073 0.5483526 0.08142112 -1.0087308 0.2509574 0.111563094 -0.81674117 0.075019866 0.029817816 -0.05425646 0.18771045 -1.0668569 0.1087658 0.14745305 -0.2194399 -1.5182401 -1.0032927 0.13968164 -0.6652501
idx__39 -0.8055398 -0.16260068 1.0182818 0.9896193 -0.2037376 -0.116624795 -0.2558982 -0.4277236 -0.2982471 -0.03748796 0.2700652 0.6032523 0.12197583 -0.8679668 -0.64093864 0.43408212 -0.34867185 -0.4488228 0.94945467 -0.13031524 0.9359283 -0.9574554 -1.2428972 -0.39465895 0.52752453 -0.15132272 -0.017947283 0.19449098 -0.5139633 -0.6503101
idx__29 -0.63192666 0.17495917 0.17106763 0.78933847 0.2772556 -0.719799 0.24013297 -0.72532064 -0.45320818 -0.6624355 0.11782178 -0.95432633 1.1732501 0.78442264 -0.44491422 0.46765187 -0.57499105 -0.22216544 0.73778987 0.15341958 -0.62085205 0.5111988 -0.8237863 0.3306659 0.6211426 -0.86861676 -0.20442101 0.78528744 -0.9641908 -0.30545396
idx__68 -0.61614364 0.8578044 -0.055798195 0.22805369 -0.0638265 0.5082664 -0.32065186 -0.2341922 -0.5450923 -0.78186655 0.41331735 0.5752934 0.7356361 -0.04251416 -0.655443 -0.54413617 0.023756202 -0.9576017 0.48083866 0.16349964 0.2178172 0.32839623 -0.07095106 -1.378859 -0.32035932 -0.8423355 -0.4526564 -0.47414577 -1.5748671 -0.2799691
idx__71 -0.64076716 -0.3004867 -1.0894144 0.2982693 0.053332318 -0.02891669 -0.34591135 -0.29006833 -0.3868364 -0.73364544 -0.6998632 0.61522156 -0.051534545 -0.29121488 -1.7914331 -0.64504164 -1.2585181 -1.0399637 -0.23341852 0.40223885 0.3611938 0.18613712 -1.1242259 -0.51251 0.88182145 -0.1576122 0.0010010148 0.20048766 -0.5364505 -0.05881246
idx__40 -0.38283792 0.3151514 -0.004062167 0.13556936 -0.7127867 0.20988855 -0.24565731 -1.0492408 -0.68849474 -0.6315848 0.8060381 -0.19136295 0.74813914 -0.18364061 -0.28232458 -0.17535211 -0.9265166 -1.3047681 0.37961206 0.88047403 0.2837087 -0.3089997 -1.1078744 0.4173417 -0.4733383 -0.99451315 0.03921151 0.2560953 0.41100073 0.23786393
idx__1 -0.5688434 0.3413281 0.036920696 -0.26637435 -0.81208205 0.48325127 -0.62369967 -0.8015404 -0.37885678 -0.54044276 0.40158352 -0.3648868 0.85466146 -0.44809425 -0.08398556 -0.26845416 -0.7462421 -1.0551497 0.7437122 0.79597634 0.54185003 0.10679403 -0.6600268 0.62770736 -0.46872014 -0.62164706 -1.0578732 0.3087563 -0.2703764 1.0000015
idx__76 -0.4912281 -0.82539946 -0.3368259 0.23142171 -0.20417613 0.49151427 -0.8537823 0.53293836 -0.040815204 -0.8267322 0.51392275 0.31964135 0.61516595 0.7723792 -0.3709666 0.1924118 -1.0822533 -1.410475 0.3762494 -0.4460671 -0.53745574 0.40910324 -0.6675876 0.5124007 -0.23231614 0.17330095 -0.03804203 -0.43485203 -1.0516669 -0.75831264
idx__25 -0.0549423 -0.021131493 0.09105405 0.3153891 1.0414498 -0.07466829 -0.8257663 -0.4012959 -1.3666452 0.2397918 0.7509288 0.35957578 0.64336514 -0.51216716 -1.5434569 0.42727962 -1.534426 0.16715972 -0.07879273 0.093635134 -0.29091075 -0.13732992 -0.99187076 0.0020691538 -0.7536221 -0.32100257 -0.7602996 0.39957893 -0.8327993 0.23518896
idx__26 -0.11030836 0.13686535 -0.03422674 0.5307351 1.0844517 0.08786523 -0.709392 -0.22458579 -0.94692975 0.13441242 0.50669533 0.17718431 0.79724723 -0.44330546 -0.95350665 0.21687524 -1.8784606 0.1222115 -0.084733136 0.042916875 -0.3687981 0.21063359 -0.7065957 -0.21537149 -1.1841972 -0.16207351 -0.85382754 0.3901827 -1.0666959 -0.07769789
idx__66 -0.6798734 0.69610476 0.10806739 0.47671744 0.19956627 0.33186936 -0.25224155 -0.17052157 -0.44894934 -0.7625315 0.11775299 0.80514896 0.88287157 -0.07498466 -0.6279262 -0.57518053 -0.15483491 -0.91246915 0.24273434 0.23633341 0.21149111 0.24876726 -0.065710925 -1.5365219 -0.28925267 -0.74522287 -0.49179906 -0.6299997 -1.4109175 -0.24358867
idx__78 -0.44873607 -0.6765504 -0.42781135 0.32041085 -0.53459746 0.25729635 -0.60677713 0.63668126 -0.03851692 -0.81936014 0.6808496 0.15090492 0.61921614 0.7276098 -0.49504507 0.08993362 -1.0362467 -1.4535788 0.54106265 -0.6183451 -0.47905153 0.52208084 -0.73933125 0.5680046 -0.33033776 0.15839367 -0.13917008 -0.4642743 -0.88354874 -0.7470554
idx__24 -0.033962186 -0.011765599 0.22615327 0.5124561 1.0427879 -0.008433258 -0.6718288 -0.2827114 -0.90377975 0.2825121 0.5617568 0.27238712 0.7128296 -0.7353151 -1.1336007 0.46009436 -1.6127341 0.25473455 -0.10163029 0.29145542 -0.16959426 0.1090763 -0.71891546 -0.0907671 -0.8817751 -0.074398346 -0.9205895 0.574084 -1.0815939 0.042011507
idx__67 -0.7388124 0.79000825 0.0018967048 0.4213599 0.14499904 0.4515569 -0.0633434 -0.22836998 -0.27841365 -0.9411386 0.12063252 0.52159745 0.999751 0.26049376 -0.70007664 -0.55641675 -0.03898476 -0.8623958 0.31895247 0.20689274 0.38620186 0.2713936 0.055377245 -1.3693224 -0.41961426 -0.80201274 -0.4650842 -0.40442818 -1.5178093 -0.36351198
idx__37 -0.6588567 -0.18553871 1.0341406 0.9411413 -0.2371634 -0.13712233 -0.19940181 -0.6022481 -0.15602216 -0.16922659 0.28475568 0.68537366 0.18335156 -0.9396893 -0.5526395 0.30250508 -0.3491302 -0.82424086 0.9222735 -0.04287204 0.66702 -1.0822908 -1.2624471 -0.4219097 0.59551656 -0.2019554 0.12540646 0.0954698 -0.64133525 -0.6024207
idx__79 -0.45801383 -0.6619491 -0.41142708 0.11387713 -0.33606985 0.5494637 -0.57537115 0.55702305 -0.2112061 -1.0332097 0.5196163 0.42758715 0.42640585 0.8894138 -0.54917943 0.29961035 -0.9628506 -1.335255 0.26056218 -0.28237364 -0.69600546 0.5230965 -0.41909575 0.65224564 -0.40655503 0.21266037 -0.4183333 -0.47296748 -1.083021 -0.63205844
idx__59 -1.1294748 -0.6257557 -0.9193772 0.26382273 -0.014029514 -0.11681573 -0.27858722 0.14894047 -1.3089279 0.2568398 0.16106029 -0.11265338 0.52762544 -0.82178485 -0.18593565 1.2176428 -0.052727927 -0.7690253 0.51747864 0.7208235 -0.074280225 0.52701765 -1.2990015 -0.020735472 0.6596319 1.0395668 -0.29151747 0.06747545 -0.13677137 0.009642644
idx__14 -0.14881645 -0.94676435 0.29404938 0.010022222 -0.2753297 0.67485124 0.3837385 -0.57562935 -0.21738471 -1.0550491 0.15101267 0.5437075 0.8652073 0.80546486 -0.63743263 1.3258554 -1.418238 -0.16535927 0.7079455 0.86483663 0.24502298 -0.1344262 -0.9032028 0.46541822 0.6072902 0.7983698 -0.6823646 0.7669018 0.01131561 -0.13708833
idx__32 -0.5874439 -0.21316019 -0.46501878 1.3811307 -0.006678233 0.59441394 0.27508295 -0.3776964 0.4506674 -0.434784 -0.36329785 0.29479414 0.46636456 0.031727243 0.11207449 0.26473966 -0.66888946 -0.680529 0.5090623 0.4882106 0.36291975 1.1203144 -1.0329754 -0.47751254 -0.85291654 -0.40383267 -1.0152073 -0.12589584 -0.12274453 -1.1631941
idx__23 -0.09511508 0.057712484 0.120361015 0.24906044 1.1633023 0.073407374 -0.69917303 -0.06887326 -1.1166493 0.04442724 0.79977876 0.3760772 0.8508543 -0.4103036 -1.5633767 0.57090116 -1.4146149 0.20261545 -0.2753098 -0.06020553 -0.11260968 0.13066146 -0.6639233 -0.061671037 -0.86499375 -0.18848303 -0.70829993 0.35539734 -0.98821926 0.1144786
idx__77 -0.38427392 -0.63649654 -0.25334406 0.22841617 -0.38403752 0.51032305 -0.5976232 0.57600373 -0.06702715 -1.053792 0.57637346 0.51597416 0.54525024 0.5848255 -0.5789631 0.016273173 -1.0151427 -1.5930947 0.29890162 -0.54214144 -0.4782314 0.30083713 -0.6268873 0.8256726 -0.26625514 0.08055381 -0.32473642 -0.34957176 -1.0881186 -0.780223
idx__17 -0.12694384 -0.8901882 0.38490435 -0.24238786 -0.28242883 0.6442951 0.24984719 -0.555481 -0.09046148 -0.97427356 0.16823147 0.5365587 0.9601528 0.54206824 -0.6442983 1.3348316 -0.98103386 0.13446553 0.7818899 0.93083626 0.23455875 -0.24813426 -1.0585219 0.3905561 0.62915033 0.889252 -0.54117 1.0113119 -0.09271909 -0.1610513
idx__61 -1.0877318 -0.7129404 -0.6952681 0.19425447 -0.3007234 0.12444233 -0.2613309 0.23847692 -1.463613 0.2403873 0.23541087 0.07389751 0.48218757 -0.8502043 -0.24650787 1.2135441 -0.10220477 -0.76306516 0.53850746 0.9596727 -0.011771342 0.20993742 -1.0039389 -0.03577018 0.58461946 1.0061829 -0.49810943 0.10706609 -0.20147541 0.23130299
idx__60 -1.2541076 -0.6579946 -0.81648076 0.056470454 -0.2894548 -0.15835613 -0.33526275 0.03764958 -1.3045185 0.34126866 0.1689134 0.011482109 0.5310327 -0.9213494 -0.097848035 1.146506 -0.06261761 -0.82256263 0.43200806 0.8161877 0.038037635 0.28202325 -1.1980449 -0.077863105 0.45884395 0.88592035 -0.32572243 0.11770022 -0.27395198 -0.098685935
idx__16 -0.15942031 -1.0139728 0.3410951 0.008572343 -0.2769199 0.6659914 0.27542672 -0.49903116 -0.089080244 -1.1460738 0.12117521 0.72030056 0.7394616 0.49978366 -0.5966621 1.1793851 -1.060159 -0.005087728 0.732353 0.93218076 0.28515685 -0.012833995 -1.1096077 0.39607185 0.6979243 0.6821471 -0.6357592 0.8178833 0.017266626 0.020582529
idx__33 -0.68884474 0.12495679 -0.3138789 1.4570299 -0.08981032 0.7197802 0.36763448 -0.46907297 0.3586836 -0.4125823 -0.25744593 0.34250668 0.31649774 0.15330027 0.0029412762 0.34173757 -0.67952174 -0.5835461 0.53798497 0.6167528 0.69287556 1.1529387 -0.9799992 -0.49975404 -0.80253226 -0.41898236 -1.1067914 -0.09357527 -0.047660146 -1.0789322
idx__34 -0.63139784 -0.07670009 -0.35150686 1.3067888 0.11381764 0.7459267 0.3029804 -0.4731016 0.56768906 -0.39462703 -0.28675258 0.24803014 0.5794735 0.09439248 0.0904472 0.23414747 -0.8351275 -0.56967443 0.4894738 0.6043773 0.5402173 1.0721617 -1.1246496 -0.58826697 -0.81365967 -0.6157155 -0.87587905 -0.1569203 -0.09004814 -1.0786662
idx__2 -0.5067918 0.39898667 0.079270504 0.027571075 -0.7970965 0.0659621 -0.056598384 -0.6876539 -0.5763898 -0.64280075 0.6452042 -0.29579797 0.95990163 -0.47388205 -0.14537409 -0.24387945 -0.7552773 -1.2682418 0.75231904 0.791773 0.32775912 -0.20438299 -0.87566316 0.5243802 -0.6255797 -0.8215406 -0.5852094 0.08948865 -0.29476222 1.0168865
idx__90 -0.980359 -0.46234643 -0.605682 0.486203 1.4405048 -0.12427634 -0.11281894 -0.7957273 -0.32772633 -1.2158837 -0.63252014 -0.1684343 0.40143192 -0.03509537 -0.32027826 1.1586523 -0.091075964 -0.37874454 0.16074173 -0.35189867 0.21079446 -0.6027363 -0.9671351 -0.040755663 -0.35390225 -0.08416229 -0.2687153 -1.1229115 -1.0589918 0.14823009
idx__46 -0.49687588 0.028169777 0.37609082 0.24604788 -0.07265004 0.05656398 0.13412917 -0.67882997 -0.3337514 0.8536649 0.19011089 0.15707104 0.7749604 0.3732627 -0.8127981 0.032996476 -0.8039726 -1.0698793 0.4121789 -0.25613764 0.54339296 0.7752413 -0.44627535 -1.3067976 0.48942837 0.9479235 -0.862607 0.54398733 -0.45073947 0.090603665
idx__89 -0.6575708 -0.18100397 0.09733332 0.41064778 0.9359544 -0.80348396 0.69818753 -0.6794953 -1.4432042 -0.892815 0.08426113 -0.08959895 0.8721165 0.30077013 -0.48944598 0.629727 -0.25310442 -0.25391126 0.46944708 0.15094027 0.3505582 -0.79926133 -0.94212943 -0.7206358 -0.47244444 -0.057479717 -0.34665108 -1.1395772 -0.6239104 0.6776882
idx__62 -1.2493699 -0.77456045 -0.9044498 0.14089863 -0.23789139 -0.11189936 -0.24089174 0.09622083 -1.1906978 0.4023585 0.30171052 -0.07628044 0.4369312 -0.72743005 -0.2327621 1.262714 -0.35265464 -0.7588129 0.38077542 0.8826289 -0.1507602 0.45285168 -1.1961348 -0.2725863 0.39069566 0.91062146 -0.49437338 0.1327027 -0.086606964 -0.02542191
idx__98 0.13658015 0.2759624 0.025906133 0.3775724 -0.09239905 0.80622256 -1.2457538 -0.41879913 -1.0303437 -0.5804041 0.37475348 0.072669476 1.1394078 -0.7129007 -0.0879948 0.17898315 -0.3714611 -0.030621566 1.1914955 0.8735832 -0.06550503 0.27134138 -0.40879628 -0.55165535 0.13158453 0.17737523 -0.5942197 0.45166647 -0.59806114 -1.8362246
idx__99 0.3268405 0.34258735 0.23932864 0.34541976 -0.11163391 0.87766474 -1.1011986 -0.44547722 -1.0437955 -0.5951222 0.47299686 0.20024022 0.91661483 -0.7389638 -0.055732787 -0.026732553 -0.3657668 0.13823809 1.2124362 0.9724022 -0.11902905 0.22612332 -0.6084501 -0.4305576 0.14749351 0.19782965 -0.64306056 0.48233652 -0.6126293 -1.6868712
idx__96 0.12392706 0.24371888 0.1501837 0.2330795 -0.12320967 0.77752924 -1.3265287 -0.31594515 -1.0543704 -0.590556 0.566319 0.12916236 1.1789502 -0.7913602 -0.18466178 0.26193592 -0.3476247 0.13045146 1.1398935 0.6783487 0.11327905 0.38716307 -0.596301 -0.47979417 0.13012122 0.21934766 -0.6213256 0.49679473 -0.4542349 -1.6361312
idx__42 -0.36539122 0.5054346 0.10819878 -0.07359666 -0.78192204 0.0650002 -0.06863743 -0.69493836 -0.7543121 -0.88782805 0.5725492 -0.34323677 0.9541771 -0.39450952 -0.18307835 -0.4954524 -0.6384156 -1.0718548 0.712675 0.90740246 0.5936748 -0.0729276 -0.92167073 0.6428875 -0.5631267 -0.7761037 -0.65101826 0.24913199 -0.060309883 0.86401963
idx__69 -1.0174595 -0.30322054 -0.38831127 0.36371464 0.3353189 -0.40074542 -0.66383815 -0.09903667 -0.56651706 -0.85102624 -0.59533775 0.23771156 0.24131994 -0.090411015 -1.7515922 -0.5841816 -1.0900044 -0.91517705 0.26996693 0.38537398 0.6322467 0.7753374 -1.2421478 -0.16020171 1.2127246 -0.46802154 0.19339745 0.20863745 -0.35041893 -0.10100606
idx__41 -0.45413437 0.2688725 0.02949002 0.09511499 -0.79434335 -0.0031917256 -0.082171895 -0.51064384 -0.72465235 -0.72355074 0.64377654 -0.26184276 0.74593973 -0.37273568 -0.18923473 -0.31231248 -0.9298386 -1.1077089 0.8989336 0.85993755 0.45539254 -0.25277016 -0.8831744 0.61134666 -0.509226 -0.9194276 -0.5626718 0.08380418 -0.121721506 1.0448838
idx__97 0.19453984 0.18205486 0.073818475 0.21219511 -0.13048464 0.9109997 -1.2897987 -0.30911732 -1.1084445 -0.45463076 0.5236242 0.1640476 0.95265293 -0.61232555 -0.13266258 0.25855902 -0.30128336 0.15066436 1.1186244 0.97661245 0.008803806 0.12571305 -0.5616341 -0.2542437 0.042838853 0.267757 -0.765908 0.48282906 -0.39628357 -1.7311016
idx__72 -0.89816254 -0.33613434 -0.35990995 0.18748651 0.13200065 -0.18547556 -0.6045179 -0.102273755 -0.5991269 -0.71165276 -0.34014425 0.35241857 0.21124123 0.046009764 -1.6689448 -0.42476404 -1.0856743 -0.5137977 0.3456587 0.52444535 0.84723157 0.74991673 -1.1046953 -0.17193076 1.0488665 -0.61062074 0.16450827 0.17665161 -0.47776318 0.0050144405
idx__70 -0.9670346 -0.37710786 -0.5129418 0.27747768 0.22383288 -0.5496359 -0.54991025 -0.10433078 -0.40053248 -0.9312915 -0.52101517 0.44936687 0.19356747 -0.053339288 -1.7766689 -0.49542323 -1.2309176 -0.86195606 0.19516073 0.283185 0.4594332 0.7522015 -1.2331856 -0.15985774 0.9892928 -0.30265996 0.22845387 0.3396884 -0.61051923 0.10746305
idx__73 -0.7606142 -0.44451535 -0.3458404 0.18016519 0.46007422 -0.2451733 -0.674466 -0.23194586 -0.6006341 -1.0402501 -0.57869786 0.27113008 0.14750803 -0.04004719 -1.5991274 -0.6596377 -1.0998431 -1.0084356 0.2919406 0.45549417 0.5643088 0.9403633 -1.1468868 -0.13383901 1.0289679 -0.3822522 0.08710492 0.26667455 -0.30153602 -0.07009741
idx__91 -1.0944741 -0.24603568 -0.36451375 0.40229562 1.3277767 -0.42282438 0.7541379 -0.7325407 -0.6451669 -0.88354135 -0.54749435 0.09292703 0.8499354 0.041684285 -0.6415239 1.0694499 -0.046151936 -0.8217601 0.24299653 -0.13542427 0.4097393 -0.71806586 -0.9531465 -0.45041442 -0.45080206 -0.21889833 -0.14419565 -0.707028 -0.74084485 0.7805005
idx__47 -0.44668233 0.3229768 0.21716803 0.49070427 -0.22430514 0.20487139 -0.16364011 -0.61852443 -0.12030781 0.40054724 -0.012329386 -0.18252565 1.3890634 0.53724605 -0.9988154 -0.0036203365 -1.1297288 -1.0148902 0.22821008 -0.53349423 0.58253306 0.2084428 -0.09955154 -1.159966 0.79810244 0.80138236 -0.702616 0.96374726 -0.31576505 -0.34541008
idx__87 -0.85610056 -0.31119338 -0.6255898 0.47442505 1.2379588 -0.47739282 0.7398968 -0.5891848 -0.7521305 -1.088289 -0.38906637 -0.120627835 0.69435525 0.110935725 -0.54820037 0.9586734 -0.23146178 -0.8132905 0.39700463 -0.3550018 0.44480267 -0.5229171 -1.194207 -0.41473293 -0.37233853 -0.10960959 -0.19027705 -0.7704703 -0.7039795 0.7359125
idx__88 -1.0086471 -0.2774367 -0.5357817 0.546072 0.9424828 -0.70575315 0.6686239 -0.6321823 -0.60195816 -0.98403513 -0.33468342 -0.00941619 0.89521194 0.3911207 -0.68728983 0.79411596 -0.12955488 -0.97008795 0.13027684 -0.26085684 0.39828286 -0.8428585 -1.1374465 -0.5123729 -0.4890205 -0.14186062 -0.13120651 -0.88862073 -0.7000242 0.8306587
idx__49 -0.25018603 0.12802094 0.24101734 0.43776003 -0.07881363 0.09531822 -0.23259029 -0.36650032 -0.17788231 0.43369007 0.32812423 0.063101195 1.5068282 0.36404195 -1.003899 0.15468085 -1.1953888 -1.0242263 -0.008314257 -0.5552671 0.72854614 0.38444442 -0.16996576 -1.3855103 0.7595192 0.74544233 -0.9829987 0.84941775 -0.44212365 0.0105707105
idx__48 -0.26716793 0.21764624 0.23725869 0.3988873 -0.122784965 0.07702209 -0.19776602 -0.41628605 -0.24808955 0.39630392 0.20952955 -0.10185643 1.3902668 0.3883464 -0.9067912 0.120914035 -1.1875681 -0.8227044 0.36891103 -0.7481637 0.6976847 0.33872283 -0.23152912 -1.2889187 0.7226411 0.74511623 -0.8636247 0.9571746 -0.4094026 -0.11051001
idx__50 -0.43041766 0.10777614 0.10470689 0.558385 -0.32053617 -0.0427672 0.053658795 -0.28586522 -0.18280056 0.48922268 0.19506548 0.08155519 1.3993715 0.56727654 -1.0196887 0.19603638 -1.1106632 -1.1134678 0.18401247 -0.54382634 0.3344646 0.3125036 -0.17130719 -1.1116412 1.0483762 0.85052043 -0.975953 0.740786 -0.2535998 -0.20683669
